3000 128
<pad> 0.000000 0.000000 0.000000 0.000000 0.000000 0.000000 0.000000 0.000000 0.000000 0.000000 0.000000 0.000000 0.000000 0.000000 0.000000 0.000000 0.000000 0.000000 0.000000 0.000000 0.000000 0.000000 0.000000 0.000000 0.000000 0.000000 0.000000 0.000000 0.000000 0.000000 0.000000 0.000000 0.000000 0.000000 0.000000 0.000000 0.000000 0.000000 0.000000 0.000000 0.000000 0.000000 0.000000 0.000000 0.000000 0.000000 0.000000 0.000000 0.000000 0.000000 0.000000 0.000000 0.000000 0.000000 0.000000 0.000000 0.000000 0.000000 0.000000 0.000000 0.000000 0.000000 0.000000 0.000000 0.000000 0.000000 0.000000 0.000000 0.000000 0.000000 0.000000 0.000000 0.000000 0.000000 0.000000 0.000000 0.000000 0.000000 0.000000 0.000000 0.000000 0.000000 0.000000 0.000000 0.000000 0.000000 0.000000 0.000000 0.000000 0.000000 0.000000 0.000000 0.000000 0.000000 0.000000 0.000000 0.000000 0.000000 0.000000 0.000000 0.000000 0.000000 0.000000 0.000000 0.000000 0.000000 0.000000 0.000000 0.000000 0.000000 0.000000 0.000000 0.000000 0.000000 0.000000 0.000000 0.000000 0.000000 0.000000 0.000000 0.000000 0.000000 0.000000 0.000000 0.000000 0.000000 0.000000 0.000000
<start> 1.148410 -1.639677 2.560413 -0.058205 0.636964 -0.696543 -0.908015 0.571558 -1.103122 0.305633 0.057367 -0.356738 0.170950 -0.467095 0.860829 -0.428559 -0.845301 0.340905 -1.485858 0.700455 -0.812724 -1.700612 1.974213 0.423210 0.146275 1.061500 -2.014259 0.561697 -0.071581 -0.847304 1.363285 -1.046436 0.993788 -0.767692 0.416618 -0.239658 0.050685 0.783920 0.581198 0.159233 -1.292669 -0.300714 -0.878128 -0.022934 -2.636486 0.161077 -2.316439 -0.319847 0.182723 -2.088658 -0.474861 -0.692789 -0.277287 -1.600628 -1.128118 0.140667 0.038490 -1.066602 -1.144639 -0.513668 0.590950 2.249161 0.062948 0.396632 0.987725 1.210420 -1.477911 -0.407875 0.670782 0.664491 -0.166385 -1.079490 -0.415032 -0.641092 -0.590487 -0.359495 -0.322806 0.108906 0.670863 0.435097 0.691186 1.067083 -3.074824 -0.284661 1.234187 1.479333 0.673063 -1.344796 0.629978 -0.051280 -0.250211 -0.265769 -1.870797 -0.486363 0.438600 -1.373577 -0.252942 1.050689 -0.579240 -0.066726 -1.680189 1.102123 -0.525073 0.065415 1.849588 -0.092114 0.332899 -1.375871 0.122858 1.136567 -1.189746 0.302876 -1.304627 0.560061 0.770736 -0.438027 -0.631675 -0.360023 0.442835 -2.581253 2.749645 -0.409073 0.119067 -0.854093 1.305279 -1.104898 -0.473200 0.440375
<end> -0.402374 2.097703 0.254732 0.333479 0.278424 -0.036447 -0.757747 0.648880 -0.072950 1.546439 -0.170400 -1.859404 -0.573044 1.467229 -0.288094 0.482021 0.585557 0.866652 0.869454 0.408169 1.751138 0.709564 1.542219 2.368402 1.412716 -1.603670 0.276322 0.575805 -0.000633 -0.992355 -1.984627 -0.771705 -0.594590 -0.492783 2.887375 -0.470936 -0.526485 0.050921 0.561113 -1.536200 1.625337 0.814693 -0.132363 0.287563 0.202821 0.532327 2.484540 -1.199300 1.326124 -0.344465 -1.915024 0.186334 0.362794 -0.027598 1.245338 -0.832143 -1.260347 0.013780 0.277185 2.804396 0.345796 0.649761 0.269898 1.982408 -0.007848 -0.949328 -0.452061 -1.534737 2.001814 -0.884980 1.444199 -1.557262 2.450644 -0.464830 -0.125646 -0.469054 -0.919140 -0.774372 0.200050 -0.317412 1.744369 -0.405931 -0.804322 -0.958812 2.249087 0.120278 -0.080023 0.074576 1.258448 0.983028 -0.734756 -1.640188 -1.233155 0.626852 0.143680 0.498085 0.109967 0.619036 0.353862 -0.346691 0.475506 -0.556890 0.206205 0.799181 -0.456245 0.741056 -1.230052 -1.109532 -0.192005 -0.185558 -0.263845 -0.106445 -2.043581 -0.864620 -0.000439 1.600059 -0.278258 0.320918 -0.444011 -0.194476 0.654348 -0.406379 2.956361 -0.899143 0.010014 2.528865 -0.316250 1.147007
<unk> 0.517683 -0.337577 -0.595606 -1.115308 0.909605 0.999899 -1.110031 -0.013204 0.584054 0.147736 -0.356519 -1.738035 0.682254 0.407707 -1.447569 0.355411 0.516634 -0.630408 0.058541 -1.444741 -1.584360 0.732267 0.233800 0.852683 -1.111379 0.923719 0.916659 0.454251 -1.105042 -0.363882 0.434364 -0.630137 -0.399341 -1.370471 0.769631 1.263897 0.162028 -0.117017 -1.192935 0.168370 -0.976664 -0.349137 -1.557370 0.836515 0.682964 1.003579 -0.775660 0.607080 -0.033502 0.010549 0.224888 0.857242 1.227574 -0.050729 -1.264965 -0.235856 -0.869024 -1.411294 -1.035654 0.422070 0.644965 -0.472386 -0.142495 -0.201538 0.327676 0.371617 1.126784 -0.993482 0.535539 -0.384087 -0.263543 0.104589 -1.747874 -0.435042 -0.263328 2.198448 -0.037410 0.276030 1.339750 -1.111783 -0.130231 0.409339 1.783898 1.233667 0.599893 0.343474 -0.546012 -0.625260 0.179033 -0.565558 -0.179101 -0.273576 -1.774375 -0.048816 0.192336 -0.213876 0.505539 0.928236 -0.672152 0.856633 -0.405861 3.026975 1.359189 1.198499 0.252751 -0.634122 -0.216186 -0.051969 -1.075673 0.132918 0.812363 1.142148 -0.195715 0.348225 -0.033643 -2.363860 -1.099696 -0.382944 -0.015312 0.010802 -0.463127 -0.315982 1.396008 1.453166 1.436936 1.277290 -2.539441 -0.391536
the -0.006996 0.139361 0.663190 -1.944624 0.520527 1.831626 -0.191132 -0.629180 -0.581312 1.335102 -0.004630 -1.511990 1.073778 0.173518 1.325752 -0.583311 0.399347 1.154036 0.634642 -1.389863 -0.810140 -0.570259 -2.642262 -0.282936 -0.827741 -0.078627 -0.232020 -0.298994 -1.023592 0.433961 -0.054040 -0.286224 -1.188118 1.348006 0.234526 -0.520016 1.527630 0.024095 1.664305 0.412709 -2.715029 -0.123184 0.951861 0.130382 1.035728 0.094717 -0.840140 0.033844 -0.901767 -0.021531 -0.281309 -0.544406 0.299762 -0.115034 -0.696106 0.801565 0.865483 0.377458 0.275328 -0.644644 2.105323 0.380376 -0.662743 1.154088 0.095173 0.855850 -0.960016 1.252246 -0.819095 0.018978 0.662095 -0.847794 -0.966645 -0.103360 0.406404 -1.811627 -0.352341 -1.402294 -0.401767 -0.718027 1.883952 -0.972643 -2.350896 0.481795 -0.028735 -1.142921 0.733122 0.148008 0.466365 1.797371 0.017908 -0.296471 -1.194650 -0.837911 -0.570486 0.063954 -0.049211 0.058551 -1.970304 -0.752764 0.429093 -0.220434 0.186109 -1.250506 -0.217004 0.223347 -0.322341 -0.992775 -2.763940 -0.642279 0.169953 -2.308506 -0.590070 1.577623 -0.381422 0.126652 -0.493502 -0.027545 -0.287483 -0.598025 1.190967 -0.192891 0.219725 -0.844585 0.440681 -1.128692 -1.357121 3.162937
and 0.254128 0.469387 0.452452 -1.364631 -1.538739 0.473011 -0.569970 -0.273497 1.196438 0.137967 0.243034 -0.884458 0.378229 1.307099 -0.340743 0.484435 0.014165 -1.586752 -0.346043 -0.188659 -0.280972 0.185925 1.126882 -1.212008 0.667399 0.873016 0.445195 -1.094479 0.458842 -1.106814 0.248870 2.029493 -0.894883 -0.287779 -0.444480 -1.223946 -0.009097 -2.041548 -0.696852 -0.284451 1.458315 -0.344141 0.726729 -1.713797 2.187250 -0.815285 0.789251 -0.425433 -0.840085 0.585357 -1.233019 -0.482846 0.064896 -0.753398 1.124888 0.632888 2.394231 0.000376 0.128309 0.066282 0.538535 1.352872 1.072911 0.363497 1.515811 0.255120 1.686580 1.193497 -0.233423 0.360492 1.782579 0.388908 -0.084254 -0.421387 0.904237 1.219473 0.487837 1.301188 0.167915 -0.667603 0.902623 0.666147 0.112702 -0.214282 -0.455293 -0.835303 0.279775 -0.446842 0.341222 -1.287277 1.261683 0.332684 -1.014225 0.340807 -0.069357 0.507749 -1.108812 2.190766 0.495117 0.370792 0.069771 -1.569256 -1.603975 -0.850916 0.372353 0.454396 1.661453 -0.341969 -1.260599 0.889068 0.516626 -0.426523 -0.069716 -0.486565 -1.339255 1.615309 0.257568 0.060670 2.040474 0.088123 -0.081507 0.331565 -0.362110 1.032256 0.955129 -1.480051 -0.121697 -0.809055
of 0.039938 0.554439 -0.331104 0.161164 2.529953 -0.843603 -1.025650 -0.632405 0.322543 -1.916757 -1.895681 -0.861378 1.859892 0.376180 0.922708 0.765271 0.792372 -2.784978 0.103996 -1.342838 0.115355 0.224126 0.426289 1.668104 -1.287897 0.415571 0.172439 0.408156 -0.435444 -0.255167 -0.384811 -0.078939 -0.820325 -0.932077 0.222904 0.750921 -1.063693 -0.127991 0.837754 -0.813263 -0.287896 -0.656706 -0.394266 1.707713 1.416303 -2.488003 1.134964 -0.397809 -0.607096 -0.730965 -0.724797 0.498168 1.031946 -0.464378 -0.727611 -0.959441 0.770587 1.638055 -0.367297 0.076808 1.328666 1.984508 -0.218634 0.129278 -0.772926 -0.075330 1.241060 -0.846187 -1.394503 -0.315347 -1.625651 1.080471 0.659784 1.139668 -1.795474 0.367298 -0.922758 -0.292308 2.305708 -1.316738 -1.306497 0.685917 -0.982451 1.978826 -0.689131 1.939915 -1.655620 -0.451407 -0.828097 0.298186 0.460478 -0.049148 -1.466732 0.476747 -0.650478 -0.959355 -0.024399 -1.238144 -0.156847 0.449588 0.326582 -0.988425 -0.326627 -0.617854 1.449776 -0.230690 -0.161166 0.094190 -1.062174 -1.613123 -0.536154 -1.113256 0.120797 0.073212 0.219981 0.214251 0.467931 -0.649097 2.150670 -0.309886 -1.001074 -1.105763 -2.077671 -1.668007 1.206626 -1.287648 2.038134 1.540472
to -1.481254 1.488946 0.224472 -0.161241 0.489619 1.066156 -1.404690 -2.552832 -0.642088 1.260274 -0.240290 -1.218950 1.440782 -0.571910 0.604774 1.148208 1.445275 -1.827756 1.090234 1.834263 -0.454750 0.935116 0.565617 0.362217 0.610888 0.393645 -0.466410 1.102429 0.226500 -1.541273 -1.416369 -1.813845 -1.022060 -1.543707 -0.370195 0.169730 -1.302835 1.035380 0.241733 1.266235 -0.187542 0.228714 -1.378091 1.071502 1.357209 0.186889 0.172079 0.816762 0.625798 -1.601474 -2.325696 -0.577264 -0.966325 -1.061548 0.009176 1.487248 -0.507488 0.178739 2.027940 -0.425861 -0.306718 0.940583 0.077167 0.382680 0.720785 -1.572105 -0.554573 2.606343 -1.354019 0.974860 -0.387754 -1.904899 -0.834553 -0.588282 0.957762 -1.499673 0.608872 -0.269209 0.949480 -0.284853 1.757594 0.345765 -0.508937 0.224854 1.436961 -0.014628 -0.103990 0.852362 -0.499791 -2.512854 0.335492 1.403038 0.807162 0.456511 0.532873 0.455589 0.300190 -1.441515 0.250610 1.755379 -1.046707 2.446258 0.793449 -0.899111 -1.575296 -0.291115 0.747476 0.530062 0.316451 -1.704463 -0.400515 -0.964908 1.486403 0.609897 -1.987521 -0.089409 1.246442 1.184076 0.746580 -0.137364 2.462686 1.009772 -0.046325 -0.484230 0.851853 0.093566 0.990553 -0.370914
a 1.277273 0.063142 1.068040 -0.051763 -0.541624 -1.223394 0.814867 1.784087 -1.724316 -1.824549 1.057986 -0.366707 1.026552 -0.767593 -1.868290 -1.611004 0.517735 -0.875143 0.479274 -1.387860 -1.015656 0.375275 -1.231766 -0.361537 -0.757029 -0.502861 0.336889 -0.232064 0.011936 -0.832158 0.321072 0.284593 0.767245 -0.841578 -1.103198 0.634865 -1.016122 0.903683 1.104098 0.341688 0.503733 -0.984744 0.383192 0.189224 0.364959 -1.104097 0.092057 0.697297 0.937074 0.201027 -0.037826 0.581014 -0.446467 0.213039 -0.281446 1.138775 -0.584100 0.264049 -0.945192 -0.105451 -0.875212 0.336401 0.897852 0.154389 0.346534 -0.109011 0.022505 0.012210 1.272158 0.495305 0.748009 -0.502655 0.568740 -1.109798 0.221810 1.387054 -0.698873 0.879259 0.044472 1.631292 1.208236 -0.411640 0.974284 -1.203854 0.903568 -0.269507 0.941366 1.463305 0.556785 -0.431109 -1.890602 -0.324193 0.066016 0.035783 -0.472853 1.025823 -0.501152 1.016367 -0.564650 -1.185124 0.252250 0.960489 0.720327 -0.437985 0.921609 0.648349 0.634245 -0.026996 0.832304 -0.328887 -0.003296 -1.937532 -0.074277 1.454302 0.184416 0.074364 -0.454384 -0.176234 -0.171712 1.621491 0.369704 1.760398 0.116146 0.543987 2.221158 -0.453243 1.666507 -0.743177
in -1.127072 0.559674 2.352706 -0.016521 0.083613 -0.941067 1.006972 0.681507 -0.365476 -0.754415 -0.315662 -0.189157 0.654331 -1.889855 1.676963 0.873713 -0.058041 -0.126187 1.350805 -0.212207 -0.005171 -0.893178 -1.266108 -1.793627 0.074671 2.932720 1.212033 0.276210 0.070815 -0.860212 -0.709801 1.286084 -1.018546 0.260478 -0.133889 0.526539 0.540428 -1.879778 2.042504 2.313824 0.099186 0.673370 -2.390046 -0.887617 0.118087 -0.677511 -0.035297 0.853934 1.570283 -0.726052 -0.695929 -0.012411 -0.809630 -0.797706 -1.804770 -0.268896 0.477877 0.276398 1.606180 0.432217 0.831286 -0.918623 0.375665 0.617127 0.010171 -1.401906 0.428959 -0.733942 0.452253 0.510566 -0.390288 -2.458594 -1.405441 -0.195942 1.047363 -1.442050 1.225077 0.228302 0.696639 1.066054 0.351092 -0.129299 0.406772 -0.222616 0.512778 -0.954848 0.902790 -0.370872 1.631782 1.663260 -1.243485 -0.617993 1.781378 -0.355782 0.478520 0.439100 -1.122461 -0.349562 -0.344577 2.902888 1.524807 -0.250341 -1.191783 -0.165980 1.172075 0.607887 0.671092 0.325459 -0.293777 2.079770 1.356682 0.640780 -1.055195 -0.175121 0.123558 -0.497320 0.491508 1.015901 0.984299 -0.588059 1.470676 0.634004 0.262229 0.258545 1.892138 0.373235 0.177662 1.087822
i 0.330450 2.708471 0.907199 0.358849 -0.211359 0.546095 0.342347 0.938306 -0.994225 -0.024084 1.442274 0.302414 -0.395558 0.268652 -1.089946 1.260721 0.887236 2.151031 0.632143 1.809905 -0.803589 0.622733 1.335408 -1.358741 1.366347 0.432595 0.281434 -0.228741 0.020708 0.194282 0.356769 -0.412517 0.949654 0.502618 -2.707380 0.632525 -0.073214 -0.866934 -0.828155 -0.129525 0.638416 -0.455883 0.014868 0.711890 0.138241 -1.161687 0.575229 -0.231083 1.290228 1.518610 -0.208027 -1.702744 -0.971817 -1.268608 -0.399102 0.452685 -1.202055 -0.671319 2.055953 0.110975 -0.363500 1.995196 0.142653 0.000528 1.186546 -0.595981 -1.501246 -1.084859 1.608032 0.927947 -0.920654 1.472575 -1.216111 -0.883666 -0.800447 0.173057 0.761594 -0.159317 0.689183 -1.559486 0.488181 0.276121 1.009722 1.373306 -0.254325 0.393431 -0.026533 -0.228750 0.705531 0.702329 -0.611454 -1.287887 0.080401 0.056922 -0.004887 -0.172169 -1.049341 -0.187747 -0.674748 -0.898565 0.687257 -0.580400 -1.504273 0.969867 2.732900 -0.490061 -0.143673 -1.845216 -0.152815 -0.576754 -1.052190 0.742933 -0.456059 -0.196421 -2.042456 -1.487099 0.248301 -0.143321 -1.137007 1.515537 -0.020062 1.516444 -0.393555 -1.984254 -0.325675 -0.341340 0.493122 -0.244746
he 2.025496 -1.275259 -2.036793 -0.025310 1.173253 -1.324808 -1.221263 -0.365543 -0.181390 0.240119 0.819811 2.227449 0.567730 0.484856 -0.397846 0.769060 0.773564 -0.783080 -0.083819 -2.141227 -1.336800 -0.730169 2.517829 -1.298598 0.960367 0.876044 0.517798 1.078917 -0.193127 -0.577852 -0.554599 1.451289 -0.262125 -1.231367 0.099162 -0.554353 0.274149 0.161356 0.408124 1.001425 -0.001439 1.071743 0.130750 0.781846 -0.069656 2.224277 -0.376078 0.786042 0.447012 0.224347 -0.143304 1.252035 1.598743 0.776585 0.224536 -0.512331 0.233855 1.738654 0.183970 -0.585012 -0.613169 1.767112 1.073096 0.890585 0.410673 1.541005 1.746846 -0.247931 -1.117733 -0.086155 0.298514 -0.159637 -1.156886 -1.449251 -0.316648 1.306861 -1.602575 -0.285461 -1.240153 -0.706082 -0.786289 -1.601071 0.406096 -0.448718 1.214019 0.167568 0.992401 -0.926801 0.020957 1.069601 -0.385520 -0.124785 1.170276 0.036270 -1.473663 -1.567053 0.326342 -0.455204 1.316698 -0.234748 -0.869622 -1.618932 -0.546751 -1.639197 -0.024719 -0.487581 -1.638114 -0.662298 0.098882 0.534562 -0.271492 1.346813 -0.994070 1.165853 -1.436276 0.806139 0.935114 -0.650678 -0.627484 -0.549586 1.547019 1.625277 0.444411 -1.257123 -1.540382 -0.488071 1.600133 0.008085
that 0.344061 0.040560 0.047199 0.560433 -0.591915 0.533609 -2.085753 1.223392 -0.742178 1.544084 -1.751865 1.302152 -0.756795 -0.652423 -0.898790 -1.060962 0.872967 -0.328866 -0.123743 -0.344799 -0.466728 0.262346 -2.316520 -1.856726 -1.216799 0.564063 -0.229951 0.517683 -0.476678 0.596302 0.263076 0.745805 -0.784209 -0.406337 0.590093 -2.336485 -1.332001 0.695058 -0.732911 0.078069 -0.511625 0.252932 0.011017 -0.263624 0.845907 -1.313701 -0.615214 0.374899 0.295217 -1.023761 1.070872 1.585778 2.260896 1.086827 -1.121316 -0.663652 0.882964 1.589395 1.165992 -1.821162 -0.350484 -0.439223 -0.470285 -0.090874 0.342475 1.159324 0.727731 0.402879 -1.351626 0.168160 0.296397 0.331416 -1.480644 1.015290 0.069125 -1.289329 -0.598265 -0.180936 0.641263 -1.683682 -1.285228 -1.783277 -0.608276 -0.118233 0.439843 -2.531178 1.825969 -1.558130 -0.567327 0.626356 -0.720113 1.249858 -0.747012 0.392241 -1.003782 0.430698 -0.158713 0.406529 0.563847 0.839297 -1.018123 0.517953 -0.422559 -0.645402 1.332746 -0.502020 0.284126 -1.426403 1.101740 0.038037 -1.204090 1.083686 0.183404 -0.555600 -0.488652 -2.156084 0.291096 -1.030185 0.288455 0.300783 0.545994 -1.996531 0.077361 0.596052 -0.398248 -1.106877 0.470164 -0.524156
his 1.289982 0.574302 0.828989 -0.113423 -0.781572 -0.120370 -1.547558 -1.837924 1.570946 -0.360876 0.066834 0.156048 0.469934 0.169992 1.996377 -0.303509 0.712005 -0.863851 -0.044866 0.149784 2.151865 -1.184309 0.222436 -0.185164 0.038832 -0.442452 -0.610191 1.400186 0.019771 -1.568090 1.053851 -1.395383 -0.565784 -0.339570 0.919824 0.410129 -0.746363 0.816415 0.027401 0.036334 -1.403189 0.204540 -0.771378 -0.272322 -1.482925 0.018023 0.299008 0.378350 -0.848638 -0.308795 0.328724 1.887915 -0.753705 -0.108258 0.227282 -1.413554 1.395288 1.005716 -0.344878 0.871962 0.375485 0.915272 -0.819175 0.922834 -0.105509 -0.502558 0.753191 1.637021 -1.526966 0.558674 -0.903563 0.924012 1.091565 -0.075476 -0.541699 0.029676 -0.191074 0.251608 -0.110879 0.351305 0.082494 -0.748161 1.196604 -0.950748 -0.154512 2.746231 -0.913305 0.501965 -1.303218 -1.211623 0.925877 0.335625 -0.154947 0.568082 1.122657 -1.196325 0.270395 0.407372 -1.074357 -1.072813 -0.498819 -0.581585 0.020418 1.907520 0.034339 1.509077 1.267356 1.498494 1.932766 0.410171 0.761503 0.726563 -1.429767 1.174089 0.548528 -1.303837 -0.392410 1.904057 -0.626129 -0.110703 -0.164684 1.153537 1.408545 0.664590 -1.036212 0.105933 0.395560 -0.647425
was -0.008964 0.674926 0.652514 -1.377996 1.086835 2.681584 0.211373 -1.814856 0.881831 1.565816 -2.037182 -0.335879 0.205805 1.803311 -2.319732 0.671521 -0.266034 1.700502 0.202257 -1.531018 -1.772429 -0.216589 -1.314038 -0.070295 -0.541548 -1.048864 0.452349 0.762421 0.003939 -0.041896 0.637281 -0.849323 -0.918994 -0.180181 2.428805 0.421959 1.193106 0.836272 0.710185 1.919527 -1.311290 -2.495408 -0.439856 -0.110498 1.520378 0.472044 1.498155 -0.570654 -0.361367 0.495784 -0.337771 0.079777 1.545725 -0.065487 -0.475799 0.491163 -0.979600 0.059057 0.210150 1.746019 -0.311903 0.998424 -1.521031 -1.011032 0.285773 0.048886 -1.537654 1.353655 3.773835 0.031722 1.262692 0.396469 -0.294313 -2.461858 -1.800255 0.494874 -0.183962 -1.224808 -1.058511 2.430241 -0.297598 -0.483047 -1.560566 -0.213082 0.364472 -0.058986 -0.550260 -1.717358 0.765271 -0.327657 0.675414 -0.702873 0.903799 0.316184 0.236175 -0.277849 0.155805 -0.393448 -2.067880 0.184271 0.926603 -0.572505 -0.607750 -0.070371 0.841265 0.715566 -0.931941 0.247401 0.092954 0.033719 -0.645379 -0.292252 0.209355 -0.210005 -0.098444 -0.383719 -0.224035 0.681289 1.617251 0.788564 -0.799918 0.517372 0.954538 0.537205 -0.860841 -0.488024 0.069414 1.890600
it -0.743117 -2.049344 1.043685 -0.648882 -1.058531 0.487757 0.648581 -1.132570 -0.308859 -0.140770 -1.586662 -0.073564 -1.792507 -1.608949 -1.827123 0.663693 -0.762662 -1.105023 0.042172 -1.532184 0.273800 -0.548103 2.986269 -0.825592 -0.557386 -0.871183 -0.300053 2.871030 0.703371 0.824153 3.045348 -1.618516 0.312443 -2.114663 -1.708461 -0.239829 0.385021 0.352299 -0.065475 -0.781131 0.462564 0.622548 1.453364 1.346580 -0.429335 0.640903 -0.489847 1.064047 0.774830 1.080703 -0.124352 -0.896287 0.152239 0.619620 1.366812 -0.119416 0.672541 0.769216 -0.613078 -0.338367 1.479849 -0.638481 0.052692 0.683721 -1.748899 0.448446 0.616204 -1.332705 0.855849 -1.104257 -0.472802 0.046447 -1.301851 -1.025328 0.368428 -0.072741 0.023932 0.976606 1.015084 -0.069436 -1.484380 -1.572311 -0.356197 -0.943693 -0.830119 -0.313597 0.571986 1.589744 -1.278891 0.734187 -0.583256 -0.327992 0.099633 -1.547416 0.086214 -0.308951 -0.640060 1.626533 0.807862 1.619663 -0.142208 -0.221081 -0.217631 0.027777 0.633537 -0.398156 -0.149277 -0.700854 0.933666 -0.620885 -1.035356 0.779979 -0.320028 0.980044 -0.944249 -0.850569 0.097260 1.636416 -0.516695 0.707649 -0.203392 2.422322 -0.338446 0.106338 1.106016 0.548219 0.478793 1.989060
you 0.100552 0.465872 0.841126 0.244817 -1.734936 0.278230 2.131354 0.515897 0.640986 -1.217245 0.430389 -0.472334 -0.721132 -0.327084 -2.032423 -0.044555 0.994064 -0.474188 1.812988 0.034472 -0.831975 0.362958 1.015607 0.553572 0.098936 0.175151 0.712815 0.343191 -0.662760 0.609458 -0.191333 0.150953 0.558456 -1.077255 0.426053 1.884029 -0.468179 -0.660713 -0.126521 -0.161163 -1.581454 -0.293678 1.322729 0.668864 -0.190599 1.630106 -0.148020 -1.684536 1.129870 -1.228524 -0.172004 -0.589969 -0.228326 -0.568710 1.883117 -1.100216 2.160870 -1.025132 -0.333812 -0.079502 -0.064053 1.970987 0.502321 0.641348 -1.002394 0.386666 1.792872 -0.296464 0.140178 0.058375 -0.447635 -0.060368 -1.023616 0.748196 1.429055 0.137548 -0.562000 2.672169 -0.456208 0.173437 0.684076 0.753214 1.506362 0.886579 -1.851994 -0.228546 -0.156204 0.907821 -0.136626 -0.457462 0.005159 -0.339947 -0.593508 0.538531 -0.135054 0.658985 -0.157922 1.002487 1.410481 -0.128439 -0.015793 2.625383 -1.260556 0.583864 1.307937 -0.677722 0.781862 -0.953341 -1.128650 0.241783 1.244518 1.202190 0.038984 0.435371 -0.183752 -1.838477 -0.850851 -0.948268 -1.853133 0.859896 -1.183624 -0.882637 0.874044 1.375422 -0.802444 1.153555 -1.976951 0.548197
with 0.308251 -0.137615 -0.838327 1.329666 1.597488 0.754256 -0.944193 0.184351 0.829560 0.057381 -0.817544 -0.073257 -0.791853 -0.872531 -0.863953 -0.385639 -0.170349 -0.738424 -0.424222 -0.957397 0.911063 -0.095333 0.498890 -0.809427 -0.140744 -0.166901 -1.632128 -2.115506 0.312490 -3.460427 -0.103594 0.205477 -0.310118 -0.510747 0.487473 0.461807 -0.551206 1.730564 -0.771515 -0.567591 -0.755170 -0.539453 -0.610842 -0.093070 0.584939 -1.643252 0.259022 0.935132 0.314591 0.746752 1.302930 1.354662 0.580508 -0.665340 -0.088888 0.302189 -0.588406 -0.791370 -1.310412 0.477557 1.048155 0.952360 -0.192506 1.334576 0.331518 -1.300645 0.943606 -2.596878 -0.506681 -0.581494 0.451314 1.180599 0.097568 -0.622840 1.320167 0.798906 -0.043244 -1.711726 0.569901 1.081813 -0.822657 1.562677 -1.246788 0.673188 1.029164 -0.902533 0.321445 1.597829 -1.364968 2.503226 0.466067 1.058743 1.247251 1.503102 -1.309482 0.960539 -1.228199 0.139105 -0.414382 0.116326 -1.213074 0.457301 -0.161832 -1.813228 0.423320 0.599612 -0.919751 -1.280562 1.593264 -1.228984 0.302232 -0.351108 -0.602147 0.392886 -0.344825 -1.212179 0.718514 0.515266 0.770873 1.114038 0.037346 1.161327 0.039764 0.343209 1.573671 -0.240013 -0.801127 -0.073593
is -0.968546 0.490412 -0.200715 1.044693 0.057462 -1.025359 1.134041 0.025159 -0.024080 -1.550110 -0.762550 -0.524895 0.119165 1.762758 -0.768062 0.155839 -1.594438 -1.100961 -0.117727 0.037513 -0.850094 -0.511336 0.773499 -1.545738 -0.866065 -2.702698 0.789023 1.122305 1.120583 -0.242436 0.826097 -2.110742 0.399284 0.319755 0.932199 0.739658 -0.303198 -1.254313 -1.137595 0.266927 -0.023425 0.282811 0.361131 -1.706705 0.129802 -0.130106 -1.012594 -0.784404 -0.778214 -1.164282 -0.093285 1.309962 0.372229 -0.727616 -0.748364 0.819976 -0.447546 0.472890 0.257014 0.145941 -0.284999 -2.981925 0.916229 0.135145 0.911799 -0.878051 -1.138637 0.932779 -0.979438 0.246405 1.202216 1.320496 -0.901353 0.301359 -0.858318 0.314998 0.468415 -0.042280 -1.427104 -1.025174 -0.622657 1.363375 1.007825 -0.045487 1.643588 -0.173458 -0.788060 -0.149647 -0.535292 -0.802057 0.020463 -0.123061 1.085782 -1.358575 -0.451374 1.437889 -0.533185 0.555674 -1.294689 -0.611895 1.926908 -1.755971 -0.714171 -2.379185 -1.575179 -0.004798 -0.257402 0.618488 0.948570 -1.519994 -0.927419 -0.261367 -1.188743 -0.152240 -0.107644 0.594251 -1.122226 -0.775020 -2.645578 0.181042 -0.565113 -0.190079 1.099411 1.438998 0.505515 -0.456398 0.559559 -2.334778
as 1.184806 0.912095 -0.444072 -0.673006 1.155836 -0.591871 1.611578 1.391669 0.495508 -0.277434 0.584881 -0.021643 0.717150 0.654913 1.295452 -0.716396 -0.474419 0.953353 -0.211166 1.390457 -1.414718 -0.122554 -0.776535 -1.341909 1.062067 1.490351 -0.200786 -0.103104 0.993295 0.782197 0.042957 -0.549549 -0.919038 1.382392 0.217390 -0.147953 -0.187781 1.018506 1.891644 -0.362381 -0.493214 1.478349 1.869825 -0.392304 -0.423878 0.192913 -0.371296 -0.271092 1.713075 -0.688766 -3.124408 -1.488019 -1.280885 0.428602 -0.200223 -0.529442 -2.052151 1.164777 -0.051123 -1.187706 0.501216 -0.504608 0.749698 -0.670478 -2.363091 0.145005 -0.218581 0.672377 -0.424718 0.703219 1.073305 1.911305 -1.107440 0.735881 1.559619 1.246675 -0.029942 -0.744476 0.902213 0.210750 -0.580237 -0.953299 0.133177 1.468806 0.024334 -0.771558 0.239532 -0.860814 -0.177945 -0.011312 1.270679 -1.449637 0.938764 -2.700261 -0.563890 0.259359 1.079072 0.373309 -0.950455 -0.838375 0.168032 1.621345 1.190823 -0.224044 1.150763 -2.616271 2.316017 1.044390 1.533985 0.927853 -0.139114 -0.335812 1.572894 1.933168 -0.760567 -0.867620 -0.508459 -0.886834 -1.201010 0.773181 3.011710 0.258131 -0.234992 -1.451864 -0.222682 -0.833748 0.211409 -1.392212
not -1.055914 1.091549 0.590464 -1.582206 -0.308829 -0.189139 -0.893177 0.491040 0.135248 -0.444236 1.412019 0.438503 -1.101349 -1.491649 -1.286183 1.561591 -1.949234 0.804898 1.002144 0.910573 0.374049 0.421994 -1.265135 0.453442 0.512278 1.682930 -0.107471 0.933874 -1.048754 0.619790 0.409472 0.655194 0.906330 0.115909 -0.207565 0.713014 -0.136131 -0.718561 -0.144257 -0.240098 0.738628 2.161519 -0.717538 2.425274 1.153524 1.350403 -1.128845 -1.918423 0.377842 -0.412142 -0.775790 1.428176 -1.028378 -0.067225 1.631216 -0.991852 0.867544 0.649346 0.573061 -2.257503 -0.114040 0.719135 0.800845 0.560313 -2.243964 -0.381240 0.635935 -0.401481 0.479049 1.713030 0.136904 0.922968 -1.526544 -2.036916 0.513997 -0.039414 0.454153 0.710135 0.792162 0.871357 0.909969 0.532239 -1.638594 0.378825 -1.372144 -1.016005 -2.511918 0.001966 0.958209 0.189274 -0.086520 0.464681 0.596043 -0.114577 0.580375 -1.852692 -1.951459 -1.224960 -0.624313 0.568456 1.231447 -1.390503 0.162139 -0.658556 -1.315290 0.882971 1.618360 0.653902 -0.977680 0.266808 1.582650 -0.337154 0.740963 0.881340 -0.851828 -0.529390 0.388863 -0.704915 2.026156 -1.746299 0.714242 0.890831 1.095814 -1.690382 0.202674 -0.875700 -0.154521 1.800799
for -0.135048 -0.282054 0.162492 -1.496630 0.158955 0.349510 -0.206706 1.203186 -0.237096 0.754241 0.080199 0.730278 0.209816 -0.311632 0.057745 -0.807268 1.766605 0.297476 -2.158092 0.089042 -0.757746 1.122159 -0.556098 -0.973745 0.376913 -0.816671 1.337695 0.341563 -0.741554 0.170099 -2.336117 -0.653672 -0.959051 -0.057716 -0.744066 -0.628323 0.971206 1.642627 0.928147 -0.503582 -0.826151 1.677191 -1.395893 1.514377 -0.041681 0.228242 -0.061428 0.460265 0.060339 1.907330 0.776334 -0.204454 0.696461 0.159857 -2.570159 -1.086009 -0.219020 0.587090 0.682773 1.330443 1.174276 -0.744199 -0.137660 0.598950 -0.461060 -0.593876 -0.338539 -0.434119 0.611412 -0.815376 -0.637382 0.654037 -2.501763 -0.513073 0.602587 0.278124 -0.592348 0.120515 0.720231 0.176098 -0.645439 -0.208646 0.658518 -1.006335 -1.562147 -0.930321 -0.521097 0.190785 -0.576994 0.225954 0.458652 1.098857 -0.181979 0.355494 2.707094 0.639360 0.050206 0.881503 -0.886745 0.817026 1.084219 1.229462 -0.387072 0.044489 -0.342351 -0.719509 0.698158 0.626787 -0.686931 0.346496 0.421411 0.304389 2.310131 0.795929 -1.133832 -0.019479 -0.174483 0.232845 0.430971 -1.831094 -0.642767 0.065230 0.874845 1.096189 0.312299 -0.737665 -0.890611 0.287018
had 0.033130 0.599584 2.205799 1.209668 0.015215 -0.302872 0.058467 0.501475 -0.793772 -1.644015 0.506194 0.411422 1.789665 -0.210282 1.065781 -1.036316 -0.779675 -1.286538 -0.374727 -0.837044 0.670411 -0.923520 -0.018876 0.355789 0.463146 -1.072776 -0.196331 0.327106 -1.490951 0.421690 0.396189 -0.028981 -0.038449 0.903239 1.398441 0.384860 1.659679 1.594341 1.187460 -0.703997 0.116814 0.553739 -0.872471 -0.415654 0.296698 -1.240708 0.966970 -0.785413 -0.230283 0.115026 0.103594 1.328108 0.567461 -1.069303 -0.459346 -1.662914 -1.467736 0.144932 -1.509495 -0.698219 -0.637703 0.031259 -1.491264 -1.673681 -1.752717 -0.684839 -0.668011 0.924233 0.728598 -1.119643 0.721956 -0.607996 0.084721 1.878371 -2.185395 1.407325 -1.505222 0.759698 0.042227 -0.868195 1.055710 -0.301868 -2.778590 -0.802637 -1.651940 -0.227027 -1.503815 -0.039524 1.000747 0.383064 1.869474 0.607397 0.544769 2.833874 1.908145 0.567380 0.928145 0.321506 -0.299888 0.372366 -1.022893 -1.465427 -2.818458 1.204293 0.435681 -0.815000 -0.787926 -0.903882 -0.539096 0.085759 0.742559 0.641217 -0.618686 0.600610 -1.289206 -0.226668 -0.770084 0.760316 -0.171419 0.617198 -1.200319 1.373424 0.911959 0.225362 1.426887 -0.038346 -0.511235 -0.298120
but 1.102493 0.098028 1.037435 1.610150 1.468093 1.225690 0.428486 -1.191328 0.386766 -0.425893 1.712350 1.461379 -0.069569 0.700176 -1.952097 1.067886 -1.050853 -0.049550 -1.680553 -1.576921 -1.711628 -0.483406 0.549320 -0.649849 0.662735 0.420326 2.078607 -0.647753 -1.319135 -0.610861 -1.576153 -0.006300 1.125603 -0.298236 -1.128254 -1.945911 -0.234246 -0.129915 -1.068702 -0.061747 -0.044910 -0.379488 1.217475 0.315358 1.511397 0.933434 -1.851650 0.299279 0.608432 1.309675 -0.762029 0.505221 0.280579 -0.477433 -0.876582 -1.281526 -0.068853 -0.731827 -0.212020 -2.053098 -1.922571 -0.310276 0.546159 0.306781 -0.016586 -1.863455 -0.819054 0.827285 -0.414926 -1.053257 1.333972 -0.381490 0.274738 -0.610832 1.608526 -0.406155 1.233700 0.329729 0.342068 0.212481 0.464545 1.127514 2.115750 -0.827987 0.034828 0.566816 0.102753 3.270765 0.329117 -0.878384 1.258073 -0.382866 -0.139277 -1.096026 -0.034630 -0.177068 1.406043 1.431901 -0.145669 -0.594285 -1.355695 0.362325 1.540971 0.127548 0.695657 -2.255753 -0.909284 1.527495 2.370104 0.268627 1.498491 1.533344 1.378642 -0.247060 -1.527677 0.234383 0.488998 1.140307 -0.330504 1.131344 -1.458459 0.736323 -1.407908 -1.182450 0.308032 0.112181 2.151932 -0.714543
at 1.227098 0.426344 2.421169 -0.958457 -0.178524 -0.669459 1.140661 1.989051 1.452278 0.389671 -0.796189 -0.739153 1.533530 -0.375263 0.128467 -0.957102 -0.380944 -0.723168 -0.694273 0.180670 -0.371288 -0.894218 1.767336 -0.412427 0.903592 -1.243991 -1.063030 -0.219966 -0.119373 0.975619 -0.135519 -0.032919 0.826151 -0.387617 -1.442819 -0.423944 0.757495 -0.470320 1.648298 0.240573 -1.288071 -0.636989 -0.987222 0.273637 -0.141136 0.187942 -1.136834 1.114855 1.922797 -1.193330 2.022357 1.427293 0.881395 -0.895048 -0.216425 0.738174 -0.757626 2.343155 0.266871 0.999483 -0.079574 1.276810 -0.728802 -0.925826 -0.292154 -0.948931 -1.730597 -0.942433 -0.189168 -0.332753 0.399361 0.312424 -0.334896 1.898707 -0.856925 0.863136 -0.601079 0.384776 1.048765 -0.135612 -0.193145 -0.642170 0.843203 0.331225 -0.352022 -0.143128 0.462177 0.171248 0.049484 -0.217262 0.407350 -2.234139 -0.623701 1.392460 0.482173 1.679547 -0.241455 -0.242349 0.279637 -0.874034 1.123036 -0.600627 0.057122 0.012850 -0.557832 -0.654074 0.934576 0.019674 1.747978 0.760856 1.035802 -0.221540 -0.042669 0.838823 -2.014652 -1.005645 -1.419958 0.547784 0.716943 -1.291596 -0.669035 0.227856 -0.972953 0.299769 -0.083585 1.078928 -0.353774 1.058296
be 1.589871 2.191643 0.367762 0.316810 0.931491 0.416143 -0.644673 -0.266624 1.089512 1.216831 -2.474665 0.001301 0.084473 -0.231926 1.415537 0.348452 -0.045059 -1.760841 -0.282432 0.226397 1.296226 0.810705 -0.412607 0.079489 0.744393 0.160033 1.152505 -1.020123 -1.124521 -1.478828 -1.380167 -1.123004 0.294992 -1.746036 1.018079 0.270910 -0.179821 -0.343298 -0.171866 0.861297 0.884795 0.156966 -0.984380 -0.333651 -0.726846 -1.610231 1.079392 0.747648 -0.334072 -1.942576 0.046841 0.267564 -0.769622 -0.556915 0.920829 -0.639504 0.692953 -1.944258 -1.204708 -0.494716 0.965564 -0.015391 1.724909 0.789068 -0.473516 0.941116 0.378297 0.382394 -1.944866 0.885834 -0.827241 0.346533 0.149838 0.276713 -0.408535 -0.053903 1.421187 -0.900049 -1.448748 -0.592761 0.416052 -0.319952 -0.315323 1.587486 0.347437 -0.412988 -0.031727 1.624716 -0.621530 1.107225 1.175976 -0.860697 -0.633225 0.504944 -0.540909 0.688225 -1.570696 0.303068 -0.794550 -0.828442 1.449668 -0.884620 0.363245 -0.237477 0.483401 -1.889668 0.052246 -0.952583 -0.185191 1.267905 -2.452387 -0.632227 2.194212 -1.721344 1.727702 -0.841578 1.744886 -0.460768 -1.702223 -0.089583 1.481869 -0.172591 0.232976 1.394801 1.161681 0.960728 -0.992104 -0.840036
on 0.021775 0.183523 -0.833643 1.015501 0.099480 -2.670891 1.905052 0.371865 -0.083053 -0.393162 -0.816506 -0.461609 1.694921 -0.268793 0.078655 -0.957381 -0.908829 1.038000 -0.867809 -0.258697 -1.279264 1.224818 -0.058942 0.808156 1.323993 1.522808 -1.192930 -1.449203 -0.950669 -0.714942 -1.122137 1.387180 -0.287297 1.321682 -0.476039 1.482975 -1.256867 -1.181290 -0.149718 -1.926941 0.673753 0.402362 1.383380 -0.151730 1.679954 0.111516 -0.364011 0.075336 -0.098852 0.664848 -0.062841 0.069995 -0.117505 1.522514 -0.892667 -2.770272 -0.331265 1.626567 -1.430362 0.402851 0.705408 -0.404753 0.298185 0.214992 0.759738 0.012064 -1.328026 -0.215223 -1.192008 0.291195 0.934887 0.297964 0.980423 2.674080 -0.720261 1.023170 2.069687 1.372438 -0.052645 -0.268252 -0.884935 -0.689617 0.557608 -0.565423 -1.056839 0.171940 -0.054328 -0.922020 -0.385140 1.508083 0.191325 -0.048872 1.011719 -0.408280 -1.358106 0.993137 -0.397116 -1.212267 0.367458 0.050285 0.560704 0.065160 -0.147599 1.567146 -1.026820 0.615024 0.794255 -0.470244 0.925259 -0.438448 0.824665 -1.725557 -2.089880 -0.441337 1.182830 0.334323 -0.255275 -0.425406 -0.767142 0.617082 0.847592 0.169529 -1.028892 -1.242628 1.866362 2.706102 0.990863 1.422755
her -1.306671 -0.151632 -1.625457 -0.752609 1.118097 0.297617 -1.049263 1.687064 -0.381998 -0.573772 0.429021 0.552858 2.079873 -0.346905 -0.781908 -2.798098 -0.407754 0.954791 0.100108 -0.560629 0.380902 1.014098 -0.344449 -1.160561 -0.666523 -0.686993 0.713451 -0.340012 -0.060842 -1.410014 0.840066 -1.427279 -0.237368 0.020357 0.801910 -0.174044 0.854625 1.281271 -1.200597 -1.043633 0.943080 -0.006606 -1.686133 -1.211713 -0.497885 0.906771 -0.165632 1.546864 -0.664885 0.108599 0.030317 2.046257 -0.424582 -0.155596 0.605327 2.200761 0.222519 0.177308 -0.358775 1.019701 0.640761 -0.024444 2.601167 -0.724018 0.043736 0.441044 -0.563641 -0.589990 -1.290009 0.025119 0.208316 -0.138948 1.452204 0.758957 -1.164863 0.657850 0.177898 -0.555750 2.558910 -0.275147 0.439403 -0.035504 0.269832 -0.640273 2.521190 0.649826 1.946154 1.640981 0.525457 1.372803 1.626635 1.640699 1.019329 -1.484757 -0.080643 -0.123286 -0.591344 0.243350 -0.508119 -0.833680 -1.356747 0.162046 0.813076 -0.268262 -2.386051 -0.474577 2.049158 -1.396803 0.219020 0.179775 0.604405 0.430615 -1.343683 -0.003296 0.733638 0.125722 0.301424 0.094426 0.620010 0.567023 -1.096168 0.331548 1.178127 -0.020642 0.485128 -1.591204 0.565050 -0.833089
my 0.600398 0.572153 -0.657782 -1.019287 1.722006 -0.789167 0.692745 0.095258 0.374224 0.705213 0.343493 -0.172155 -0.978110 -0.758182 -0.226832 -1.669382 -0.078586 -0.464905 0.114051 0.238598 -0.291456 0.453339 0.184798 0.727812 0.651479 0.550892 0.061881 -1.229026 1.489162 -0.636220 -1.073461 -0.320997 0.596197 0.506443 0.886463 -1.584058 -0.547964 0.254854 -0.734757 1.147695 -0.414187 -0.481846 0.422011 1.730379 -1.305290 0.748959 0.261093 1.862405 -0.323919 -0.597998 -0.339378 -0.328354 -0.933203 2.191723 0.354562 0.043059 -1.025584 0.495397 0.255213 1.142086 0.326802 0.679093 -1.287399 -1.430634 1.307159 -0.233363 -0.747595 0.168247 0.523120 -0.497107 0.244600 0.015241 1.098224 0.214761 1.983778 -0.202898 0.155551 0.556094 1.242122 -1.383510 0.111028 0.176832 -0.473881 0.201279 0.267691 1.636135 -0.906234 -0.881953 -0.639490 0.375211 -0.599020 1.091254 -0.641230 -0.317310 -1.841315 0.275534 0.666342 0.794800 -0.435798 0.848113 -0.581134 1.603029 -0.986309 0.053716 -1.180835 0.129263 -0.850346 -0.205250 -0.087387 1.152266 0.361050 0.251366 0.377535 1.212081 0.810036 1.505041 1.251543 -1.649458 -1.559359 -0.548931 -1.827219 -0.485378 -0.736348 1.064228 0.290470 1.225669 0.092379 0.148188
him -0.243500 0.481585 1.265919 -0.428072 0.058909 0.759912 -0.545281 0.647210 0.895405 -0.070957 -0.496776 0.573875 -0.532417 0.643696 -1.858973 0.034453 1.170690 -0.018432 -0.196172 -0.346598 -0.662285 -0.246201 0.229208 0.902212 1.322610 -0.664246 0.657202 0.358730 0.182301 0.531737 -0.169714 -0.406618 0.516335 0.645887 1.970932 -0.051285 1.010654 0.982576 -0.103318 -0.940560 -0.982729 -0.614719 -0.595532 3.099028 1.419418 -0.723548 -0.271983 1.019380 1.665063 0.839818 -0.697097 -1.922311 1.254895 -1.150339 -0.105652 -0.807767 -1.711354 0.003102 -0.112346 -0.333358 1.487989 0.351759 -1.358479 0.701536 0.833996 0.224608 0.112468 -0.335642 -0.120327 0.892138 0.303147 2.113481 0.275625 -0.502136 0.662910 0.691057 -0.471137 1.199673 -0.197585 0.948816 -0.393749 -1.332150 -1.026875 -0.448649 -0.812523 -0.760805 0.587309 -0.000503 0.274893 0.236149 0.983510 -1.075896 -2.915444 -0.357502 0.169973 0.696706 -0.464898 -0.706507 0.323868 -0.913468 -1.596958 -0.881934 0.511290 1.129292 -0.757089 -0.818469 0.386146 1.151549 0.428184 -0.629727 0.251669 -2.073015 -0.966225 2.335142 0.301778 -0.932368 -1.249685 0.528098 0.838316 -0.725788 -2.299475 -0.550727 1.088197 -0.080707 0.102557 -0.666627 1.135308 -1.066154
have -0.118054 -0.570909 0.631973 -1.028191 -0.490142 0.884585 -0.399211 -0.664123 -0.213062 1.863014 -1.292928 -0.319348 0.436454 -0.101356 0.170310 0.347269 1.048719 1.231115 -0.724695 -1.176542 -0.595029 -0.436528 0.677558 -0.495677 -0.481757 0.972849 1.609857 0.665055 -0.159774 -0.465109 -0.199760 -1.240656 1.928635 0.371969 2.309814 -0.830018 2.664137 0.506878 -0.737297 -2.585185 1.027056 -0.415073 1.843079 0.294604 1.699915 -0.547504 -0.600192 -0.799459 -1.602305 -0.162122 -0.059306 0.320487 -1.184510 -1.481942 -0.150910 -1.303234 1.848763 -1.321404 0.526443 -1.329145 0.904564 1.122150 1.808744 -0.537034 0.679597 0.434828 -0.253978 0.051861 -0.512453 0.876528 0.684991 0.329984 -1.054874 -1.631599 -0.645649 0.163815 0.712922 -2.147256 1.058224 -0.705159 0.633384 0.500890 0.113269 -0.251805 0.721372 0.046385 -0.761251 -0.030668 1.532730 1.423787 -1.009979 1.005370 0.844913 0.711589 -1.128764 0.726350 -1.357257 0.024977 0.450164 0.973446 0.137775 1.530393 1.253460 0.066094 2.070021 -1.212965 0.160639 -0.287244 -0.544607 -0.831398 -0.152234 1.909442 0.098625 0.185459 2.564593 0.958587 -0.099638 0.768066 0.155200 1.888187 -2.093518 -0.535677 -2.236372 0.559548 -0.351588 0.516191 -1.873271 0.816598
by -0.678909 -0.822698 -1.146105 0.522258 -1.102686 0.265870 -0.840361 1.397265 -0.197711 -1.751243 1.203030 -0.390476 -1.305593 -0.733456 0.602874 0.784122 -0.250977 -0.253156 -1.646894 0.141131 0.261570 -1.257372 -0.578244 -1.046232 0.287212 -1.427584 0.068504 -0.360507 0.687776 0.089120 -1.301268 0.216860 1.069777 0.235449 0.051022 -0.939527 -0.016247 -0.443858 -0.442973 1.761030 0.559639 0.699228 -0.797500 -2.249214 -0.088643 0.370271 0.750678 -0.754865 -0.366805 2.090068 1.467647 1.903568 0.155279 1.927677 1.961062 0.375971 0.713952 0.387275 1.485476 -0.589215 1.095858 -0.798025 -0.696779 1.453907 1.170146 -0.247864 0.100427 -0.070959 -0.156351 1.143375 0.200457 -0.944582 -0.356006 -0.227771 0.252488 0.229511 0.843704 -0.694947 0.325744 -1.457799 -0.845871 1.078066 -0.555689 1.305698 0.760623 0.476520 2.228283 1.213860 0.974086 -0.436679 0.817629 0.230494 0.045968 -1.871671 -1.402271 1.169355 -1.162912 0.524032 -1.153334 1.192076 -0.512604 -0.451894 -1.578198 0.212996 0.250664 0.694409 -1.121564 -0.472426 -0.076294 0.674585 1.389268 -0.276750 0.604347 1.761294 0.600942 1.049457 2.127078 0.680873 1.981324 0.726115 -0.926351 -0.517896 -1.336025 0.070284 -1.090091 0.420718 -0.000247 -0.291332
this -0.178262 0.480514 1.029055 -0.511045 0.674068 0.889970 0.017411 0.383061 0.084221 0.176907 -0.788565 0.316532 -0.060932 0.578041 0.957399 -1.090832 0.165613 -0.016157 -0.942247 0.647053 -0.887858 -1.144009 -0.255559 0.605329 -0.013420 -1.864416 -0.340858 1.249476 0.169768 1.492544 -0.559388 0.038770 1.499835 -0.395492 -2.447914 3.408932 0.729144 1.331246 0.257241 0.242779 0.515859 -1.302279 0.159517 1.385612 0.576489 2.305371 0.652052 1.538829 -0.665795 -0.138290 1.150188 -0.769303 0.964994 -0.330100 -0.604656 -0.858364 0.629484 0.183167 1.167465 -0.741279 0.351431 -1.114962 0.524134 1.830230 1.914847 0.534143 -0.527617 0.555787 -0.382419 1.024735 -0.590927 0.488134 0.515212 0.270903 1.147319 -0.402139 0.584119 -2.433679 -0.085971 0.970335 2.361651 0.806196 1.467653 0.163692 -1.083337 1.030557 0.452006 -0.279790 0.070144 -1.858442 0.792131 -0.330553 -0.702172 0.134620 0.185642 0.863253 -0.596217 1.254479 -0.707119 0.817063 -1.154306 -0.816944 0.816795 1.211820 -1.149479 -0.201198 0.995976 0.299557 -0.279474 0.565347 0.201437 0.498582 -1.430507 1.219940 -0.408953 -0.195685 -1.235485 0.661691 -0.832594 0.403077 1.430338 0.793741 -0.270017 -0.878489 1.017711 1.278701 -1.759146 0.008759
which 0.296726 0.495954 0.670370 -1.005737 2.469370 0.074291 0.094858 -0.470180 0.322193 0.185807 -0.356890 1.749940 0.962583 2.889073 -1.096794 -0.469981 0.822694 -0.184206 -0.029023 1.336992 0.834152 0.580911 0.841168 -1.408767 -0.984333 -1.316105 0.138400 0.133449 -0.935034 -0.783660 1.105526 1.255086 1.167780 -0.776465 -0.839688 0.124716 1.099183 0.144891 -0.264986 0.779050 -0.173517 -0.148367 -2.438453 1.083470 0.907130 0.965676 -0.197187 0.952139 -1.150349 0.957121 -2.388560 -0.527841 0.035407 -0.773322 0.122527 -1.270270 -0.836622 -0.394972 -0.679768 -0.434751 -0.573216 -0.452190 0.650240 0.796057 0.750038 -0.405708 -0.682651 -0.786831 -0.296354 -0.135311 -0.635922 1.508659 -0.032644 1.064078 -0.719964 -0.115866 1.375504 -0.611936 1.006537 -0.518877 0.399792 1.025028 -1.172955 0.497472 -1.748195 0.191594 1.235248 0.360788 -1.513042 0.514113 0.323602 -0.985095 0.651259 -0.258781 -1.344513 0.063453 0.291848 0.262598 0.124730 -0.077380 -1.180611 -0.324870 0.969705 -0.355103 0.885690 -0.860706 -0.141239 0.418690 0.984809 1.632727 -0.461547 -0.485283 -0.023492 1.249176 0.571654 -0.367544 -0.381912 -1.488925 -0.884838 0.483603 0.490522 0.279982 2.005249 0.125487 0.676412 -0.313309 1.007074 -0.073007
me -0.781357 -0.588086 -0.599048 1.779492 0.003205 -0.191036 1.410950 -0.974737 -0.763995 -0.118682 0.063216 0.402877 0.335935 0.842636 0.517163 -1.652984 -1.036883 -0.059078 -0.950944 -0.603305 -1.081303 1.089464 0.102610 0.355674 -0.249588 -1.551304 0.306124 -1.311173 -1.370114 0.480950 0.298676 0.321597 1.133244 0.073935 0.084203 1.733256 0.344112 0.001387 -0.005155 1.617342 1.066838 -1.176172 0.394652 0.444456 0.601989 1.084632 1.154794 -0.401410 0.311773 -0.948338 -0.492605 0.586089 -1.458239 1.058697 0.420680 -0.705674 -0.656395 -1.640862 0.281371 0.014691 1.048799 -1.151697 -0.764129 1.732134 1.030357 -0.052857 1.721089 0.598897 1.099019 -0.848686 -0.512654 1.310769 -0.484889 0.134153 -0.642019 -0.209181 1.362616 -0.307609 0.484095 0.614292 1.467172 -1.865158 0.553529 0.107736 -0.498769 1.108600 0.030718 -0.385974 -0.533187 -0.395763 -0.025477 -0.429384 0.296852 1.049095 1.089456 -2.336639 -1.634608 -1.200086 0.348663 -0.142287 0.565779 0.320764 -0.846508 0.096389 0.034342 1.184116 0.664525 -0.595116 1.163466 -0.954106 -0.963044 0.379042 1.888004 0.135328 0.742756 0.720899 0.195442 -1.908248 -0.084800 -0.605148 -0.867240 -0.744631 -0.462564 -0.713225 -0.023568 1.086230 0.269005 0.325108
all -1.183709 0.502708 0.393032 1.571841 1.358232 -0.077157 -1.180779 -0.533931 1.730305 1.321987 0.829351 2.190437 -0.129762 -0.975610 -0.420083 -0.314348 0.893565 0.603930 0.848240 -0.084974 -1.308207 1.088679 -0.123278 1.033850 -0.046344 0.353134 -1.035111 2.423294 2.158689 -0.645848 0.051162 2.168765 0.958847 -0.540535 -0.124567 1.734814 -0.469664 0.499028 0.805579 0.236534 -0.759054 1.351751 -1.196131 0.553750 -1.338126 -0.571615 0.582901 0.727929 -0.637390 1.021333 0.547372 -2.119280 0.053117 0.248368 2.107800 1.227208 -0.199165 -0.417103 -0.395215 1.547030 -0.690037 -0.131746 1.097501 -0.499300 0.602923 0.164001 -0.339910 0.601139 -0.136992 1.142296 0.237019 -1.745086 0.540094 -0.020633 -1.039968 -0.600787 -0.747588 0.020002 0.326369 -2.368356 0.785644 -1.390182 -0.155609 -1.977333 -0.783557 -0.943778 -1.079658 0.128661 0.675683 0.747377 0.467623 -0.017550 -1.178990 -0.208603 0.745182 -1.134006 -0.205181 0.848179 0.170073 -1.299623 0.003619 0.628268 -0.465154 -0.149031 -0.110010 -1.599365 1.471291 0.044306 -0.430811 -0.482577 2.224978 -0.519421 0.387210 -1.020094 0.978052 -1.411035 -0.464780 -0.008049 -1.286310 -1.368109 -0.729618 0.601955 1.466737 -1.748532 -0.702550 -0.264190 0.217823 0.700381
said -0.235375 1.233859 0.162601 -0.172414 -0.695100 -0.254690 -0.927394 1.501975 1.255325 1.240242 -1.369934 -0.584573 1.087910 -1.215335 -0.758832 0.619047 0.890065 -0.833592 0.603789 0.280646 1.139082 1.042089 0.436143 -1.052550 -1.384314 -1.033803 -1.086710 1.687369 1.445596 -1.796928 -0.078402 -1.278820 0.576205 -1.201383 0.426514 0.979249 2.232115 -0.277041 1.301651 0.123519 -1.550749 -0.362060 -0.775419 0.207490 0.257490 0.801627 1.520471 1.031574 -0.392298 -0.451626 0.334310 0.201477 0.296605 -1.296915 -1.088011 -0.201203 -1.309756 0.296403 -0.554689 -0.994334 -0.160207 -1.576769 -0.210874 0.582419 -0.705485 -0.457117 -0.655040 0.686647 0.417147 0.747926 -0.889762 1.719811 1.147434 1.145210 -0.542845 1.240113 -0.011034 0.031779 -0.522212 -1.046005 0.831393 0.523596 -1.859745 1.146263 -0.963900 0.854317 -0.371972 -0.191337 0.567215 0.557124 0.517642 -0.367975 0.508106 -1.316925 -1.967992 -1.561275 0.376081 -0.685881 -0.991988 -0.924976 -1.592574 -0.286243 -0.790806 -0.136883 0.568716 -1.168660 -0.990758 -1.053066 1.579270 0.753473 -1.942623 0.379207 0.491652 -0.060191 0.863931 -2.781292 0.404694 -0.356464 0.635546 -1.404334 -0.706642 0.675341 0.834839 -1.303110 1.726342 0.003089 0.677973 -0.392037
she 1.171986 -1.836899 0.852271 1.242008 0.474641 0.748237 1.141537 -0.561776 -1.425457 0.013511 -0.129901 -0.324130 -0.026262 -0.594610 -1.731384 -0.863529 1.411489 -0.098905 0.575382 1.327116 -0.631488 -0.428201 1.329256 0.589496 0.900464 -0.014208 -0.101919 1.178926 0.049058 0.625236 -0.214666 0.490908 0.184186 0.841442 1.733594 -1.171730 -0.619082 -1.396181 1.136010 0.270241 -0.734287 0.455141 -0.570936 1.256831 -1.893122 0.851876 0.986544 -0.384041 0.402592 0.593775 -0.771537 0.294874 -0.676269 1.312250 1.615164 -0.784187 -0.678264 1.484366 -1.743017 0.212389 -0.596786 0.940277 -1.373478 0.153408 0.328430 -1.464866 -1.880539 -1.232547 0.298600 -1.967932 2.866183 -0.539798 0.380221 -1.673183 -0.267038 0.141053 0.812528 -0.724631 -0.321478 0.415118 0.025554 -0.097193 0.278050 -1.149187 0.802594 0.321861 0.019853 -1.316165 -0.915357 -0.219502 -0.865041 0.887207 -0.263880 -0.146319 0.024854 -1.795265 -1.578478 -0.924047 0.961625 1.042183 -2.314707 0.017269 -0.617979 1.016733 -1.494080 -0.546733 0.007445 -0.900791 -0.542325 -0.421724 0.277373 0.246046 -0.430495 -0.051614 0.555489 -0.180623 1.283679 -0.440606 1.326325 0.861494 -0.301746 0.174359 0.724178 0.302484 -1.187681 0.219526 0.672008 -0.916322
from 2.738978 0.777145 -0.146283 -1.713991 0.204885 0.197081 -0.709271 -1.324589 -0.688607 -1.421155 -0.006510 -0.824368 0.138841 -0.395741 0.255786 -0.277146 0.291534 -1.432010 -0.384616 -0.621279 0.425870 1.230242 0.640592 0.107300 0.595420 0.475032 0.115643 0.642422 -0.820560 -1.209789 1.025109 -0.393475 -1.670941 -0.248478 -0.689228 0.829154 1.564299 -0.964943 0.584309 -0.949371 1.987625 0.008342 -0.292789 -0.992721 -1.170113 1.266609 0.591101 -1.342617 0.114799 0.707183 0.497876 0.069106 -1.622158 0.472469 0.137798 1.352406 -0.265243 0.194426 0.591486 0.015607 1.183033 -0.765615 -0.233762 0.250891 0.401284 -0.091319 -0.558046 -0.582317 0.021817 -0.165459 -1.273527 1.775201 -0.088003 -1.082558 -0.906969 -0.535632 1.002515 -0.773851 -0.340933 0.232813 -0.108051 -0.487937 -0.706912 -0.523368 1.234548 2.254430 -0.164291 1.368566 -0.597613 0.619293 0.229716 0.253403 -0.625895 0.348271 -1.000828 1.209734 0.628387 -1.520025 -0.292452 -0.538916 1.019195 2.209561 -0.457529 -0.207847 -0.573893 -0.874191 0.860338 1.056604 -0.583839 2.224344 1.384128 -1.252606 1.040007 0.913157 0.630674 -0.207589 0.625070 0.859471 -1.859284 1.110571 -2.079926 1.317323 -0.128688 -0.889728 2.309761 -0.158574 2.374513 -0.050445
or -0.183202 -0.049457 -0.420173 0.033363 1.372485 1.637477 0.612328 -0.531611 -0.792986 -0.846950 -0.193223 0.021334 0.637583 -0.978320 -0.275612 0.035132 -0.209695 -0.617492 -0.534512 2.650981 -0.054823 0.759096 0.734177 0.564920 0.064885 0.363868 1.887298 -0.659986 -1.690907 -0.751286 0.200236 -1.225413 -0.938429 -1.597682 1.319257 0.085206 0.088284 0.794064 0.947863 -1.413645 -2.979892 -0.324415 -1.285082 -0.203718 1.261570 -1.372270 0.195804 0.393636 0.242967 -0.473675 -2.027946 -0.159685 0.971361 -0.394712 -2.229766 -1.006683 0.428234 -1.660303 -2.124774 -0.071097 1.416362 1.032567 -1.231655 -0.221009 -0.509681 1.903490 0.545169 -1.128827 -1.209754 -1.020012 -0.040446 -1.039916 -1.203180 -0.955255 0.843008 2.079800 0.468569 0.166001 0.821182 -0.169451 -0.567405 -1.192392 0.452024 -0.521247 -2.777688 0.514974 -1.234404 0.156619 -0.694635 -1.283398 0.347078 -1.197723 -0.159838 -0.355853 -0.124538 -0.830917 2.198428 0.128364 0.713080 0.808960 -1.202274 -0.050145 -0.329732 0.432303 -2.229513 -1.354220 0.566039 2.972199 -0.349764 0.753271 -1.323901 -0.124851 -1.079295 -0.857074 1.796582 0.085162 1.689167 0.175990 0.077048 2.063207 -1.026411 -0.223916 -1.253440 0.674803 0.510593 0.985631 -0.137958 -2.235402
they -0.087755 0.069345 -1.589921 1.821819 0.527265 0.799261 1.148267 0.645559 0.207718 0.660690 -0.912990 0.437611 1.219069 0.480468 -0.855114 -1.539995 -1.546725 -1.313697 -0.623001 0.486853 1.650288 -1.034837 -0.721875 0.852217 1.064814 0.249257 -0.197552 -1.477752 -0.854545 0.015427 -1.986007 0.049140 -0.995858 0.817526 -1.450927 1.421644 1.111753 1.046228 0.401306 0.434422 -1.310020 -0.740146 -1.651692 0.040405 -1.546904 -0.919319 0.997516 0.739243 -0.122908 -0.789809 -0.496838 -0.009529 1.065121 -0.711263 1.382679 0.118437 -0.534971 -0.367040 0.090772 -2.040796 0.115691 -0.827621 2.254584 1.399738 0.815964 -1.165288 0.334589 0.828932 0.293948 -0.823524 1.667976 -0.311308 -0.911694 -0.950644 0.918484 -1.121552 0.079417 -1.764216 0.334171 -2.276154 -2.095978 -0.389765 -0.094507 -0.874268 0.760083 -1.339622 -0.886228 0.502137 -0.272173 0.829601 -0.756675 -0.251968 1.210962 -0.669061 -1.827404 -0.130575 1.039192 1.909737 -1.236925 1.047475 -0.421101 0.340534 1.102754 0.273348 -0.213474 1.141941 0.316986 -0.082293 -0.209555 0.179447 -0.080779 0.118345 0.213013 1.620542 -0.243837 -0.197628 0.804753 0.147495 -0.178527 -0.171279 -0.793826 -0.268649 -1.266629 -0.000699 0.187292 0.194538 -0.585721 0.438869
so 0.366411 0.934109 -0.422038 1.512810 -0.473403 -2.216394 -0.724863 -0.101674 0.611161 0.488628 0.119191 1.044978 0.387348 0.271096 0.160026 -0.646373 -0.608203 0.440861 -1.556909 1.471270 0.330565 -1.508065 1.039292 -0.789456 -0.170111 0.459450 -0.360234 0.546608 -0.784237 -1.066772 -0.620149 -0.215160 0.398931 -0.271405 -0.385461 -0.407328 0.010036 -0.596094 2.057692 0.075554 0.206336 1.656775 0.213362 -0.156573 -0.474274 0.932817 1.064833 0.237390 -1.041497 0.485689 -0.029927 -0.745497 -0.818073 2.198159 0.001051 -0.451977 -0.367407 0.372893 -1.816233 0.430056 2.209759 0.492436 0.071360 0.335382 -0.417088 1.274332 -1.745609 0.361618 -0.094250 1.593146 -0.765078 -1.505594 0.518208 0.517996 -2.129866 1.276937 1.000556 -0.920581 -0.720905 0.962017 -0.989323 1.856064 0.811617 0.870675 -0.713901 -0.612307 -0.364485 -0.861288 -0.485759 0.369295 -0.262914 -0.008634 0.110109 -2.463440 0.584039 -0.515797 -0.419419 -0.114912 1.356753 -0.716118 2.516104 0.298309 -0.827375 -0.629676 0.533970 0.311343 -0.932440 1.100121 0.914472 -0.501890 1.716647 0.969565 -1.799228 1.303015 -0.685910 -0.560626 1.414843 -0.736448 0.378130 1.681907 -0.697969 0.455790 -0.460050 -0.319904 2.270111 0.366758 0.337376 -0.273272
are 0.058682 -0.059518 0.567500 0.841605 -1.125463 -0.826006 1.090603 -0.303472 -0.876483 -1.006697 0.992957 0.334451 -0.094458 -0.256749 -1.461222 -1.463831 0.188874 -0.830380 0.163360 -0.428855 0.311255 2.422546 0.805723 -1.194061 2.195451 -1.012602 1.893327 0.416478 0.165824 1.351118 1.080473 0.484608 -0.927970 0.595162 -0.635362 -0.464109 -3.072975 -0.006649 0.807567 0.384655 0.015545 1.227441 0.539016 1.851966 0.003010 -0.346862 0.152853 0.186672 -0.124374 -0.320129 -0.157296 -0.886806 -1.341616 0.583373 1.430851 0.501275 -1.038354 -1.268525 1.652172 0.996939 0.525044 0.967312 0.436363 -0.281144 -1.855733 0.616141 0.626703 0.281345 0.496803 1.162568 1.112127 -0.814984 0.862551 -0.520231 -0.499869 -1.233872 -0.318298 0.008167 -0.363482 0.178285 3.226748 1.520704 -1.175318 1.084636 0.071584 -0.996600 -0.417583 0.969282 0.058171 0.789559 0.619549 -0.484587 -0.088823 -1.245233 -0.389065 0.008300 0.653412 1.747817 0.479690 1.167248 0.484466 0.791291 2.060633 0.070083 -1.338864 0.007069 1.278447 -0.171060 0.529992 1.228204 -1.070839 -0.050092 -0.557578 -1.952602 -0.537688 -1.400973 0.416916 0.534636 0.017385 0.402815 -1.473896 -0.268847 -1.672051 1.455141 -0.503153 -0.965015 0.794144 -1.369148
one 0.922483 -0.073461 -0.260658 0.037306 -0.544060 1.527532 -1.061391 -0.210824 0.155924 0.028132 -1.430172 -0.344058 -0.129544 -1.055296 -1.369439 1.135244 0.803102 -1.036473 0.144107 -0.324030 -2.375851 0.130620 -0.103797 0.344065 -0.152828 -0.239013 -0.068444 1.075942 -1.404619 -0.331118 0.749432 -1.279313 2.203424 -0.094438 -0.453623 -0.456096 -0.957631 -0.699614 0.376415 -1.458499 2.263292 -0.266769 1.733830 0.388937 -0.093134 -0.830367 1.937649 -1.387328 -0.677062 -0.310976 -1.009052 0.923773 -0.359355 -0.208475 -0.184103 -1.398702 1.208712 1.027886 1.042892 1.679789 -0.656216 0.355247 -0.502125 1.899746 0.564497 -1.496001 -0.019359 1.460105 -0.018538 -0.708599 0.652023 -1.214738 -0.404964 1.271692 -0.315792 -0.480934 -0.119893 0.196458 0.513214 -0.857032 1.163453 -0.433434 -0.609627 1.641063 -2.970978 -0.816584 0.247249 -2.410600 -0.579255 0.538568 0.526137 -0.187080 0.829169 -0.831239 1.572600 -0.234603 0.196793 -0.115019 -2.021325 0.312283 -0.035476 0.615435 -0.414241 -0.413731 0.031986 0.904340 -1.402377 -1.395643 -0.022583 -0.436603 -1.672492 1.790804 0.858291 2.154029 -0.879571 -0.613591 0.210282 1.006007 -1.949280 0.106522 -1.456926 0.755131 0.359641 1.233446 -0.217180 0.454584 0.413759 1.334720
were 0.089300 -0.031671 0.521747 1.650141 0.347367 0.516086 0.819741 -0.419605 -1.177634 -1.563822 -0.522943 -0.938576 0.063379 0.000936 0.321371 1.412004 -0.137433 -0.208666 -0.451413 -2.114541 0.119530 -0.400843 -0.035918 -0.410064 -1.215937 1.653669 0.439795 -1.401623 0.155000 0.191298 -0.053561 -0.241615 -0.219388 0.757028 -1.123814 1.306824 -1.432179 -2.015239 -0.449343 -0.548984 1.040638 0.953783 -0.630097 -0.286139 0.312605 -0.325185 0.209009 1.340421 -0.415168 0.833516 0.427810 0.854120 0.803150 -1.749971 -1.569098 0.545239 1.277970 0.361369 0.053715 -0.564370 0.506572 0.468863 1.184865 1.930164 -0.066965 0.480171 -0.593194 -0.610795 0.746785 -1.003012 -0.483125 2.209903 -0.402893 0.379669 0.139569 2.148908 0.780589 -0.375037 0.989427 1.604103 0.797605 -0.493320 1.292370 -0.564953 0.073729 -0.631211 -0.261275 -0.073493 -0.508743 -1.188092 -0.089192 -0.504929 1.237223 0.204978 -0.100865 -2.024379 0.560098 -0.250647 0.271180 -1.333323 -0.594268 -0.277726 1.513463 -0.846500 0.920890 0.280524 1.065944 -1.432619 0.073483 -0.917869 2.183680 -0.040859 1.753976 -0.550600 -1.882995 1.271716 0.491007 0.106110 0.694183 0.449988 1.278463 1.308869 -0.339183 2.161302 -0.438165 -0.075018 -0.406970 0.384123
what -0.589833 0.068602 0.124556 -0.579871 -0.167764 0.567992 -0.744798 -0.795054 -0.453411 0.119152 1.883826 0.503583 -0.529961 -0.726934 0.534559 1.075083 0.007063 1.104872 -0.840217 -0.931093 -0.894337 1.603420 0.541140 -0.256000 -0.737509 -0.266305 0.299595 0.191305 0.370549 0.824692 -0.536000 -0.836516 1.080243 -0.772045 0.969339 1.740856 -0.286931 -1.027754 0.393839 -1.939072 1.062100 -0.951838 0.609359 -0.143840 1.326404 -0.032643 -0.325574 -1.149208 0.365567 1.808369 -0.884860 -0.887568 -0.842099 -1.067765 0.077991 -0.369461 0.266620 -0.104033 1.531631 -0.731501 -0.652198 -0.247381 0.532172 0.152438 -0.472294 1.310119 -0.107958 0.026169 1.604462 1.428289 -1.706024 -1.075612 0.566722 0.337131 1.187249 0.594467 0.127953 -0.987918 -0.091108 0.505788 -0.977475 -0.801856 -1.868364 -0.165482 -1.276208 1.155068 -0.157722 2.415405 0.363876 -0.460299 -0.291610 1.438616 -0.223971 -0.874686 -0.340025 1.077074 0.514406 0.066680 1.466961 0.714162 -0.123658 -0.235042 0.214260 -2.474941 -1.150930 0.542501 1.568783 -0.601902 -0.545380 -0.283768 -1.197459 1.223315 -0.467346 -0.594556 1.182241 -1.117973 -0.755073 1.236059 -1.377397 0.170434 -0.470036 -1.009387 0.600956 0.538760 0.023038 0.193851 0.805448 1.356814
when 1.954062 0.208233 -0.771101 -0.501089 0.264275 -0.082682 -0.262892 -1.021150 -2.828282 -0.167598 1.125126 1.068821 -0.102184 -0.328053 1.721390 -1.230930 -0.672572 0.980939 0.745551 -0.173282 -1.353826 0.159675 -1.243030 -0.201071 1.841138 0.810903 -0.876309 -1.721872 -0.186952 -0.187993 -1.034467 -0.419657 0.125287 1.389382 1.069124 -0.637752 0.075403 0.136894 0.009436 -0.999672 -1.221980 -0.425856 -0.828198 0.315200 0.245384 0.196603 -0.314792 0.890052 -0.796855 -0.294018 2.294371 1.861224 1.735012 0.588362 3.188671 -0.717563 0.215142 0.832552 1.568653 1.879931 0.757630 -1.302482 -0.622503 0.342048 0.505055 -0.871530 -0.801639 -1.669154 -0.277358 -0.524616 -0.900194 -0.233173 -0.856622 0.456922 2.572157 0.515094 -0.756695 -0.215802 0.672155 0.160968 -0.455989 0.706494 0.343231 -0.350068 0.316021 -0.478223 -0.466566 0.198731 0.602329 1.364746 0.355851 -0.273023 0.348976 -0.600513 -1.075508 -1.207310 -0.216321 -0.232269 0.498461 -0.400822 -0.538886 -0.488598 -2.414567 -0.081462 -0.415546 -0.201564 -2.436716 -1.251945 -1.007167 0.142942 -0.169417 -0.025291 0.256949 -0.179790 0.192887 1.551418 1.259428 -1.641794 0.801174 -0.231774 -0.501278 -1.486297 0.450325 -0.079652 0.333371 1.406474 1.295930 -1.484609
no -2.205412 1.152106 0.551834 0.916835 0.157913 1.790848 1.373298 2.376796 -0.948877 -0.639661 -0.484898 0.218291 0.509476 -0.666097 -0.274438 -0.076182 -0.701658 1.673436 -1.690452 1.402969 0.668554 0.532230 -0.812745 -0.816376 -1.756263 -1.504283 0.075581 -1.507712 0.355195 0.173191 0.514189 0.979310 -0.843769 0.395414 -0.852690 -0.174994 0.771859 -1.609447 -0.814523 0.503954 1.044471 0.888118 0.115899 -0.065799 -1.066514 -0.077204 2.233710 1.180349 -0.655697 -1.876767 -0.233867 -0.520795 -1.024709 0.814091 -0.661014 -0.326240 -2.901552 -1.908078 1.598030 -0.959912 0.847762 -1.331818 -0.073902 -1.022100 -0.196216 0.775405 -0.876017 1.256116 -0.421413 1.491695 1.820482 0.366904 -0.121989 -0.042274 0.721604 0.192503 1.353692 1.638121 -1.049105 -0.278229 -1.322290 -0.705254 1.174779 -0.314334 -1.086714 0.888845 0.045330 0.289697 2.799941 -1.030703 0.713583 0.597645 -0.860073 -0.317828 1.148890 -0.329789 1.921571 -0.220072 0.335576 -0.812320 -1.793099 -0.552883 -3.133683 -0.858207 1.314292 -0.363017 -0.325782 -0.457087 0.943950 0.215380 -1.373313 -0.097396 0.205234 -0.785337 -0.459056 -1.084202 1.206591 -0.791471 1.018260 0.560477 -1.442108 0.206457 0.406049 0.589287 -0.306100 -0.872602 0.266598 0.315519
if -0.174921 -0.591882 -0.295657 -0.084458 -1.445943 1.079905 0.242063 -0.915123 0.936218 1.037925 1.623374 -0.308209 0.625759 -0.853714 -0.340579 -0.233944 -0.977864 0.108835 0.572048 -1.019782 2.281152 -1.554441 -0.811884 1.249826 -1.520796 0.856877 0.382833 -0.896541 1.708602 -0.150827 1.094291 0.027713 0.033555 0.226813 -1.286386 0.847160 -1.633208 -1.316425 1.552873 1.207299 0.645039 1.705078 -0.099556 0.347981 -2.565287 -1.618612 1.093622 -0.406299 0.204496 2.322423 2.142910 0.226791 -0.382907 0.402022 0.176558 -0.893285 -0.108012 1.215478 -0.496344 0.784359 2.442497 0.137154 -0.778188 0.912035 0.231893 0.588488 -0.183508 -1.219108 2.531806 0.696951 0.171106 -0.744211 -2.357647 -0.865652 0.557376 -1.594139 1.456521 -1.177122 -0.392677 0.494242 2.416232 1.405524 -1.230464 -1.023812 0.078798 0.949891 -1.543246 0.450109 1.122825 -0.021234 -0.856008 -0.991904 1.421524 0.583094 -0.128682 -0.339394 -0.680206 -1.010948 1.127581 -0.596601 -1.996220 1.166027 1.678721 -0.344086 -0.894551 -0.551853 -0.991228 0.088548 -1.236585 1.688239 1.157639 -0.572243 -2.848325 -0.836591 1.802943 1.100971 -0.234691 0.368376 -0.903458 -0.974932 -0.111432 2.389789 -1.028585 1.409223 -1.240732 0.478898 0.484616 0.227541
there -0.562791 0.044948 -1.242158 -0.619096 0.576836 0.765754 -1.228535 0.767321 -0.589764 1.127748 -1.584675 -0.760632 -1.096801 -0.957825 -1.129248 0.015616 0.317238 1.772702 -0.241532 -0.419806 1.108436 -0.045054 -0.101391 0.467513 -0.064936 0.218401 -1.256506 -0.659045 0.635231 0.121274 -0.102503 0.824289 -0.368353 0.387303 -0.747299 0.919584 -0.056797 1.170849 0.910343 -1.776693 -0.572773 1.108217 -0.350417 0.111804 -2.307879 0.312921 -2.062676 -0.675433 -0.972227 1.170348 -0.646981 -1.751610 -0.396203 0.353626 2.028514 -2.229230 -0.141352 2.057400 1.057756 0.449600 0.241114 1.316908 -1.110171 -0.577499 0.540720 -0.764381 -0.806163 -0.707273 -0.103162 -1.195876 0.294503 0.496239 1.939076 -1.222745 1.111228 -1.069225 0.375982 1.091675 0.384819 1.858466 1.478384 -0.621014 -0.902600 -1.975790 1.373982 2.078434 -0.559967 -0.430045 -1.697945 1.364432 1.169845 -1.576643 -1.195383 -0.603271 -1.143800 -0.190266 -0.413987 1.303181 -0.979025 0.376804 0.700008 2.783251 1.313540 0.492501 0.926021 1.114214 0.716237 2.807053 0.819111 -0.108766 -0.835862 -0.392004 -0.624135 -0.257419 -1.831581 1.576671 0.081600 1.095250 -0.167214 0.341159 0.155236 0.986219 0.786349 0.412639 0.090692 0.440982 1.619641 1.716364
who -1.430458 0.779689 -1.922643 0.568872 0.642967 0.745993 1.871380 -0.466911 1.676418 -0.509249 0.322784 -0.488659 -0.018495 0.011698 -0.502675 1.095456 -1.071491 0.531828 -0.470045 -0.329815 -0.077529 -0.441292 0.377183 0.154655 -1.999928 -1.341909 -0.467978 0.185143 0.534362 0.463677 0.391814 -0.154470 -0.913949 1.859112 0.410041 -0.016702 0.290724 -0.001028 0.127228 0.602982 -0.363133 -0.973044 -2.177580 0.315151 0.990933 0.092660 -0.252703 0.262242 -1.911955 -0.066998 -1.199700 0.573243 -2.266818 -1.436595 -0.635291 0.511727 -0.551698 -2.233620 -1.637229 0.729170 0.461384 -2.012956 -0.142084 0.284554 0.207380 0.527926 0.465489 -0.007856 2.476684 0.282383 -0.807998 -0.653273 -2.482651 -0.444603 -0.008460 0.494169 0.362531 -1.884518 -0.654510 -0.650255 1.189533 1.710075 1.840408 0.355917 -0.890693 1.335243 0.716620 -0.225707 0.458587 0.224190 -0.363503 -0.632966 0.320529 0.240350 -0.951345 -0.284319 -0.219127 -1.003697 -0.241704 -0.546269 -0.184318 -1.108360 -0.676722 0.362935 0.870332 -0.673264 -0.444049 -1.058159 -1.350961 -1.119273 -1.010766 -1.549448 -2.818858 -1.240439 -0.297140 0.509490 0.576366 -1.168605 -0.297280 -0.287551 -1.747561 0.434931 -1.440628 0.209382 0.306336 -1.384351 -0.929623 0.014922
we 1.263252 0.302635 0.320931 -0.559502 0.255484 -0.567994 -1.763285 0.319865 -1.070988 0.280838 0.335259 1.708233 0.228793 -0.348665 -1.917061 -2.086679 -0.907542 0.111384 1.163694 0.293418 -1.748704 0.050444 -1.087846 0.608950 0.963695 1.098886 0.187731 0.507337 2.464907 0.447458 0.299291 0.229183 0.210417 0.102699 0.300150 1.312288 1.449546 -0.839023 -1.209613 0.517424 1.042782 -1.453932 -0.195662 -0.353787 1.195627 0.331751 -0.304557 0.497544 -1.191927 -0.465870 0.300123 -0.907088 -0.343393 -0.225315 1.082080 -1.403643 0.074765 0.516073 -0.021666 -0.937349 0.896890 0.717741 -0.078619 0.146826 -1.684182 -0.909100 -0.011488 0.780395 -1.463486 -1.753453 -2.354016 -2.891416 -1.105449 -0.063425 1.492468 -0.411409 0.652890 0.553408 -0.668054 1.259271 -0.498822 0.454309 -0.669214 -1.781185 0.861373 1.469054 1.253215 1.121768 -1.743357 0.560405 -1.064375 0.048524 0.431777 0.490364 -1.989822 -0.931193 -0.193472 0.297657 -1.080432 0.770095 -0.888176 0.052392 -1.705135 1.661417 0.715740 0.135466 0.127371 -0.303665 0.575185 -0.082605 -1.068461 0.330325 0.670277 2.270922 -0.413740 0.621624 -0.155178 -0.746793 -1.424775 0.210827 1.414738 1.008759 0.362252 -1.766093 1.871375 0.612162 0.945014 1.158885
will 2.576421 0.623999 -1.028703 0.709938 -0.403140 -1.819497 0.398917 0.067816 -1.707176 0.083558 0.145432 -0.068118 -0.152512 -0.256946 -1.725040 0.543845 1.529871 -0.721084 0.039082 -0.290847 -1.541040 -0.667273 0.855893 -0.380397 -1.595566 -0.158696 0.447919 0.644297 2.467779 -1.435130 -0.183389 2.112575 1.025499 1.487875 -0.504487 0.635391 -0.860284 -0.921016 0.558344 0.278917 1.233249 1.126718 1.087837 -0.790466 1.005767 1.683752 -1.153209 -0.453181 0.589511 0.320956 -0.573093 -0.729176 1.250539 -1.457065 -0.320314 -1.302832 -0.175340 -1.824031 -1.615950 0.901820 -0.537507 1.471924 0.669853 0.383561 -0.995254 0.025852 0.696530 -0.433714 1.965562 0.882778 -1.375356 0.288317 -0.623667 0.144010 0.377197 0.218884 -0.260170 1.583130 -0.737376 1.031824 -0.767077 0.839757 -0.304335 -0.050214 0.058964 2.043462 -0.446638 -0.279468 -0.225798 -0.068132 -0.173035 1.253992 -0.006341 -0.374913 -0.803886 0.085865 -1.151980 -1.252564 -0.118820 -1.458117 -0.497527 0.096818 -0.913429 -0.047947 0.737058 0.036849 -0.232285 0.760418 1.116271 1.169370 -1.408559 -1.138405 -0.825299 -1.072589 -0.207484 1.161294 -1.292957 -0.640477 -1.699118 0.779711 -0.409736 -0.695328 -0.883775 0.120712 -2.460289 0.660632 -1.273723 -0.758801
an -0.826221 0.270172 0.871137 1.964602 0.007709 -1.165024 -1.269534 1.345296 -1.523753 -0.595031 -0.518107 0.629737 -0.640436 -0.903471 2.639200 0.460833 -0.355085 -1.099587 0.450220 0.162899 -0.720261 1.115551 -0.484240 -0.308256 0.059978 0.754593 0.398091 1.702576 -0.429892 0.674156 1.623590 -0.195205 -0.263968 -0.790296 1.119562 0.825089 0.142571 -0.968044 -0.396326 -0.403458 -1.247637 1.190060 -0.289959 0.843175 1.433809 1.298621 -1.969769 0.864393 0.350598 1.233881 0.916011 0.286951 -0.067897 0.784326 0.459973 -0.411737 1.129306 1.337038 -0.649358 -1.033543 2.680641 -3.084101 -0.323627 1.636232 -1.719083 1.042784 -0.709427 -0.588782 -2.438000 0.312808 -0.859356 -0.175391 -1.165632 0.118927 -0.993085 0.077785 -0.701963 0.684884 -0.678676 0.373533 -0.612663 -0.477630 1.427888 0.940250 -0.336668 1.282481 0.904214 -0.294639 -2.802531 0.546440 0.873819 -0.266978 0.173656 -0.849774 -0.442721 -0.435201 -0.411276 -1.015210 0.443797 0.103211 -0.450139 1.948078 -0.337556 -2.472241 -0.704117 -0.369083 1.105881 0.165557 1.175045 0.514808 -1.394301 -0.563718 1.214867 0.835938 -0.485340 2.041094 -0.088959 0.949546 0.082875 -1.793410 -0.477086 0.499916 1.676859 0.826347 -0.007939 2.361953 -0.840378 0.997051
then 1.994981 -0.439180 0.900318 -0.634848 0.276055 0.143155 -1.137995 1.209899 0.341911 0.349501 -1.349883 -1.009333 0.817702 -0.804751 -1.522062 0.180956 -0.876115 -1.000425 0.289459 0.561262 -0.497784 -0.991423 1.347597 -0.448381 0.418508 1.569790 -0.397533 1.532939 -1.819434 -0.437062 0.737056 -1.448520 0.295613 -1.045710 0.414788 -0.097641 -1.307816 -0.894129 -1.545533 0.626447 1.420187 -0.070821 0.564201 -0.445664 -0.128856 -1.099557 -0.290303 0.440249 0.347340 0.205024 2.113908 -0.395134 0.773571 1.782372 0.358716 -0.552175 -2.188865 -0.937643 0.031154 0.209746 -1.023941 1.198031 -0.307201 -1.430596 0.442538 -0.149065 -0.288257 0.416619 0.296510 -0.258818 0.913760 -0.263304 -0.468498 1.463875 -1.554556 1.959711 0.261354 -0.499160 0.323731 1.196462 -1.544220 -0.720698 0.100266 0.058376 0.481142 0.754191 -1.174959 1.019140 -1.088482 1.116037 -0.234541 -0.320234 0.270983 0.933406 0.685682 -1.109549 -0.960037 -1.070865 0.332018 0.969045 -0.548913 0.796458 2.726472 -0.381874 0.723150 -1.086429 -2.369786 1.338623 0.398726 -1.392424 0.012194 0.482642 -0.878074 0.374983 -2.054641 -0.913177 1.121386 -0.716592 0.646808 0.259411 2.000522 0.528829 0.287464 0.443828 0.644359 -0.313191 0.696917 -0.211168
their 0.526129 -0.734644 0.627345 0.678173 0.451621 1.387099 -1.059349 -1.238055 -0.881852 -0.852964 0.542174 0.984858 1.380605 1.460382 1.234311 -0.140199 0.172010 -0.333248 0.680046 0.043364 0.654898 -1.364065 1.006905 -1.030159 2.058954 -1.435243 -0.147179 0.972884 -0.337216 -0.136497 1.713016 -0.998541 0.814150 0.815386 0.117941 -1.175839 0.941122 1.261303 0.054905 -1.161403 -0.561117 -1.039165 0.128619 -0.039239 0.932527 1.095775 1.394893 1.375089 1.289533 -1.041941 0.537591 0.284818 -1.173128 -0.346739 1.638534 0.671049 0.715949 -0.400670 -0.980061 -0.138768 0.688521 -0.248838 -1.212099 0.240635 0.309718 1.225215 -0.641141 0.521684 -1.429891 0.259783 0.004825 -0.396450 0.604440 0.544576 -1.075225 -1.437228 -0.269736 -1.036725 -0.498028 -0.566815 1.440691 0.378079 1.460545 -1.033244 1.840531 -0.558650 -0.757980 0.608826 0.487681 -0.381990 1.641096 -1.107404 -1.105347 -1.626666 -1.259785 3.868216 -1.098348 0.172277 0.253776 -1.034142 0.643156 -1.986435 -1.621829 -0.067173 0.490922 1.376422 -1.761343 0.047814 0.121061 -0.816601 -0.195304 0.973349 2.292330 0.359996 -0.468203 -2.244095 -0.831280 0.382224 -0.203609 -0.962557 0.435632 -0.999528 -0.309452 1.284044 -0.059344 -1.845700 -1.808523 0.502818
would -0.680385 -0.097776 0.807847 0.217680 0.249288 0.248477 1.201756 -2.046946 1.457722 0.848673 -0.483712 -0.554808 0.661881 -1.143796 0.853978 1.490943 1.717651 0.122599 -0.567300 -1.191380 -0.087276 -0.013809 0.129779 0.222374 0.142609 0.042556 0.099008 -2.406672 -1.184593 0.308674 1.104247 0.123239 -1.776321 1.441934 0.717246 -0.601915 0.167998 0.823334 -1.811347 0.877281 0.267196 -2.134989 -0.470186 1.614326 -0.517889 -0.231399 0.213282 1.548589 0.671796 1.202173 -0.303232 0.209507 -0.176116 0.906003 -0.342124 -2.932734 1.027870 1.123158 -1.155913 -1.749506 0.201552 -1.803421 0.373129 0.932516 0.781098 -0.849467 0.396075 -0.549206 -2.562016 -0.992496 -0.370804 0.228826 3.473214 0.269512 -0.345552 0.481614 -0.169702 -0.063050 -0.130391 -0.286189 1.227275 0.133632 0.289009 0.168986 -0.872677 -0.271194 1.385893 0.929480 -0.850016 1.563564 -0.682670 0.057702 0.558478 2.052666 0.763632 0.638239 0.677577 -1.596707 -0.453319 -0.400979 1.456448 0.015460 -1.267903 -0.982855 0.754609 -0.085841 -1.046533 -0.795781 1.158711 -0.274712 -0.011844 0.266214 -0.241955 -0.432025 -0.773705 0.218455 -0.049974 -1.242332 0.004329 1.478146 0.906291 -0.807767 -0.397734 0.569953 0.323736 0.087241 -0.665429 -0.393434
them -1.391326 0.777982 0.644432 0.836982 -0.828733 -0.570995 0.100292 0.643338 -0.131337 -0.472007 -1.431727 2.224785 -0.591347 0.827270 -1.046487 0.944303 -1.068014 1.700496 0.065906 1.283318 0.897550 -0.258171 -1.420349 0.964932 1.500611 1.369439 -0.060172 0.224449 -0.396977 -0.072256 -0.241178 -0.286479 -0.077580 0.975685 -0.228299 0.833590 0.973392 0.044307 -1.063623 0.017622 2.203519 2.114678 0.096716 -1.654098 0.616377 0.182179 2.007958 0.306571 1.622601 -1.345030 2.278105 0.719361 0.088812 -1.235115 -0.954546 -0.159385 0.243833 -1.183507 -1.781940 -1.746575 0.155561 0.100308 -1.479594 -0.038107 -1.011634 0.851612 -0.106372 -0.677799 0.517764 -0.797406 -0.826434 -1.023748 0.331466 1.307711 2.064343 -0.080208 0.401211 -0.380199 -0.384038 -0.354005 -1.020360 0.828413 -0.226572 -1.177745 0.849259 -1.386044 0.542766 0.830275 -0.314465 -2.289349 -1.513512 0.470961 -2.587751 0.785498 -0.658261 1.122449 0.722063 0.283928 -0.279161 -0.926424 -0.723309 -0.911620 -1.491196 2.444609 -0.445339 1.036824 0.516808 0.540383 1.066665 -0.998893 -0.426045 -0.275323 0.410480 1.088600 0.610260 -0.466746 1.150510 1.457769 0.008568 0.778725 2.010592 0.443112 1.517244 -0.265243 0.973104 1.318187 0.131779 -0.373682
been 0.915369 -0.174100 -0.285083 0.332503 1.966273 0.738743 -0.269946 -0.443525 -0.361690 -0.149866 0.213963 -1.322201 -0.893969 -0.479606 1.146225 -1.632711 1.503082 -0.021285 -0.668230 -1.420017 -1.192804 -1.352061 -0.012791 0.906016 -0.038737 -1.864682 -0.211460 0.047680 0.976555 -0.877523 2.675360 -0.565713 -0.582221 -0.698504 -0.293401 -2.033852 0.219906 -0.065567 -1.125195 1.638936 -2.093717 -0.358520 0.420380 -0.526578 0.532912 0.994243 -0.587959 0.223162 2.008278 -1.548000 -1.276816 0.238165 0.127689 1.615481 -0.155992 -0.210716 -0.296555 0.004386 0.090031 -0.243164 -0.538483 -0.454905 -0.789303 1.321121 -2.460825 -0.339671 -0.217083 -2.819774 2.270178 0.630425 -0.434250 -0.511282 1.723653 -1.180916 0.891817 0.999312 1.907127 1.288886 0.201551 0.089227 0.278840 0.306498 -0.120565 0.999884 0.567432 0.675287 0.013019 -0.375068 0.523009 -0.296911 -0.710665 -0.743031 0.829084 -0.382535 0.327462 0.095551 0.587670 0.196297 -0.566739 -0.703018 0.479164 1.093962 -0.145953 -0.334478 -0.809655 -0.828518 -2.139396 -1.006949 -0.436476 -1.431578 -0.648569 -1.862667 -0.237586 0.358668 -1.091294 -0.490148 -0.522000 -0.973756 0.111912 -0.170640 -1.010552 -0.961242 0.471014 -1.712345 0.031298 0.157248 -0.422648 -0.166786
do 0.305768 0.706963 0.645747 0.401803 -1.419517 -0.514562 -0.014325 0.740808 1.002609 0.098826 0.791770 0.264728 0.926593 0.528887 -0.163508 0.091089 1.373906 0.044048 -0.579111 -0.224342 0.067489 -0.458201 1.621649 0.814139 -2.568103 -0.135539 -0.215593 -0.052335 -1.301472 -0.514790 1.110202 1.145573 -2.103054 -0.372715 -0.678183 0.065575 -0.650158 -1.168733 -0.194781 -0.190363 -0.959097 0.699505 -0.054600 -0.494582 1.026124 -0.695411 -0.477357 -1.668261 1.488887 -1.537403 1.173388 1.989757 0.631753 -1.037734 -0.814872 -0.102194 -0.337435 0.388585 0.508317 -0.401263 0.517538 0.133162 1.275651 0.954529 -1.267486 -0.158514 -1.543563 -0.119575 -1.312215 -0.568752 -0.057238 -0.557540 0.377236 -0.030628 -0.222139 0.699169 -0.401565 1.011766 0.253678 0.525225 0.956945 0.749949 0.765134 1.970479 0.143082 0.926099 1.178753 1.075862 0.382653 -1.550060 0.718089 1.030032 2.246984 -1.476554 -1.951617 0.574720 0.555298 -0.680715 -0.226953 0.657967 -0.042592 -0.144817 -2.439223 -0.945593 -0.975294 0.839874 -1.066305 -1.391322 2.425658 0.659743 0.132490 1.137260 -0.290420 -0.390170 2.164460 0.141791 -0.066813 -0.898365 -1.192297 -1.535613 0.475628 -0.576594 -0.370381 -0.540187 -0.932595 -0.752870 1.395505 1.144114
your 1.850959 -0.044194 -1.060830 0.828307 -2.218150 2.651441 -0.497691 1.495095 -1.145864 -0.577062 0.094744 -0.486029 0.459230 0.229853 0.777331 1.187159 0.387510 -0.652492 -0.213568 -0.257535 -0.841167 -0.868612 2.959139 -0.299567 1.095668 0.310339 -0.587265 1.818782 0.221886 -0.914981 0.450105 0.003967 -1.493622 -0.203736 0.407936 -0.303180 -1.176536 -0.315030 0.273292 -0.691209 0.754847 0.503857 -0.862281 -0.711424 -1.798261 -0.230184 0.149950 0.069085 -0.736043 0.407831 1.639021 0.667063 -0.562810 0.747669 -0.839394 -0.126147 -1.561658 0.996771 -1.034540 0.756468 -0.682934 1.220811 -0.199334 1.195079 -0.637668 -0.843349 -0.600886 1.590126 0.149924 -0.633788 -0.984542 -1.753913 -0.056942 0.338051 -0.265225 0.013956 0.640160 2.145840 -0.443385 -1.449430 0.018198 0.769121 0.697452 -0.858883 1.532321 0.453295 0.970441 -0.436853 0.151375 -0.791810 0.522413 1.367506 1.725235 0.223433 -0.379608 -1.129124 -0.397584 0.830598 1.309584 0.575696 0.742528 -0.486478 -0.312279 0.417863 1.016311 1.215308 -0.798147 0.459627 1.535073 0.557803 -1.803517 -0.622031 0.684911 -0.287380 0.923106 0.765342 0.256450 0.204829 1.599890 0.946506 0.613981 -0.662049 -0.226426 -0.276654 0.319188 0.648804 0.499153 1.187457
now -0.519156 1.091773 -1.416556 -0.585103 -0.667504 -2.110225 -0.622181 -0.299974 -0.476655 0.605502 1.000320 0.746714 2.251793 -1.212249 -0.228544 1.056906 1.993846 0.939161 0.491175 1.673324 -0.368490 -0.057393 1.055159 2.035606 0.479949 -0.741816 -0.092709 1.241437 -2.110660 -0.543492 -0.362664 -0.815744 1.736637 1.440426 -0.209131 -0.993697 1.670050 0.918683 -0.126738 -0.136589 -0.068361 -2.354926 0.977334 -0.383946 -0.761196 -0.471685 -0.187216 -0.554102 -2.216639 -2.330773 1.330305 -0.375035 1.494396 -0.283527 -1.068958 -0.549785 0.132351 0.274414 0.057838 1.511900 0.192228 -0.286623 0.452689 -1.469009 0.447525 0.040519 -0.067870 0.810895 -1.810903 -0.370404 1.520548 1.341295 0.743726 -1.581707 0.619743 -0.893870 -1.287925 -0.196080 -0.388771 -0.804400 1.811268 -0.600748 -0.109125 -0.164818 1.405589 -0.549945 -2.014213 1.994775 -1.300911 -1.146080 0.414766 0.804014 -2.913977 1.154760 -0.291815 -0.172707 -0.361623 0.889522 1.794037 0.517599 0.496216 -0.090123 -0.548423 -1.216721 1.274595 -0.195748 -0.047290 0.443149 1.168234 -0.902531 0.041237 0.160967 -0.281208 -0.834822 1.369908 0.452455 -0.137484 -1.317186 1.958434 -0.624120 1.459181 1.251216 1.092602 0.104156 -0.941098 0.257309 0.006729 -0.724970
out 0.599963 0.679589 -0.385616 0.970432 0.390547 -0.391937 1.947596 -0.238352 -0.312038 -1.457473 1.373150 0.843742 0.173653 -1.076880 0.707098 0.543703 -0.689581 0.859225 -0.584629 1.223228 0.585830 -1.811868 1.373669 1.091421 2.458010 0.902554 -0.878505 -0.973398 1.114067 1.017894 -0.810486 -0.569918 0.445682 0.619596 -1.520699 -1.390418 0.348962 -0.205396 0.187571 -0.552800 -0.969009 -0.121432 0.290031 0.906855 -0.217632 1.467026 0.705978 -0.385510 -0.513214 -1.928805 0.474695 1.202018 -0.471208 -0.306756 0.564025 -0.645333 0.408026 0.864730 -1.935404 -0.355654 -0.757471 1.383975 -1.325038 0.443432 -0.100598 1.582558 1.045225 0.554534 -1.429521 1.007994 -0.045841 0.267612 -0.807594 -0.338164 -0.576816 -0.350865 -0.771510 -0.317262 -0.616878 -0.305188 2.357789 -0.917339 -0.681286 0.344804 1.476455 1.750805 0.641720 1.351043 -0.689327 1.010989 -2.144459 -0.013780 1.103821 0.010158 0.060752 1.041116 -0.663635 -2.185604 -0.017306 0.364231 1.343085 -1.518384 -1.160518 0.382652 0.256309 -0.021877 0.457206 0.117317 1.046123 1.432011 0.226893 0.337436 -0.893226 0.780754 -1.022080 -1.439855 -0.199617 -0.459252 -0.154948 0.007614 0.135558 -1.394033 1.829743 0.900800 2.333340 0.050998 -0.175020 -0.751000
more 2.071645 0.013134 -0.094491 1.051745 -1.274480 0.214921 -0.780936 0.301277 -1.968906 0.372114 0.014233 -0.496204 1.785508 0.860964 -1.033538 -0.563587 -0.218899 -0.986844 -1.323412 -1.106313 -2.185622 -0.708359 1.604112 1.308158 0.622403 1.289470 -0.611179 1.696324 -0.115146 0.787785 -0.653688 -0.230178 -0.125291 0.183295 0.703025 0.455385 -0.788413 -0.166907 -1.407929 -2.492027 -0.539440 1.738849 0.016939 0.911338 -1.481809 0.744969 -1.448941 -0.293961 -1.166249 -0.617627 2.020523 0.011425 -0.107868 -0.906264 0.049230 0.219439 -1.149526 -0.829806 -1.431247 0.052039 0.316272 0.768166 -0.406153 -0.048669 -1.592204 -0.233948 -0.567121 0.430329 0.729411 1.140736 1.764726 -0.659605 -0.954748 -1.103620 -1.050598 -0.192532 0.400823 -0.275135 0.750880 -1.013092 -0.154790 0.258198 0.201794 0.675894 0.241317 0.907245 1.752598 0.459400 0.042975 0.988141 0.124497 0.400622 -1.142248 -0.057558 -0.690865 0.336100 0.605230 1.148435 0.465537 -0.481651 -1.039846 -0.419525 0.731035 1.636790 -1.274661 -0.062114 -0.523664 -0.461612 0.463176 -0.617354 1.548687 0.970250 0.080009 1.637552 1.325356 0.666182 0.018457 0.084871 0.423129 -0.852369 1.218343 0.734891 -0.688142 0.934088 0.324284 -0.534343 -0.026369 0.120927
up 0.920000 0.752744 -0.747181 -0.989129 -1.611647 1.004992 -1.517642 1.441288 0.769158 -2.560178 -1.983084 -1.330673 -0.294744 0.764357 0.440670 0.916535 -0.296597 0.535109 -2.288347 0.706733 0.578260 -0.501932 -0.572282 0.974916 -1.896632 0.258463 0.562319 -0.124669 0.261679 0.213955 0.308280 0.919727 -0.466972 -1.938727 -1.021982 0.046011 -0.784190 -0.296899 0.458378 -1.093380 -0.003667 0.321643 -0.471911 -0.100766 -0.553684 -0.049882 0.298638 -1.388269 1.684291 -0.617413 0.721747 -0.397756 0.875488 -0.300758 0.312363 1.195660 0.215944 0.416479 -0.123875 -0.419483 -0.001744 -0.756879 -0.464354 1.022261 -0.234449 -0.527896 -0.850468 -0.640125 -0.402333 0.507821 0.498707 -2.018511 1.093914 1.372435 -0.442965 0.224071 -0.580191 0.125335 -0.644297 -0.780176 0.376522 -0.650807 -1.534704 0.531440 -0.781621 -0.320578 0.565672 1.937332 1.220947 -1.809711 1.527417 -2.039939 0.107309 -0.530905 0.380964 0.136924 -0.199411 0.409095 -0.172385 -0.096323 0.331625 -0.217434 0.165366 0.126204 0.271035 0.713682 -0.551689 0.229776 0.445000 -0.109384 0.764079 -0.133487 1.263126 -2.035291 1.040406 1.159698 0.144957 0.545642 0.246485 -1.152606 -0.232040 2.007909 -0.009997 0.413306 -0.198663 0.287135 -0.040927 0.747229
man 0.589445 -1.056502 0.029558 0.555777 -0.753682 -0.972862 1.161785 0.310748 1.381749 -1.019983 0.780178 0.584548 -1.162423 1.728122 0.792036 1.235811 -0.960637 0.137307 -1.051815 -0.268487 -1.479701 -0.067387 0.130049 -1.445497 -1.357109 -1.776427 -1.581399 -1.183182 0.576600 -0.161877 -0.379100 -0.644322 -0.333545 0.440477 1.136822 0.767520 -1.872942 1.129628 -0.162676 0.408525 0.583609 -0.350628 -0.591652 -1.233080 -0.308654 -1.783266 0.118197 -0.495390 0.743194 -0.724131 -0.514865 -0.965167 1.502951 1.666628 -0.363238 0.539236 -1.527382 2.009284 0.846331 -1.678989 1.370831 0.181042 0.466362 -0.820400 -0.762954 1.282394 -0.847267 1.127673 -0.664065 -0.578061 0.145047 1.628211 -0.315234 0.067060 0.824365 -0.986685 1.106194 0.168290 -1.579139 0.872300 -0.004770 0.938239 -1.768253 0.687434 -1.013592 -0.781605 -0.258450 1.191574 -0.514456 0.934058 -0.312485 -0.718841 0.354849 -0.621582 0.659181 2.661421 0.065908 0.378361 -0.726920 0.139429 -0.012675 -1.638342 -0.758327 -0.491134 -1.281233 -0.272730 0.846483 1.221844 1.670353 0.548487 -1.850927 0.455545 1.059927 1.629224 0.313487 -0.257030 0.149592 0.487143 3.140826 -0.359791 0.241546 0.949910 -0.158234 0.945682 0.578761 1.153660 1.312272 1.426458
into 1.681803 0.709507 -2.453965 1.776377 2.521937 -1.138036 -0.303130 0.409400 0.621267 -0.241209 -1.199768 -0.072254 0.050852 -0.722561 1.039976 -0.410708 0.164203 -0.868799 -0.150487 0.655429 1.472224 1.147575 -0.558256 1.061016 0.223357 -0.586318 -0.330909 -0.152926 0.025844 -0.154925 1.100185 -0.401355 0.848812 -0.300725 0.247988 -0.511735 0.565586 1.201453 -0.995557 -0.513863 1.575338 -0.422653 -0.732733 -0.183467 -0.444335 0.930803 -0.657318 1.396022 1.549041 -1.104532 -1.476553 0.363757 2.189338 -2.080306 0.475423 0.075856 -1.633185 0.241780 -0.329254 -1.165402 -0.464633 -0.373142 0.636129 1.485053 1.583725 -1.124220 -1.626210 1.005314 0.476325 -0.550039 0.623691 -1.570214 -0.344234 1.713444 0.318184 2.242006 2.397614 0.857281 1.508699 -0.119610 0.412552 -0.928659 0.534523 -0.593601 0.013074 0.779840 -0.200661 -1.624442 -0.870516 -0.553290 -0.141574 -0.999801 1.195476 -1.365299 -0.333297 -2.004596 -0.209657 -0.256360 0.078992 -1.481427 -0.867160 -1.143527 -2.114370 0.859890 0.526475 -1.317036 -0.092671 -0.510997 -0.408238 0.138260 -0.917421 2.007432 -1.530082 -0.277211 0.238603 0.109217 0.554969 -0.413682 -0.532571 0.964478 0.255244 -0.146093 0.299899 -0.912804 -0.378478 0.301603 1.488678 -0.415066
some 0.718749 -0.265170 -1.534585 -0.910791 -1.164041 0.588149 -0.882249 -0.402549 -1.035069 -0.105897 0.043551 -0.725523 -0.641562 -0.408415 0.885187 0.329615 -1.325459 1.582802 -0.545582 1.155370 1.153983 -2.128659 0.990363 -0.930940 -0.267014 -0.375847 0.535569 -0.330165 -0.210326 -1.375568 -0.336744 -0.385409 -2.051653 -1.152800 0.043593 -0.794712 -0.207630 -0.525281 0.009544 1.088778 0.829489 0.695160 0.981291 0.796710 0.399315 -0.624063 1.974663 -0.203710 0.036801 0.207612 1.052152 1.923061 0.044865 -0.166267 -1.064472 1.026541 1.750968 0.460847 -1.763663 1.417665 1.008914 1.619634 0.392415 -0.505229 1.290484 -0.316798 0.830332 0.705283 0.692565 -1.480008 -0.411624 0.198886 -1.099939 0.498884 -0.456113 -1.804779 -0.096499 -0.901874 1.850548 0.139778 -0.956023 -1.017989 0.245710 0.197174 -0.422323 0.716709 0.940490 0.586751 -0.957309 1.390045 0.742808 -0.616579 0.332666 1.507243 0.339509 -2.775301 -0.536342 -0.014453 -0.083080 -1.336985 0.824205 -0.048241 -0.683553 1.955655 1.270904 -1.231255 1.451070 1.393844 -2.083973 0.023462 -0.045880 -0.817535 1.890530 -0.814616 -0.963747 -0.373765 -0.576392 -0.246832 -1.180423 -1.106447 -0.065831 1.449862 0.334717 0.476088 0.291124 -0.829954 0.658991 0.895073
could 0.186855 -0.315756 -0.101820 0.329876 -1.389476 0.122314 0.268712 0.437095 -1.489748 -0.128800 -1.287902 -2.545106 0.056374 -0.457606 2.265100 -0.336004 -0.600360 0.011333 1.342449 -1.598562 -1.038265 -0.086586 0.037643 -0.704140 -0.810251 0.033665 -0.233561 0.495329 1.082815 2.437552 -0.219845 0.603108 0.393865 -0.443708 -0.721537 -1.079607 0.093792 1.343114 -0.096016 1.298834 -1.151857 -0.564241 0.526379 0.828741 -1.090955 0.363432 0.466332 0.154068 -0.289790 -0.940645 0.417681 -0.941757 0.143883 1.080152 -0.613772 -0.583396 -1.004783 -1.220348 -1.058059 -0.434595 0.092561 0.363648 -1.821126 -1.030140 0.712943 0.362311 -1.701715 -0.853289 -2.262136 0.258304 -1.570077 -2.355860 -0.674793 0.632792 0.284333 1.588256 -2.750832 -0.536996 -0.526173 -0.520602 -0.668801 -0.563426 -1.824874 2.826708 -0.231707 2.121178 -0.573423 1.277802 2.075948 -1.069974 -1.005580 -0.836762 1.164036 -2.442509 1.190753 -0.511596 -0.299941 1.163105 1.832565 -1.940906 -1.498605 0.753468 -0.172134 -0.974545 -0.083148 0.709316 -0.422558 -0.495605 -1.426808 1.795058 0.064897 0.653045 0.258628 -0.369911 -1.615526 0.175726 0.548304 -0.870323 -0.644781 0.771538 -1.287123 -2.162504 -0.232895 -0.694783 1.206460 -0.639363 2.826000 0.535508
has 1.396243 0.946717 -0.455218 0.598810 -0.276443 0.576792 -1.306320 -0.684904 1.846929 -0.795288 1.039060 -1.437145 0.008708 0.526831 1.186001 1.461625 -0.348573 0.504752 1.038131 -0.123550 -0.112216 1.097374 -0.978556 0.197015 1.059322 0.098548 -0.265822 -1.316972 -0.025387 -0.202273 -0.040075 -0.618072 -0.114057 -1.271215 1.187097 -0.173471 0.348189 2.341648 -0.119007 -1.063310 -0.483255 -1.481642 0.186533 -0.034191 0.181838 -0.294788 0.792495 1.776270 0.993113 1.166436 0.968570 -1.062530 -0.611339 0.155519 0.181976 2.320829 2.641837 -0.451850 0.139421 -0.283765 -1.070250 -0.714365 -0.023492 0.913581 0.763440 -0.975621 -1.179770 0.080341 0.450610 -1.568971 1.146697 0.896787 -0.430117 2.008198 -0.578942 0.318784 0.536892 0.805393 1.344807 1.155498 1.799309 1.754768 0.165797 0.352752 0.100435 0.280221 0.887798 0.125527 0.434045 -0.403512 -0.104522 1.554963 1.132125 0.018968 -1.549380 -0.457450 -0.575281 0.622638 -0.454692 -0.468580 -0.410221 0.305439 -2.593400 0.281729 0.660345 -1.052839 -1.033628 -0.609347 0.241225 0.369069 1.840140 -0.045988 0.844630 0.820233 -0.882984 -0.051503 -0.931890 -2.393316 -0.503614 0.985961 -0.071861 -0.230857 1.234641 -0.632473 -0.800884 0.548027 -2.158637 -0.265162
only 1.269367 -0.465800 -0.770355 0.708987 -0.865983 1.284865 0.408144 0.539762 0.235655 -0.623923 -1.020713 0.389822 0.267424 -1.289067 -0.196002 1.187395 -0.630579 -0.659270 1.216756 -0.198776 -0.193204 -0.203446 1.678111 0.536573 1.607334 0.588372 -0.410627 0.890738 -0.504211 0.181077 0.869121 -1.944647 -0.953324 -0.022064 -0.264576 0.320670 0.773958 -0.890189 0.425216 -1.446417 -0.350979 -0.220026 0.537806 -0.150523 -0.902439 -0.191151 0.129653 -0.310292 0.273778 -0.703053 0.637786 1.330058 -0.698368 -0.049910 -0.853673 1.162882 -0.251273 -1.716932 1.837836 0.821524 1.146309 -1.035055 0.378524 0.106034 0.815136 0.157325 -0.257373 -0.515330 1.055356 0.156394 0.039528 0.081716 -0.333227 1.087506 -0.967640 -1.423805 0.432853 0.296923 0.177271 -0.617552 0.043120 -1.070527 0.673037 0.650096 0.303963 -0.901460 -0.099408 1.150190 0.385229 0.187112 0.901551 0.456492 1.934751 0.218229 -0.685164 0.239581 1.911154 -0.068177 -0.299438 -0.453538 -0.360786 -1.177464 0.855062 0.610008 -0.899728 -0.998363 -0.944036 -1.174903 -2.096359 0.089855 0.226491 1.039876 0.977106 0.161962 -1.087441 0.574011 -1.069828 -2.592252 0.081990 0.893441 -0.981414 -1.178489 1.032806 0.289598 0.297956 1.353426 -1.744621 -0.296742
any -2.562025 -0.972286 0.774665 -0.394903 3.055774 -0.852137 -0.495145 1.020229 1.624947 -0.336701 1.075542 -0.541921 -1.421959 -1.343869 1.574164 0.523593 -1.724012 -0.936073 0.314847 -0.772939 0.416184 -1.908142 0.558309 1.086418 -1.552559 0.787277 -1.250430 -1.272885 -0.479780 1.081742 1.768265 -0.787383 0.741824 0.405601 -1.715846 1.485024 0.414598 0.398567 -0.856492 -1.216198 1.170533 0.124047 0.398708 -0.479328 -1.027886 -0.792450 -0.322331 -0.126146 -0.654715 -0.739270 -0.529294 1.220289 1.462012 -1.461948 -0.811818 -0.003506 1.023196 -0.317706 -0.235212 -0.259469 -1.032497 -1.048549 -1.229392 0.872962 -0.869185 1.350229 -0.178884 0.680952 1.062810 1.095157 -1.588425 1.009478 -0.551027 0.719510 1.991350 0.322601 0.194619 0.146107 0.170060 -0.318740 -1.073874 2.414186 0.446438 -0.590235 0.664370 -0.637827 -0.244898 0.022708 0.224179 -1.732796 0.247611 -0.904665 -0.343678 -0.283960 -2.677121 0.552864 1.645229 2.147423 0.735662 0.759827 -0.138034 0.451974 1.371214 -0.896446 1.787018 0.933114 0.542209 1.345724 -1.520449 0.509238 -0.921446 1.018838 0.318094 2.409655 -0.761553 -0.211660 0.989215 0.532974 0.343566 0.412842 1.410080 0.280277 0.126253 1.607742 -0.320065 0.525806 0.312284 -1.579064
very -0.865585 0.108776 -0.959171 1.526906 0.041098 -0.533291 -1.591781 -0.911119 -0.260902 -0.515714 1.267326 -0.744365 -0.074197 0.058974 1.775028 0.253166 -0.036709 -0.554242 1.252714 -0.534848 0.582191 0.793448 0.369495 -1.013262 -0.156327 -0.002916 0.201045 1.094605 -0.786452 0.240657 1.428018 0.369192 1.424202 0.945637 -0.551494 -0.184921 1.154623 0.280665 -0.618953 0.188914 -1.779992 0.846191 -0.682585 1.312490 0.809510 0.453339 -0.091368 0.453293 0.144531 -1.874464 -1.153026 0.160890 0.321796 1.016837 -0.846823 -1.658228 -0.891110 0.281814 -0.910964 0.092644 -0.299906 1.817108 0.093713 0.460961 -1.943813 -1.135321 0.136466 -0.546388 -0.562509 0.616487 -0.853318 -2.025966 -0.581313 0.225848 0.642404 1.109169 1.729477 0.965727 -0.087834 0.326406 0.603565 0.304317 0.578311 -1.309748 0.742623 -1.246710 -0.549872 -0.451745 0.334393 -1.127792 -1.321750 0.433628 0.160140 0.429093 0.070604 0.217533 -0.036174 -0.053930 -0.634295 0.844123 2.158585 -0.393223 -2.462825 -0.683304 1.069767 -1.489408 -0.928911 0.449742 -2.069461 -1.094482 -0.055447 -0.788740 -0.864424 -1.000370 -1.203685 -0.413435 -1.408234 -1.604607 0.582329 0.122833 -0.376445 0.783127 0.619779 0.390224 -1.233469 1.267707 1.093020 0.890487
like 2.181187 -1.166028 -1.350220 -1.251348 -2.272459 -1.338034 0.766044 -0.621083 1.287414 0.491999 -0.279610 0.727206 -0.176487 0.284183 -0.767354 0.239358 -0.931573 0.772294 0.734451 -2.122885 -0.624663 -0.550183 0.803440 -0.339595 -0.749949 -1.002979 -2.170704 -0.528155 -1.449429 1.410321 0.719708 -1.186131 0.936767 -0.951133 -0.875102 0.740670 -0.657829 0.704451 -0.411961 -0.787497 0.328366 -0.392147 -0.030276 -0.320400 -0.438289 -1.244876 0.133543 0.506876 0.867335 -1.027154 0.172550 -2.333727 -1.226168 -1.179945 0.940198 0.475449 -0.207204 0.947989 -0.818836 -0.525243 -1.410629 0.781599 -0.744085 -1.082039 -0.858941 1.577007 -0.756885 0.601050 -0.679260 0.299552 2.475558 0.438821 -0.800717 -0.505492 -1.778419 0.259021 -0.041074 -0.398188 -0.709980 0.129912 -0.877077 0.302697 -0.991235 -0.213348 1.478580 0.124189 1.211019 0.848525 -0.916450 1.086050 -1.101002 0.761380 -1.938431 -0.520802 -0.129908 1.040026 -0.058643 -0.380420 -2.291310 -0.567026 0.071550 -1.065689 0.634808 -0.443123 1.116727 -0.529349 -0.628029 1.798064 -1.140286 1.813260 -2.927366 -0.308107 1.688764 0.291433 1.444736 1.383387 1.870256 -1.107471 1.824277 -1.525153 0.382119 1.522957 0.755157 0.277153 -2.164274 -0.175416 0.165119 -0.037028
did -0.443651 -1.032368 -0.460254 -0.665492 -1.131791 0.475674 -1.205527 0.925560 1.091276 0.650114 -1.464304 -1.774827 0.504340 -0.697865 0.373734 -0.745205 0.804830 -1.313722 -1.881567 0.704645 -1.740129 -0.835897 -0.619474 -0.898344 -0.421620 1.952001 -0.753212 0.039500 0.127404 1.204325 1.141199 1.419769 -0.200973 -0.433454 0.447376 -1.114704 -0.689723 -0.348940 -0.538054 -0.307849 -0.727676 0.519317 1.199702 2.537210 0.343308 -1.178493 -2.197189 -0.339280 0.138252 1.078608 0.498715 0.834433 0.515985 1.324163 0.947906 0.010001 0.126973 -1.011712 0.787793 -1.152688 0.539066 1.616757 -0.020152 -1.875971 1.374731 0.295803 -0.153679 0.642182 0.732194 0.708608 -1.065521 -1.222659 1.654886 0.316651 1.212995 1.082451 -0.869769 -0.424408 -0.262645 0.154654 0.536179 2.130747 1.256813 0.270616 1.862548 -1.266905 -1.464965 0.148651 -0.771060 -0.351026 -0.380633 1.144350 0.624625 0.995192 1.592259 0.021775 -0.342661 0.032501 -1.323388 0.026594 -1.246046 2.213049 -1.371892 -0.586912 -0.122794 -0.711339 -1.558277 1.240021 -0.742413 -0.048625 0.261101 0.470401 1.458113 0.645288 0.853989 -0.616319 0.313255 1.303956 0.687989 -0.358135 1.242044 0.501599 -0.148562 0.454603 1.141177 0.543081 1.500991 1.230664
time 2.297804 -0.068828 -0.238900 -1.171621 0.266010 0.315795 1.331905 -0.711699 1.234995 1.506100 2.048940 0.363046 -0.155533 -0.045736 -0.229563 0.332252 -0.172936 0.090475 0.159994 -1.403377 1.494894 0.771217 -0.999315 0.892273 -0.789171 0.362786 0.401879 0.476945 -0.160144 0.671682 1.031024 -0.078970 0.340913 0.433022 -1.195705 1.326407 -0.364755 0.821788 -0.093327 1.015286 0.781642 -0.495520 0.143931 -0.755284 1.589832 0.615266 -1.447668 -0.272697 1.510173 -1.261920 0.446793 0.257399 -1.210280 0.068723 -0.181810 -0.975852 -0.381556 0.946796 -0.519523 1.199507 -0.950503 -0.692000 -0.660568 -1.896460 -0.252017 -1.104970 0.686487 -0.026325 -0.781638 1.283021 0.138846 -1.130239 -0.941863 -1.501124 0.874163 0.570799 -0.051240 0.447516 1.054531 -1.421861 0.581036 0.229440 -1.267710 2.369213 0.081439 -0.399887 0.539811 0.678551 -0.593020 0.638260 -1.017733 0.690013 0.652971 -0.448893 -1.399616 0.376593 -0.290541 -1.962122 -0.631642 0.553092 1.355123 0.457211 -0.664538 0.383279 0.497572 0.037188 -0.964803 -0.063294 -0.964966 0.386499 -1.255878 1.007911 -1.076804 0.108593 -0.337217 0.250858 0.181387 0.090909 -1.629601 -1.089494 -1.017754 -0.030093 1.739459 -1.453362 -0.024597 -0.361059 -0.065675 1.571301
its 0.654866 0.065073 0.211416 -1.798849 1.194214 -0.037849 2.612360 -0.626572 -0.846631 0.148803 -0.986370 -1.933029 1.263478 -0.539005 -0.666199 -0.443472 -0.225208 0.221768 1.311330 -1.929232 1.206133 -0.321151 -1.254917 0.271730 1.087886 0.434481 -0.296265 0.917920 -1.299682 0.000091 2.011309 -1.820496 1.733295 0.518733 0.182550 0.788124 -0.144095 -0.498468 -0.030678 -1.361028 2.287331 -0.298871 -1.179715 -1.426043 0.223237 1.263024 0.050988 1.511067 -1.467896 0.266169 -1.719085 -0.011762 1.874760 0.121928 0.624941 1.644448 -0.199201 -0.761778 -0.053030 -1.442846 0.049742 -0.239821 0.806458 -0.515773 0.033340 0.096300 -1.958768 1.054930 0.470692 0.552411 1.617311 0.037291 -1.095689 1.102137 0.779306 0.497049 0.434179 -0.699667 0.394584 0.028038 -0.991543 0.336796 1.045404 -2.064795 -0.634597 0.221363 0.454475 0.638862 0.268027 -0.469074 1.708436 0.223976 1.592407 -1.222919 -0.291740 0.269874 -0.917524 0.147315 -1.309648 0.288157 1.555393 0.541943 0.547724 -0.031517 0.605977 1.483623 0.377216 0.488364 1.359692 2.965865 0.567139 -1.095832 0.065340 0.675884 -1.184644 1.091329 0.961181 -0.169003 -0.016120 1.856731 0.078179 1.322025 0.773016 -1.453676 0.045995 1.650435 0.067358 0.598468
than 0.577744 -0.179718 -0.055909 -0.127166 1.706332 -2.269048 0.615188 -0.959584 -0.235777 0.947889 -0.224534 -0.851367 -0.281767 0.853260 0.568299 0.047639 -0.109185 0.271054 1.223858 -0.285260 0.709910 -1.670150 1.030602 -0.083934 0.447475 1.020218 -0.979646 0.887186 0.346109 2.038962 1.627870 1.594566 -0.206420 1.219464 1.416231 -0.770209 -0.719631 1.656015 -0.903343 -0.638940 -1.289415 -1.697252 0.593699 1.158651 -0.971407 -0.264631 0.680762 0.875434 -1.175220 -1.157178 0.029705 0.630655 0.463147 -1.397691 -0.792920 -0.252819 -0.860775 -0.164022 -0.552276 -1.144281 -1.050227 0.113675 -2.054086 0.232848 0.784954 0.528311 0.567797 -1.075001 -0.910554 -1.159053 -1.296468 -0.363719 0.131252 -0.669011 0.298783 -0.289159 -2.275585 -0.299623 0.680128 0.057264 -0.441315 -0.330569 0.299996 1.257818 1.801101 -0.481470 -2.354690 0.728957 0.085173 -0.941101 0.990657 -0.448965 0.441255 -0.320252 0.199793 0.570241 0.525659 0.685546 -0.303299 -1.299981 2.389152 -0.488249 0.222643 0.611152 0.802708 0.347241 -1.507853 0.150139 -0.208225 -1.304957 -0.745410 -0.324238 -0.790153 -1.613560 1.093704 0.881665 -0.793082 0.514063 0.931513 -0.012857 2.231704 0.173227 2.391846 0.304230 -0.834899 1.361653 -0.501772 -1.484172
other 1.410189 -2.117683 0.329529 0.880641 -0.082219 0.105570 -0.691549 -2.092019 0.763970 -1.176444 -1.774948 0.720289 -0.797057 1.968102 -0.003599 0.489761 1.168288 -1.788259 -0.740681 -1.063945 -1.156725 0.543270 1.717215 0.434319 -0.688886 -0.047561 1.941134 -0.044343 -0.150998 -2.236560 2.838007 1.861748 0.777323 -0.684229 0.464859 -0.807318 0.820924 -0.176860 -1.090449 0.454817 0.155229 0.999877 0.161724 -1.420804 0.304391 0.612943 -0.298695 -0.740020 0.953547 1.060108 -0.949564 -0.423490 0.210987 -1.195791 1.712767 -0.592956 -0.716034 -0.211536 1.085881 2.133861 2.445827 0.169169 -0.622929 1.160834 -0.182070 -0.285566 -0.463868 0.926368 -0.264399 0.289069 1.837972 1.170704 0.232719 1.109627 -0.953870 -1.761976 0.340775 -0.026587 0.831518 0.495382 1.584785 -0.641556 -1.549777 -0.420833 -0.846310 -0.341369 -1.580304 1.146174 -0.080304 2.191430 -0.598461 0.159141 0.692027 -0.357324 0.951527 0.141702 1.622321 1.013646 0.302465 -0.549793 0.584744 0.225536 -0.606732 -0.077186 -2.312052 -0.190448 -2.720858 0.544689 1.107638 -0.167884 -0.235989 -1.118836 1.189627 -0.127670 -2.095789 -0.110151 0.313036 -0.296875 -0.228296 -0.314613 0.615590 -1.380435 0.935428 0.742881 -0.632028 0.306275 -0.963822 -0.403578
before 2.178278 -0.024011 -0.261606 0.778994 1.022096 -0.204040 2.218711 -0.087837 0.298944 -0.456287 0.000996 2.117881 -0.258954 1.253345 -1.837663 0.750749 0.191501 -0.572539 0.744107 -1.041941 -0.948365 0.787948 0.524292 -2.234269 1.017295 0.423985 -0.707483 1.324355 0.518921 -0.246661 0.373318 -2.268112 -0.431602 -0.101114 0.154256 1.200645 -0.183754 0.882569 1.171559 1.183561 -0.490765 -1.339948 0.234040 -0.070255 -1.021313 -0.445961 1.204912 1.141562 -0.292872 2.090697 -2.064367 1.171411 1.205793 0.057880 1.350150 -0.953192 -0.415140 -0.513495 1.085270 -1.122273 -0.744950 -1.246243 0.476027 -1.436861 0.259772 1.440343 -0.334776 1.261005 -0.609630 1.543976 -1.044843 -0.112768 -0.873469 2.358192 0.724597 0.387441 -0.793126 -0.272622 -1.232991 -0.607358 -1.079271 0.227730 -1.004277 0.384993 0.274782 1.062513 0.389788 0.087034 -1.096402 0.336346 -0.453910 0.353237 -1.139281 -0.469583 -0.035029 1.230997 -0.981271 1.338780 0.274475 0.886827 0.050888 0.428580 0.304631 -1.309063 0.880136 -0.308210 -0.971127 -0.050578 -0.163710 -0.244911 -0.170778 0.422762 0.731978 -0.372857 -0.230561 -0.464564 -0.366149 0.436266 -0.612085 -0.673258 -1.204271 -0.506304 -0.358350 0.665672 -0.682681 2.315483 0.844493 1.958626
about -0.951992 -0.187682 -1.914729 1.721709 0.450134 -0.631753 -1.006938 -0.428188 -0.510909 1.259746 -0.465772 0.606337 0.159625 0.260873 0.364503 1.532183 -0.024227 0.472842 0.510072 -0.871891 -1.888959 -0.307977 -1.097003 -1.143876 -0.226032 0.889327 2.103040 -0.582365 -0.476173 0.373880 1.053179 2.241361 -0.210442 0.613192 -0.082647 1.082818 -0.943637 1.517260 0.550232 0.091421 -1.980009 1.347241 -0.206651 0.155214 0.753860 -0.672979 0.044717 -0.162523 0.290083 0.429593 -0.367694 0.270661 -0.297492 -0.446238 -0.523183 0.243397 0.382953 -0.972427 -1.090639 -0.270255 1.317143 -1.065103 -1.758067 -1.730713 0.413779 0.612432 -0.087556 2.230807 0.049693 -0.094227 -0.466909 -0.656545 -0.056903 -1.131527 1.275428 0.448607 -0.882264 -0.633492 0.697542 -0.054239 -0.540056 1.042872 -0.970007 -0.748824 0.020292 1.588171 0.280874 -1.324998 -0.047584 -1.189872 1.220290 -0.546298 0.535219 0.472194 0.833204 -2.638047 -1.420935 -1.605252 0.044535 0.044543 -0.974868 0.010492 -0.829468 0.299585 -0.111258 -0.243566 0.292618 -0.725302 0.901685 0.706510 0.248771 -0.501415 0.503637 -0.290905 -1.985816 0.038817 -0.892468 -1.315399 -0.155063 -0.137638 -1.834327 0.170403 -1.047683 0.140851 -0.570079 0.081935 -1.648545 -0.073340
see 0.555385 -0.501949 -0.684518 0.535929 0.606585 0.007371 -0.286698 0.682049 -0.436298 -2.664448 0.847760 0.263422 0.508365 0.161794 1.765826 -0.716008 -1.139686 0.296399 -0.572615 1.297205 0.785782 -1.784175 -0.253290 0.803693 -0.396417 0.717521 -0.679185 -1.122844 -0.687188 2.078709 -0.828637 -0.269610 0.640106 1.170055 -0.033847 0.926180 1.495321 -0.863342 0.224428 -1.546419 -1.864259 0.094934 -0.967999 0.053216 0.929627 -0.390972 0.653684 0.110052 0.624779 -0.741254 0.396782 0.119613 -1.554512 0.332858 0.508976 1.284229 -0.876810 0.546459 0.383218 0.267539 1.274759 0.434769 -0.756250 0.340666 -0.203809 0.348539 0.028816 0.700767 0.868125 -1.707536 1.209600 -0.425394 -0.807802 -0.320381 2.371672 0.433950 0.569164 -0.029167 0.307247 0.846981 -1.730958 1.587998 1.425189 0.436296 0.173371 -0.160319 -0.913124 -0.476147 -0.155189 -0.024894 -1.765373 2.091035 1.430803 0.853763 0.065764 0.552496 1.769751 -0.575648 -2.425950 1.232922 0.617868 0.513671 0.252819 -0.112071 0.797449 -0.648833 -0.456077 0.059487 -0.067119 0.874599 0.474772 0.048530 2.842867 0.873462 -0.711741 -1.302684 0.745817 0.060248 0.862923 0.007303 -1.535190 0.067783 -1.141860 -0.540115 1.769453 -0.575418 0.653941 1.070616
