3000 128
<pad> 0.000000 0.000000 0.000000 0.000000 0.000000 0.000000 0.000000 0.000000 0.000000 0.000000 0.000000 0.000000 0.000000 0.000000 0.000000 0.000000 0.000000 0.000000 0.000000 0.000000 0.000000 0.000000 0.000000 0.000000 0.000000 0.000000 0.000000 0.000000 0.000000 0.000000 0.000000 0.000000 0.000000 0.000000 0.000000 0.000000 0.000000 0.000000 0.000000 0.000000 0.000000 0.000000 0.000000 0.000000 0.000000 0.000000 0.000000 0.000000 0.000000 0.000000 0.000000 0.000000 0.000000 0.000000 0.000000 0.000000 0.000000 0.000000 0.000000 0.000000 0.000000 0.000000 0.000000 0.000000 0.000000 0.000000 0.000000 0.000000 0.000000 0.000000 0.000000 0.000000 0.000000 0.000000 0.000000 0.000000 0.000000 0.000000 0.000000 0.000000 0.000000 0.000000 0.000000 0.000000 0.000000 0.000000 0.000000 0.000000 0.000000 0.000000 0.000000 0.000000 0.000000 0.000000 0.000000 0.000000 0.000000 0.000000 0.000000 0.000000 0.000000 0.000000 0.000000 0.000000 0.000000 0.000000 0.000000 0.000000 0.000000 0.000000 0.000000 0.000000 0.000000 0.000000 0.000000 0.000000 0.000000 0.000000 0.000000 0.000000 0.000000 0.000000 0.000000 0.000000 0.000000 0.000000 0.000000 0.000000
<start> -0.987506 -0.987450 -0.351374 -1.409225 1.092384 -1.975877 0.948834 -1.992236 -0.570179 -1.752855 -1.373717 0.524638 0.933938 -1.075300 1.861464 -0.523584 1.304413 -1.699048 -0.163536 1.068360 -0.351868 0.481981 -1.061638 0.279294 0.402735 0.251272 -1.770811 0.813750 -0.851813 0.219663 0.315457 -0.034827 0.236657 -1.484858 1.217012 -0.019507 -2.293160 0.137500 -1.907283 -1.606702 0.497096 1.495555 0.745554 2.055077 0.704737 0.010179 -0.894996 0.601524 -0.878768 -0.137291 0.782439 -1.460029 0.185840 2.059931 -0.859806 -0.703825 -0.347832 -0.955414 -0.388574 0.279992 -0.218619 -1.228930 -0.390974 -0.118603 0.144118 0.201343 -2.283714 -0.008087 -2.559122 -1.450189 -0.601041 -0.590525 1.454120 1.303075 0.274654 -1.812906 -0.523106 -1.436090 1.427566 0.165409 0.154966 -1.390396 1.328600 -0.876066 0.538535 1.656331 1.670067 -0.399347 -0.075227 1.109534 -0.052854 -1.069297 0.441238 -0.522824 2.713617 -0.707283 0.357596 0.287184 0.399229 -0.187409 0.970898 -0.895214 0.149271 -0.411411 1.012174 -0.717786 -1.911499 -0.251962 0.920701 0.375226 -1.081548 -1.329971 -0.514660 -0.351649 0.610792 -0.346532 -0.752288 -0.492082 -0.470970 0.389706 -0.406251 -1.175862 0.787128 -1.985043 -0.062903 -0.702354 0.182621 1.450729
<end> 0.596253 1.293217 0.701804 1.543312 0.549121 0.190544 2.229331 -0.327508 -0.608985 0.630551 0.010360 -0.070949 -0.048475 0.588527 -1.060513 -0.201934 -0.775260 0.239097 1.257871 1.555702 0.711729 -0.130544 -0.660490 0.544786 -0.732096 0.500227 0.112374 0.255693 0.299229 -0.958615 0.462680 0.590661 1.149745 -0.936109 1.626483 -0.616778 -0.400970 -0.411073 -0.282408 -1.944420 0.709832 0.082030 -0.208634 -1.806404 -0.575926 0.137100 1.883000 -1.087010 -1.438694 -1.303422 -1.058849 0.844113 -1.048086 -1.652913 0.955872 -0.349982 0.338104 -0.573067 -0.101297 0.227393 1.993658 -0.363741 0.401706 0.135580 -0.460747 0.590176 1.292601 0.622786 -0.533025 -0.533442 -1.175686 -0.120616 -0.009095 -0.152864 -0.156331 1.074304 -0.805722 1.286548 0.981749 -0.516126 -0.022441 -0.385574 0.058660 -0.484148 -0.911828 -0.433696 -0.067646 0.812052 -0.648925 0.154648 2.405730 0.561369 -0.031699 -1.032067 0.992950 -0.302231 1.406011 -0.200645 -1.349938 0.889209 -1.835091 -1.149168 -0.900867 0.279470 -0.471844 -1.312631 -1.008828 -1.016964 0.420090 -1.013301 -0.467108 -0.369279 -0.453670 -0.916456 0.336652 0.101700 0.790981 -0.555422 0.614153 -1.955988 0.571214 -0.808726 -0.832468 -0.050944 -1.060572 0.681249 -0.515205 -1.249488
<unk> 0.738822 -0.495652 -1.156567 -1.350199 0.303314 -0.013764 0.639198 0.035504 0.761841 0.956819 0.784262 -1.011069 -0.437032 -2.165509 -0.614528 -1.046277 -0.126211 -2.115404 -1.291680 -0.983099 0.112843 0.953562 -0.699716 0.510748 0.036925 -0.097462 0.601877 -3.289784 0.702472 -0.326480 -2.584268 -0.992052 1.062855 -0.214229 -0.627643 1.075576 -2.349650 -0.078944 1.151709 0.532665 0.072552 1.624460 0.975048 -1.825222 -1.065194 -1.542685 0.945518 0.874525 -0.096693 -1.122694 1.015077 -0.131846 0.540498 1.092304 -2.371398 -0.959787 0.065417 1.820379 1.350691 0.011594 2.210767 0.703988 0.269996 -0.096002 -0.716725 1.129902 0.924407 1.171003 -0.103495 -1.717936 -0.085469 1.636849 -0.883320 -0.267298 0.187225 -1.217658 -0.957910 0.430567 0.332358 1.488749 -0.614661 -0.568034 -1.497939 -0.396192 1.443354 -1.390360 -0.016284 -0.152345 -0.463175 -1.183351 -0.421962 -2.448184 -0.724682 -0.026663 -0.069048 0.259886 -0.346771 0.259503 -0.110444 0.456596 2.161907 -0.351746 1.164910 0.019373 0.704762 -0.829079 0.217988 -0.356422 0.780371 -0.123247 -2.000721 -0.797862 0.886066 0.673319 0.926865 0.130627 0.002273 -1.642245 0.693969 -0.329983 2.107379 0.488031 -0.470945 -1.620231 -1.661234 1.340714 -0.980576 -0.730723
the -1.849967 2.333624 1.788226 -1.016646 -0.543581 0.423230 -1.166772 0.624882 -0.095062 -0.836430 0.301196 0.172174 -2.170027 -0.193717 -0.768090 -0.653197 1.455035 -1.534075 0.457903 -1.753751 -0.083764 -2.334497 -0.363642 1.073191 1.781820 2.061337 0.163089 0.174595 0.573440 -0.969376 -1.132803 1.965607 -2.387711 1.754354 1.995980 -1.026703 -0.006384 -0.897280 -0.529191 -0.951436 0.725141 -0.764902 -0.366715 -0.768463 -0.668048 1.009816 -0.620072 0.412682 2.059624 0.420983 1.738201 -0.094825 -0.432772 -1.027732 0.333864 0.262686 0.160617 -0.832662 -0.573712 -1.055494 0.289366 0.535518 0.420017 0.930424 0.987713 0.100972 1.040150 -1.151429 0.167460 1.330789 0.852087 -0.448353 -0.279272 0.057098 -2.242320 0.479831 0.118416 0.217121 -0.325854 0.108210 1.135764 -1.613757 -0.804452 0.778867 0.030195 -0.754080 0.653821 1.670915 0.342902 -0.350610 0.142923 1.606427 -1.106824 -1.691185 -1.048366 0.166137 1.389123 -1.037000 -0.998426 -0.974462 -0.416588 -0.167963 1.250261 0.188966 0.227802 -0.580560 -0.208674 0.873867 1.149050 0.107592 0.173543 1.775738 -1.053153 0.779122 0.300265 -0.760340 0.507662 0.173849 1.321099 0.121544 0.710770 0.379894 1.075167 0.440460 0.775315 -0.609674 -0.218469 0.259544
and 1.234941 1.245307 0.967848 -1.941893 2.226101 0.813355 1.608933 -0.506166 -0.387223 -0.325995 0.857967 0.204294 -1.090287 1.123750 0.349153 -1.720590 -2.397659 -0.234230 -0.742547 0.210561 -1.519326 -1.635980 -1.407269 -2.257364 1.771991 -1.686056 -0.289462 -1.133178 0.348815 -0.368053 -0.973187 0.549694 -0.302836 -0.670194 -0.970309 0.832711 -0.156891 -1.779337 0.486974 1.048935 -0.552509 0.750681 0.498409 -0.985900 0.886232 -1.006632 0.856464 -0.026011 0.980957 0.662676 0.338251 -1.327806 0.711358 -0.981988 -0.024394 -0.315836 0.728972 0.311903 -0.162173 -0.328367 -1.144545 -0.255174 1.676748 -1.521908 0.183909 0.182149 -1.822884 1.009386 -0.040587 0.596243 -0.853885 0.432061 0.774086 -1.085199 -0.136708 -0.061822 -0.561405 1.132691 0.565899 1.389361 -1.086076 -0.711024 1.316596 0.500494 0.416305 -1.252834 -1.001620 0.629462 0.265644 0.575429 -0.294648 -1.009710 1.649246 -0.660969 1.330381 0.566699 0.107339 -0.161038 0.350640 -0.437953 0.295487 -0.588988 -0.418968 -0.676015 -1.720689 0.561091 0.690626 -0.211317 1.872374 0.496994 1.173487 1.010359 0.022291 1.780047 0.336038 1.546772 -1.204064 0.024403 1.320309 -0.449185 0.147315 -0.778005 -0.409190 -0.884720 -0.012213 1.614739 -1.101629 0.160706
of -0.527208 1.001903 0.907758 0.404674 0.346552 -0.015651 -0.371152 0.209095 -2.599577 -1.163507 0.740457 1.572877 -0.994265 1.247058 0.064111 0.709276 -0.282483 -1.020851 0.419148 0.848571 -0.489704 -0.810962 -0.755536 0.250715 -0.102136 -0.784896 -0.798376 1.919821 -0.706742 1.325603 -0.779448 0.598077 -1.006464 -0.110199 -3.051122 -0.902126 -0.973100 0.457229 0.408717 -0.524873 -0.369246 -0.697100 -0.181486 1.620322 -0.498544 -0.530316 1.448985 0.729303 0.181533 1.223894 -1.338565 0.473691 0.872918 -0.325478 -0.513165 0.991119 -0.499415 0.578679 0.494487 -1.775594 1.756477 -2.497617 -0.556013 -0.871990 0.170119 0.951970 0.203938 0.920111 0.077636 -0.514190 -0.571180 0.855639 2.352646 -1.454713 -0.213466 -0.504816 1.172770 1.664720 0.483239 -0.168370 1.440613 -0.351552 -1.441456 -0.197581 -0.279475 0.646528 -0.286121 -2.355398 0.174431 -0.503227 0.043454 1.529090 1.782133 -0.241610 0.721746 -1.993356 0.215271 0.472340 -0.654520 -0.799700 -0.545540 -0.560087 -0.388151 -0.749045 0.265263 -2.675730 0.588748 1.373810 0.555102 0.565207 -0.640618 1.690259 0.798197 -0.474191 0.729753 1.011654 -1.466052 0.951262 -0.633577 -1.119163 0.541302 0.608232 0.390176 -1.487550 0.406687 0.461166 0.048619 0.422924
to 1.552027 -0.628901 0.236507 -1.815243 -0.385314 0.371516 0.007564 -1.340140 -0.370165 0.703448 -1.357083 0.291441 1.238530 -0.275171 0.584161 0.015924 1.056188 -0.539715 -0.902497 -1.065803 -0.150533 0.511809 0.001873 0.717156 -0.159634 -0.115041 0.410432 -0.883698 -0.293222 -0.140910 2.469679 0.697620 -0.223548 1.773304 1.168619 0.002273 -0.460124 -0.647395 -1.204470 -0.325637 0.839325 1.012147 1.369469 -0.491414 0.138644 2.568848 -0.696312 -1.423690 0.999460 0.580538 0.740841 1.373424 0.139313 0.870994 1.058418 1.482536 0.813280 0.645065 0.269293 -1.578187 1.556001 -1.207816 -1.496716 -0.133093 -0.630190 -0.140318 0.978247 -0.380389 1.531658 -0.127145 -0.776749 -0.345050 -0.260362 1.128214 -0.959630 0.067804 -0.247500 -0.090261 0.973959 0.678493 1.207756 -0.897174 -0.239303 0.173853 0.962911 0.002287 -0.758320 -0.820518 0.352876 0.545572 1.583013 0.081548 0.449831 -0.144135 -0.171211 -0.672784 0.303983 -0.206776 1.160154 -0.728747 -0.924360 -1.326738 0.625664 0.069308 -1.506985 0.062690 0.516168 -1.718409 0.094288 0.657374 0.292281 1.737563 1.340013 0.109393 -1.332030 -0.548170 1.297672 0.158969 -0.962977 0.309318 1.686026 0.022982 -0.646495 -0.842021 1.034393 -2.533814 0.476246 1.330919
a 0.286930 -0.191569 0.378376 -0.053952 -0.468588 0.593858 0.784686 -0.329802 0.480905 0.622656 3.534553 -0.774847 0.184083 -0.652376 0.804849 0.309363 -1.648901 0.248761 0.275196 1.821330 0.811260 0.044402 -1.168452 1.523758 -1.360410 1.280990 0.301189 0.451030 -1.026714 -0.300894 -0.119944 1.342662 -1.022793 -1.226496 0.923089 0.118738 2.116139 0.374558 0.062973 0.943189 0.257764 0.375095 -0.956597 -0.024410 0.395196 -0.782173 -0.533694 0.924300 0.882922 -0.327879 -0.914447 0.983040 0.160251 -1.047457 0.885297 -0.250382 -0.744334 0.289176 0.834862 -2.149158 -0.775745 0.590513 1.173067 -0.911801 0.016990 -0.249068 -0.895109 1.056059 0.016989 -2.076355 0.275444 -0.865788 0.444866 -1.133289 0.298885 -2.244836 1.269884 -1.688805 -0.391250 0.216066 -0.014241 1.114335 1.299749 0.080453 0.425577 0.841721 -1.831829 0.506833 -0.609455 -0.247399 0.176048 -0.856770 2.242073 0.131356 0.314992 -0.122728 0.095500 0.990358 0.511438 -0.631130 -0.108277 0.957084 -0.355975 0.231002 0.953386 1.869876 0.311814 -0.451184 2.471478 0.309074 0.384417 -0.370745 -0.919748 0.893970 -1.036965 0.487250 -0.625927 1.015548 0.797314 -0.592000 1.189719 -0.895225 1.503853 -0.323511 0.502257 -0.462330 -2.605680 0.856440
in -0.092307 -0.743249 0.943281 0.916885 2.976625 -0.321808 0.568589 -0.455640 1.041814 0.597772 1.084991 1.577713 0.712964 -0.255009 -0.886696 -0.330847 -1.361747 -1.368176 1.920132 1.325109 0.376804 -1.403387 -0.521705 -1.937775 0.842492 -1.612366 0.766834 0.632203 -0.055384 -0.518300 0.134804 1.053351 -0.112013 0.253096 0.740122 1.925934 -1.213907 -0.120168 -1.820495 1.184263 1.992150 -1.275564 0.860934 -1.870871 1.256424 0.910745 -0.024080 0.867886 -0.771117 0.389067 -0.043352 0.042918 0.902620 0.125062 0.124343 0.197833 0.721976 1.346690 0.115854 -0.505881 -0.522070 1.108653 0.689082 1.748887 3.647609 0.023069 -2.022086 -0.305629 -0.423439 -0.886583 0.160254 -0.446431 1.187836 -0.470193 0.943171 -1.744644 0.615535 -1.049075 -1.322270 -1.522766 0.906381 0.279096 -2.659496 0.276440 1.062984 0.380406 -0.464165 0.363942 0.827154 0.751465 -0.599756 0.020516 -1.507749 0.402049 0.172480 -0.811166 0.851271 -1.489749 1.935517 0.896542 0.397689 -0.292489 0.723331 0.351249 -1.001949 0.535595 -0.539012 0.891275 -0.256349 1.838435 -1.345572 0.600075 -0.024061 0.383676 0.522184 0.243159 1.144443 -0.071550 0.218096 -0.974540 -0.056400 1.953749 0.806190 -1.303592 -0.921443 0.879652 0.250820 -0.547987
i -0.278895 -1.891447 -0.878683 -0.174113 0.344694 -0.438542 -0.011897 -0.639742 0.965480 0.645953 -0.026402 0.587375 1.623034 -1.246524 -1.473956 0.635211 1.102060 -0.763078 -0.961584 0.929461 -0.151482 0.097286 0.107110 1.233990 0.740133 -1.658719 -0.899815 -0.713085 1.687130 0.877617 -0.908364 2.011022 0.045691 0.883195 -0.781287 -0.610387 1.794413 0.102899 -0.625316 1.240328 -0.729203 -1.477474 -0.252746 -0.922148 1.033963 -1.134410 0.062483 1.744922 0.784593 -0.310120 -0.366454 1.143379 -0.747105 0.312510 1.372021 -0.265318 1.465576 -0.451091 -0.528555 1.516485 -2.212951 -1.565570 0.702285 0.763121 0.449128 0.443959 -0.807874 0.371226 -0.358736 -0.252864 1.248888 -0.868313 -1.760033 0.596626 -0.945603 -1.283933 -0.248820 -1.046232 -0.711676 -0.314456 -0.106261 0.220853 0.231980 0.125576 1.367311 1.517471 0.893908 1.905073 -0.477007 0.720876 -0.032218 -0.845223 2.109241 0.143490 -0.898692 0.334674 0.962312 -0.947245 1.260650 0.182763 -1.877865 -0.521208 -0.346968 1.032372 -1.393520 -1.133839 0.210304 0.190756 1.439275 -1.013177 0.051087 -0.798379 -1.321694 -1.565251 0.098533 0.745351 1.141390 -0.608012 -1.206217 1.016462 0.411916 -0.468463 0.278861 0.271550 0.826995 0.432256 0.323176 -0.286639
he 1.892167 -0.660564 -0.383201 -2.033611 0.012027 -0.668340 -0.401035 2.123193 -0.555654 2.705793 -0.703621 -1.448277 -0.082681 1.517736 -0.096286 -1.580572 -0.953380 -0.439584 -1.093368 0.863225 -0.651850 -0.696550 1.495909 -0.352551 0.181534 0.626065 -0.712854 1.393974 0.287944 0.164926 0.155214 -0.896158 1.850393 0.301705 0.271873 -0.421487 0.132836 0.040444 -0.388869 -1.034211 1.220453 -0.584982 -1.282793 1.048285 -0.684493 1.148705 1.011200 -0.492291 1.248338 0.665505 0.135149 0.738426 -0.947957 -0.627868 1.095224 -0.037684 0.720048 0.236435 0.761089 0.047668 1.049168 0.409937 -0.250695 -1.419855 1.440580 -0.873847 -1.161638 -0.512914 0.240079 1.385603 -0.127037 -0.230007 0.868432 0.664388 -1.130317 1.129543 -1.037140 0.127974 1.158479 -0.537489 -1.410614 1.082011 -0.540630 -0.146753 1.352127 0.590666 0.918725 -2.054230 -1.200763 -1.321094 -1.253416 0.280224 -0.868107 -1.233623 0.537291 -0.860484 -1.392907 -0.085316 -1.683612 -1.668583 -0.624534 1.226215 0.243751 1.040557 1.027264 0.275151 -1.871520 0.110121 0.412677 0.921934 -0.478671 0.241377 0.639909 0.282766 -1.062920 -0.394407 -1.435300 -0.927091 1.266924 0.799036 0.957653 0.347193 -0.065660 1.148705 -0.486676 0.288605 -0.303581 0.032374
that 1.394503 0.523595 -0.255526 0.047655 0.820538 -1.438804 -0.156941 -1.022374 1.414106 0.732682 1.576926 1.189695 1.229698 -1.247887 -0.458711 0.394355 0.008847 -0.817251 0.555574 0.764454 -0.290130 -0.583092 -0.302207 -0.697359 0.052378 0.096109 0.403602 -0.227348 0.413076 0.259623 0.621483 -0.160833 0.669079 -1.002097 -0.637183 -0.440552 0.416225 0.088182 -1.096888 0.938099 -0.650101 0.880106 1.647822 0.300862 0.170113 -2.295012 1.120687 -0.257188 2.384959 -0.340631 1.119845 -0.544983 0.565772 0.363850 0.171286 0.839137 -1.726799 -1.274289 -0.566244 -0.303495 -0.467131 1.913623 -0.477421 0.058279 -1.387470 1.272791 2.041075 -0.747667 -0.095647 1.427424 0.115568 -1.157608 -0.387613 0.333994 0.110657 0.508106 -0.768105 -0.425448 -0.979012 1.072771 -1.527177 0.581922 0.494125 0.157841 0.164894 0.969808 -0.324325 0.903530 1.872473 -0.404268 -0.528987 1.706403 -1.483805 -1.077440 1.388281 -0.855720 1.015629 -0.268744 -0.405033 1.537654 -1.492007 0.492831 1.104525 -0.511385 -0.307082 -0.459662 0.344545 0.830229 -0.040744 -1.548512 -0.561820 -1.791289 -0.741394 0.413732 -0.300933 0.065185 0.045619 0.642531 -0.009396 0.423219 -0.558747 -0.016924 0.809504 0.190566 -0.200686 -1.139151 0.848310 0.847942
his 0.051945 0.000631 -1.468922 0.312656 0.806632 -0.907788 1.457497 -0.972571 -1.964846 0.369729 -0.816209 -0.470599 -0.282848 -1.365255 -0.743982 0.924913 0.461076 0.321949 -0.678066 -0.557178 -1.928827 -0.933933 0.410301 0.563425 1.347485 -0.492922 -0.326844 1.417624 0.880237 -0.926068 0.499405 1.009385 -0.419487 -0.481952 0.403804 -1.285658 -0.326750 -0.074650 0.576840 2.039893 1.211329 1.191241 -0.247656 0.690577 1.409991 -1.037365 1.635259 -0.084456 -1.848058 0.444083 -0.508156 -0.276683 0.245318 0.692081 -0.620417 -2.881647 -0.320163 -0.002075 -0.132354 -0.355434 0.722619 -0.384464 -1.195490 0.216051 0.271797 2.253011 0.912363 0.033584 0.392210 -0.603503 -1.038081 1.255439 0.270579 -0.716930 0.930050 0.462184 -0.965805 0.394532 -0.679807 1.871525 0.427132 -1.254584 -0.444625 1.927224 -0.083701 1.098272 -0.684239 0.256022 0.241238 -0.417830 -1.343343 -1.072801 0.698609 0.406264 1.459591 -0.211499 0.396628 -0.504459 0.375286 0.869599 -0.433099 -0.918836 1.131779 1.037273 1.567929 -1.026548 0.539590 0.166766 0.653172 0.485599 -0.466474 1.548131 -0.648112 0.374840 -0.240330 -0.315656 -0.588314 -1.498758 1.343204 -0.247426 1.136877 -1.229275 -1.036237 0.525466 0.972726 -0.127561 -0.243804 0.279504
was -0.146302 0.552411 -1.471000 -1.025947 -0.124586 2.503752 0.930805 -0.025631 0.316486 0.555729 -1.153729 0.947605 1.833509 -0.406577 0.463606 0.185808 -1.024828 1.748593 -1.370138 -0.289003 -0.550431 -1.289602 -1.044647 -0.899925 -1.323557 1.085449 -1.224227 -0.093678 -0.693231 -0.676335 -0.787623 -0.258703 0.468819 -1.084251 -0.261256 1.764598 0.509849 0.281902 0.973706 1.238467 -0.915372 1.448925 -0.958561 0.615138 1.280418 0.345204 -1.183267 0.906614 0.657322 0.152465 0.598260 -0.560782 0.526540 1.435543 -0.042724 -0.418820 -0.428591 -0.917214 0.251894 -0.788299 0.767999 0.302991 -0.712640 -0.612939 -0.452899 -1.811505 0.461505 -0.372885 1.474122 1.153624 0.910210 1.277055 0.278464 -0.093532 -0.952862 -0.588065 -0.439582 1.061749 -0.815484 0.154239 0.163443 -0.987355 -2.013096 0.148074 0.058350 0.694122 -0.311854 -0.728225 1.356701 -0.065488 -0.241265 0.216581 -1.107777 -1.164237 1.391808 -0.270395 -0.284171 -0.980733 0.981033 -0.568172 -0.309213 1.916663 -0.540502 -0.391468 0.331006 -0.526820 -0.154996 1.205453 -0.185314 1.744683 -1.168273 0.241155 -0.239140 -0.479570 -1.379105 0.034198 -1.319354 0.737496 -0.158331 0.600392 -1.044365 -0.349717 0.052168 1.316221 -0.255434 -0.145460 0.727401 -0.113655
it -1.011710 -0.131717 0.091489 0.546511 0.413443 -1.441505 0.071920 1.608882 0.970722 -1.110739 -0.646084 -1.309374 1.047176 1.115947 0.878191 0.933775 0.399966 0.222809 0.936347 0.925759 -0.665910 -0.892222 0.861719 1.519715 0.155183 -0.168966 0.742581 0.225688 0.024475 -0.395544 -0.833543 -0.501654 -0.434490 0.105134 0.579923 -0.101808 0.238339 -1.384348 0.929540 0.383217 -1.441354 -0.652920 -0.426456 -0.568937 0.105721 0.345071 2.067456 -0.846348 0.895119 -0.129591 -1.535022 0.546524 -1.320892 -1.332209 -0.435514 1.740227 1.432487 -1.152586 1.029961 -1.252307 -0.658481 -0.091451 -0.440588 0.100026 -0.153659 -0.054113 1.236939 0.323397 -0.394037 0.629058 -0.196513 0.279484 1.286597 0.351691 -2.721286 -1.483561 -1.604208 -0.629208 -1.441509 -0.533249 1.485635 1.335506 0.192004 -0.042951 1.700197 0.076825 1.140842 0.278257 0.466760 -2.036963 -0.749793 0.671421 -1.587119 0.769438 0.971235 -0.179748 -0.685850 -1.004629 -0.369899 -0.176210 -0.203698 -0.698504 -0.459166 2.402666 0.145997 -2.457431 -0.253065 0.140825 1.052119 -0.537354 -1.566779 0.380348 0.294383 -2.108587 -0.614459 1.137555 0.396407 -1.298054 0.350621 -0.390329 0.060879 1.426627 -0.186654 0.147267 0.413811 -0.933468 -0.127032 0.573021
you 2.045344 -1.756895 -0.038390 -0.308620 0.025194 -0.567917 -0.502278 -0.207595 -0.431890 1.452625 1.481062 -0.371367 -0.622441 0.439541 0.633051 0.376611 0.992434 -1.113301 -0.189786 -1.038258 1.941360 1.030430 0.966338 -0.384080 -1.634855 -1.391512 -0.964614 0.862660 0.534812 0.497143 -0.243538 0.510201 0.570973 0.824265 -1.294906 -1.418363 0.500766 1.108615 -0.484175 0.867252 0.520883 0.334206 -0.413277 -0.315187 0.276011 0.010621 -0.228420 0.199934 0.100543 -0.982341 -0.749214 0.453354 0.907303 -1.351681 -0.396678 -0.132973 -0.597892 -1.843010 -0.938199 -0.926636 -0.140251 2.437207 -1.464211 1.375238 0.025443 1.447583 1.379574 -1.581824 -0.330239 1.357073 0.120589 -0.821445 -0.618735 0.708027 0.425018 -1.934229 0.585032 -1.125922 -1.748280 -0.001630 0.672252 -0.446298 0.111642 0.423946 -0.365927 -1.557928 2.119862 0.840022 -1.005571 -0.567991 -0.317452 0.058453 -1.243778 -0.013325 0.526363 0.103201 -1.054926 0.061437 -0.272285 -0.098132 -0.763702 -0.196256 -2.112161 0.137428 -0.014317 0.519485 0.469399 1.441359 0.431752 -0.581217 0.905217 0.709089 -0.240555 0.198868 -1.569736 -1.895914 1.085883 -1.262400 1.944765 0.536212 -1.236028 1.221639 0.636402 0.407979 0.684630 -1.036379 2.372696 1.532735
with -1.060138 -0.319924 1.119729 -0.770222 -1.375481 0.455827 -0.220498 -0.572508 -0.181791 1.341711 0.360550 -1.103761 -0.119292 0.034623 -0.944959 -0.200028 -0.836084 -1.019186 -1.059344 0.923511 -0.167584 -1.501652 0.863150 -0.044813 -0.538373 -0.315035 0.344355 1.277096 -0.453603 -0.179376 -0.219038 -0.208838 0.470963 -0.475324 -0.555938 1.956465 1.146062 1.431597 -0.235175 0.040245 0.332694 1.457940 -0.532136 -1.247210 -0.730457 -0.193144 -0.530382 0.048444 -1.392973 0.854039 0.585423 0.444945 0.345130 -0.765960 -1.171707 -0.324743 0.390922 -0.917754 1.211560 -0.962680 -1.041068 0.539563 0.313446 0.790915 -1.303254 -0.240586 1.566439 -1.517515 -0.686323 -0.057037 0.871405 0.882488 -0.871378 0.366749 -1.669061 0.681246 1.316327 -1.202777 0.199530 0.622435 -0.445028 -0.561651 -0.134940 -0.747753 -0.228990 -0.623975 0.365594 0.065609 -0.535580 -1.202972 -0.026642 0.895488 -0.944920 -0.570250 1.458265 -1.293372 0.418328 0.842000 -0.393029 1.722124 1.603161 -1.480457 0.074778 0.375540 0.500966 1.055667 0.521384 1.122169 -0.376396 -1.355590 0.106697 -0.139868 -0.122677 -0.923298 -0.943977 0.578746 0.104014 0.712070 -0.061481 -0.771279 0.864771 2.213080 -0.205230 0.386108 -1.178078 -0.637176 -0.926865 -0.873972
is 0.874676 2.026048 -0.437122 0.357979 -1.538759 2.432732 -1.000661 -0.061466 0.135996 -0.434772 -0.479568 2.130058 -0.091291 -0.941568 -0.380212 -1.973167 1.980083 -1.047459 1.789223 -0.304484 0.575591 -1.497772 -0.389939 -0.281258 0.266959 -0.415425 -1.302061 0.881629 -0.608682 0.521750 0.104186 -1.477519 0.412653 -0.567494 0.665430 0.948289 1.334981 0.221196 -0.697498 -0.818971 0.582100 -0.020546 1.107804 -0.378126 0.532267 0.716597 -0.594010 -0.877242 0.727116 1.555726 0.699863 1.029584 0.192325 1.764183 0.193318 -0.318993 -0.098567 -0.649474 -1.763295 0.714740 1.294276 -0.814242 -0.791870 0.040177 -0.442212 -0.875947 -0.028524 0.978906 0.828275 -1.071857 -0.317958 -0.124950 -0.310066 1.510727 -1.013286 0.709928 1.542886 1.371532 0.314723 0.343598 0.277834 -0.491991 1.402938 0.462535 1.621215 1.053620 0.121074 1.099201 1.102863 -0.657928 0.923439 -0.929103 -0.345944 -0.283631 0.436875 0.089128 -0.263754 0.625110 -1.026020 -1.097407 0.204791 1.452247 -0.387252 0.561343 -0.988381 -0.324985 -0.821983 0.725977 -1.356156 -0.748950 1.456476 -0.275271 -0.523789 -0.296686 -0.739279 0.470910 -0.817086 -1.428848 0.080161 0.148081 0.218293 0.261217 1.718305 -0.852365 -0.412799 -1.589406 -0.800374 0.514966
as -1.552896 -0.407577 0.686657 -0.887782 -0.057853 1.993621 -0.090465 1.907755 0.554869 1.186356 -1.250466 -0.401650 0.897191 1.757905 0.000744 1.442456 -1.107068 0.491463 0.059597 -0.976054 -1.805445 0.653212 2.434524 0.362505 0.700904 -0.596919 0.464121 -0.562043 -0.028161 -0.268123 0.352955 -0.541289 1.272015 0.842621 0.074790 -2.152616 -0.325559 1.147259 0.347994 1.252867 -0.025913 -0.258379 -2.803549 1.152024 -0.236404 0.187794 1.868747 0.456203 0.256306 -1.327551 -1.573701 1.836690 0.914546 0.961333 -0.524254 1.796765 0.352575 -0.126240 -0.663249 -1.361763 0.071589 2.253584 0.914913 1.147408 -0.495212 1.163089 0.563467 -0.656264 -0.747294 -1.738163 0.916902 2.005942 1.216719 -0.243303 -1.882338 0.982871 1.396415 0.083943 0.040661 1.159635 0.830410 0.163297 -0.857723 -2.651305 -0.769269 0.596447 -0.800571 -1.560585 0.931231 0.093811 1.260945 -0.430654 -0.494094 1.875300 1.733597 -0.272135 0.208254 -1.389108 -0.039811 0.536474 0.737786 -0.910138 0.830322 0.692711 0.706680 0.365213 -1.070201 0.665035 1.185493 0.653577 -1.805971 0.591530 -0.421521 -0.152506 1.877226 0.117036 1.561989 0.502805 -0.513610 -1.090180 0.746344 -0.440026 0.618865 0.311852 2.139899 0.818977 0.876442 -0.560334
not -2.108737 1.549357 -0.409744 -0.025557 0.338588 -0.981609 -0.106553 2.607845 0.500640 -0.906503 0.133323 1.092115 2.098469 -2.221698 -0.109510 -0.386359 0.689537 -0.389896 -0.452956 2.329392 -0.996342 -1.213713 -2.206542 0.007770 1.707606 0.252699 1.401172 -0.804626 0.036019 -1.290125 1.220825 -0.517309 0.152504 2.028998 -0.744269 0.592089 -0.554766 0.068127 -1.021236 1.962184 -1.351464 0.693696 -0.717089 -0.499435 -1.027189 0.609779 0.208862 0.668267 0.445302 1.501698 -1.207131 1.846017 1.452645 -1.971280 -0.488537 -0.028753 0.081342 1.902408 -0.349217 -2.066879 -0.487826 0.904287 -0.194823 -0.121199 0.376015 0.441598 1.518384 -1.144879 0.754340 -0.553180 -1.383315 -0.555488 -0.877499 0.714348 -0.465679 0.785991 0.186542 -0.711008 1.216551 1.310845 1.051316 -0.219960 0.588959 2.077904 -0.354506 0.638166 -0.752662 0.994486 0.795473 -2.288243 0.182249 -0.079939 -1.025993 -0.109200 0.813407 0.030261 -0.716994 -1.590181 -0.304392 0.992109 -0.481955 -0.865330 -0.697674 1.394217 1.264052 -0.337218 -1.889664 2.367616 -0.588345 -1.546867 -1.262979 1.514743 0.080513 0.302287 0.580939 -0.495679 0.605860 0.313303 -0.743751 -0.718294 0.195054 -0.363041 1.800176 0.397503 -2.179053 1.273786 -0.406893 -2.553082
for 1.139479 1.999741 0.547493 -1.165823 -1.285971 0.994876 -2.385666 -1.130279 -0.714248 -1.131203 -0.774222 -0.969104 -0.552665 -1.999555 0.594066 1.359652 -0.604347 0.414355 0.466654 -0.317788 0.368212 1.301020 -0.137252 -1.799026 -1.667029 -0.514362 0.140269 0.349384 0.567840 0.338278 1.290642 0.240613 0.171046 -0.207485 0.798538 -0.547761 1.033105 0.036938 0.526287 -0.294607 -0.817942 0.866707 0.831364 -1.208394 -0.135999 0.579064 0.733240 -0.374741 -0.486823 -0.925025 -0.823453 1.307223 0.430648 0.641336 0.146883 -0.184664 0.952140 -1.106055 -1.524534 0.729301 0.580393 -1.227340 0.683345 -1.279497 0.477140 1.079971 0.568192 -1.288114 -0.237361 1.215011 -1.048342 1.146410 -0.713486 -0.555345 0.030972 -0.118944 -0.337670 -0.480365 -0.630450 -2.190836 -0.158271 -2.254614 -0.946016 -0.926342 -0.251473 -0.079869 1.172160 -1.526854 1.980643 2.262394 -0.244308 0.789883 -0.331691 -0.863095 -0.956193 1.174180 0.370480 0.385414 -0.951089 -1.820294 -0.252266 -0.331038 0.161948 2.583919 0.076687 1.955865 -0.097108 1.865293 -0.976298 0.174891 -1.327436 -1.491587 -1.014656 -0.414875 0.674239 -0.268443 0.205338 -1.065752 0.278205 -1.014582 0.242263 0.100418 -0.251067 0.179496 0.151078 0.675026 0.774496 -0.551915
had -0.091034 0.424110 0.430609 -0.770811 1.331345 -1.997736 2.021261 0.192150 1.192169 0.739336 0.802265 0.828858 0.970848 -1.332960 0.489970 0.322411 0.721239 -0.105987 -0.058204 0.115895 1.148571 -0.311249 1.546242 -0.241264 1.556939 0.845426 0.096611 -1.705747 -2.293539 -1.709441 1.289148 -0.883128 -0.509641 -1.142640 -0.392704 0.625045 -0.223311 -0.828369 0.810913 -0.390753 2.026690 -0.863667 -0.812191 -0.904159 -0.106957 2.214111 -2.219697 0.227562 -1.061546 1.128921 -0.349795 0.459298 0.536411 0.352580 0.240749 1.036308 0.699260 -0.791488 0.630690 -0.629208 0.354066 -0.073524 -1.969054 -0.242461 0.282654 0.616947 -1.126982 0.561052 0.943321 -0.502514 -1.308616 0.450458 0.063737 -2.075271 -0.136973 0.723452 0.570803 -0.335813 -1.100384 -1.186328 0.234740 1.272912 0.235252 -2.359921 0.993131 0.471078 0.745798 -0.431008 -0.557212 -0.190562 -1.470340 -0.155859 -0.239628 -0.478034 -1.064831 0.341449 -1.815797 0.853161 1.111530 0.687333 0.569888 -0.833284 -1.467566 1.420574 1.320308 0.567120 1.062246 0.586642 -0.026012 0.499301 -0.038871 0.233331 -0.711423 0.061292 0.157854 -0.549386 0.901815 0.047151 2.179642 -1.250590 -0.359730 0.641565 -0.111781 -0.733075 -1.931754 -0.097110 -0.081786 -0.339950
but -0.790622 0.204456 1.496598 1.730325 -1.406622 1.233931 -0.869267 0.691469 -0.820625 -1.000571 -0.093535 -1.551265 -2.258400 -0.718307 0.614974 0.932701 0.064565 -1.006635 1.315766 -1.318864 -1.142075 -0.720399 0.469989 1.396804 -2.383561 0.135118 -0.239546 0.906929 1.164143 1.312555 1.072228 -0.401241 1.724777 -1.278668 0.342097 -0.647330 -0.330972 -0.011578 -0.398867 -1.494492 -0.134237 1.509655 0.403770 0.318994 0.008986 -0.555143 1.125017 -0.759841 0.522307 0.249164 0.101938 -0.366991 0.432020 -0.639975 -0.270782 1.923358 1.191987 -0.921299 -1.170003 0.029193 0.306717 1.025069 1.211881 -0.369514 -0.547174 0.037235 1.367013 0.275428 0.156695 1.203622 -1.561115 -0.244729 -0.029748 0.810301 0.342475 2.071251 1.040633 -0.322390 0.429492 -0.558216 -0.675235 0.409309 -1.543968 1.397335 0.083032 0.643058 1.134360 -0.921320 -0.062367 0.487493 -0.579724 0.825458 1.265463 0.908741 -0.255761 -1.839234 0.174200 -0.302228 0.193628 -0.081737 -1.835315 -0.109461 -0.490201 0.516974 0.015400 0.220669 0.212204 -0.463465 -0.098716 3.059087 0.733257 0.072474 -1.907713 -0.826048 -0.110336 1.574739 -1.321990 -0.142813 0.920948 0.942807 -0.276282 0.833160 0.988358 -1.558787 -3.050901 -0.564060 -0.890688 0.449309
at 1.544294 1.391600 0.247904 -0.083105 0.493668 -1.279106 -0.542954 -0.050556 0.082690 0.586137 0.575904 0.716473 0.648425 -1.014336 -0.450870 0.671323 -0.342605 1.552036 -0.645544 1.061561 1.021622 0.293033 -0.028443 -1.035396 0.042862 -1.413529 -0.616233 -0.400099 -1.195570 0.129122 0.669068 0.453769 1.211909 1.445168 0.907915 2.126710 0.054901 0.287293 -0.405366 -0.396036 -0.749278 1.881996 -0.947079 0.948618 0.126948 0.729842 0.276297 -0.290008 1.502653 1.783532 0.343057 -0.669696 0.436248 0.187722 0.718314 0.207366 0.992905 -1.066641 1.379454 -0.776774 -0.542623 2.072299 -0.685409 0.691778 0.950483 -1.039683 0.366477 -0.258144 1.667870 -0.279825 0.198129 1.676499 -0.140241 3.194634 -0.123326 -0.118953 -0.124187 -0.482502 0.466874 0.873835 0.389126 0.127083 0.728218 1.089208 -0.403035 1.350107 -0.403612 0.748745 -0.458883 -0.696015 0.700613 -0.516937 -0.173424 -0.374254 -0.199400 0.202425 2.635310 -2.125540 0.057582 -0.533829 -1.498227 -1.449267 -0.268579 -1.293276 -0.107769 0.332814 -0.205154 0.559380 -0.653073 1.272725 -0.871663 0.867894 -1.161293 -1.507706 -0.279579 -0.477490 0.432327 -0.910268 0.621593 1.595079 -0.878524 -1.450520 0.834014 -0.420035 0.011811 -0.453719 0.036020 -3.024182
be -0.096786 -0.402017 3.023801 0.658053 0.308707 -2.429597 0.507436 -1.809759 -1.048198 -0.548097 0.235155 -0.058093 -0.820244 -1.607668 0.906663 -1.013690 0.398449 -1.235236 -0.288772 -0.559959 -0.631128 0.742629 -0.367253 0.620251 1.073528 1.478755 1.373764 -0.154075 1.963860 1.237726 2.509728 -0.326777 -0.546839 1.208954 -1.126308 2.282946 -0.222799 -0.232619 -1.228209 0.008475 -0.090925 0.439434 0.979785 -0.751082 1.149769 1.434155 -0.651216 -0.366324 -0.470572 1.311443 -1.127190 1.047440 -1.163445 -0.077654 -0.658999 -0.449193 0.533327 -0.468873 -1.112987 -1.401906 -1.831947 -2.027111 -0.000587 0.794156 -1.048634 0.170659 0.197936 1.566559 -0.365720 -2.765241 0.002595 -0.230016 1.317166 -0.536011 -0.120268 0.794070 -0.224425 0.105682 0.220909 -1.489487 0.533895 -0.281545 -0.191700 0.196600 0.820102 0.931567 -1.051396 -0.138891 -0.137660 -0.486647 0.160631 0.347428 -2.101421 -2.279888 0.816793 -0.143620 -1.793082 -0.804031 -1.272350 -0.826428 0.099659 0.747823 0.163578 0.465513 -0.423542 0.839028 -0.147692 1.269418 1.605367 -0.025751 2.007676 0.163413 -0.268489 1.336486 -0.068177 -1.017626 -0.956840 1.044421 -0.066700 1.365643 0.037350 -0.295470 -0.375312 -2.496562 -0.108426 0.836475 0.754194 0.564032
on -1.083558 -0.031326 0.923168 -1.357131 0.247999 -0.549787 -1.929809 -0.254547 0.671493 -0.885462 -0.634653 -0.930068 -0.223318 -0.032258 1.180588 -0.486151 2.024947 0.141770 -1.256228 0.513821 -0.794777 0.501135 0.107318 -0.101129 0.620470 -1.381959 -0.179977 -1.772464 2.860949 -1.141632 -1.542640 0.011613 0.585293 0.782118 0.328504 -0.641561 1.708549 -1.020114 -0.592480 -1.154328 -0.235650 0.566532 -0.174983 -2.213915 0.600623 0.000931 -0.516596 0.078903 -1.203443 -2.343438 -0.884933 -0.350093 -0.640121 -0.866417 0.473135 -0.343352 -0.018947 1.665867 -0.704362 -0.596925 1.179142 1.931538 -0.498814 -1.287351 -0.981638 -2.640020 0.505667 0.318730 -0.642848 0.747735 -1.290835 0.492364 -2.239989 0.449609 -0.474390 -0.468011 1.673855 -1.222164 2.070117 -1.713537 -1.959628 -1.093625 0.926604 -0.007820 -0.144825 0.488245 0.063924 0.216862 0.115860 -0.273764 0.606522 -0.887394 -1.554152 0.942138 1.009553 -1.605533 1.772561 0.073652 0.613274 -1.497604 -2.610976 0.414689 0.212378 -0.410468 0.149501 0.037642 1.863358 0.574268 0.738960 -0.162590 -1.157912 0.382147 -0.353975 -0.497689 0.823989 1.945061 -1.316451 0.796014 0.850930 -0.097516 1.425865 -3.007805 0.068622 -0.914550 -0.919927 -0.705955 -0.227075 1.185451
her -0.134612 0.043405 0.016600 -0.458200 -0.019076 0.580576 -0.698303 -1.116542 -1.374717 -0.829120 1.223328 -0.393575 0.282024 -1.856591 1.994970 -0.546111 1.825732 1.804011 0.353977 0.000098 0.734251 0.984749 -0.489450 1.105109 0.213836 1.115709 0.602486 1.214557 2.849856 -0.044666 -1.537957 -0.556152 -0.038969 1.942314 0.110273 -1.740481 -1.674469 -1.212868 -0.564903 -0.009265 -0.162188 0.267494 0.349902 0.579346 0.800523 -0.163641 0.680073 0.102389 -2.317245 0.218506 0.580167 -0.847559 -0.342122 -0.380146 0.404815 2.083973 0.981433 -0.495164 0.395083 1.893492 -0.824638 0.790767 0.187181 -0.145358 -1.437385 0.555103 -0.592501 0.551733 -1.054406 -0.738475 -1.196489 -0.052192 1.052852 0.795830 -0.165464 -1.264222 -1.246816 0.050942 -1.559298 0.214472 -0.351531 -0.224133 2.196494 0.387250 0.559606 0.823068 0.529128 -0.425626 -0.541891 1.010367 -1.052188 0.554096 -0.303650 -1.076892 -1.385951 -2.320387 0.480775 -0.180622 0.385532 1.682624 -0.897638 0.583012 1.584141 0.069651 1.487231 -0.456930 -0.058059 -0.016804 -0.745745 0.969685 -1.653198 0.287888 -0.355324 -1.605030 -1.712551 -0.931192 0.238343 1.561141 -0.237659 -0.176609 -0.199115 0.382291 2.256206 -0.880119 -0.084152 -0.932504 0.982302 1.682388
my -1.533853 -0.205913 1.258335 -1.317792 -0.128936 0.818053 -0.181035 1.656068 0.175767 -0.525884 -0.286121 0.432015 0.877532 0.019852 2.243680 -0.721136 0.087060 -0.316270 -0.781140 0.183418 0.858075 1.685116 -0.155084 -0.939910 0.022404 -0.613729 0.216815 0.552080 -0.169075 -0.654008 -0.163902 -0.985753 -1.347373 0.231805 1.185480 1.481880 -0.721956 0.036434 0.697856 -0.449127 -0.690433 1.393231 0.323968 0.597947 0.349572 -0.175656 0.645561 1.679985 0.864643 -1.522226 0.455971 1.719256 0.823993 0.695245 -0.191090 0.883514 -0.000182 1.177239 -0.230644 0.557001 -0.716116 0.569825 0.396325 -1.321926 0.067586 1.894137 0.964455 -0.726161 0.523209 0.579018 0.385956 -0.390277 -1.428082 -0.538041 0.441792 -1.135237 -0.781197 1.631337 -0.432311 1.239849 -0.548922 0.165760 1.149044 0.759291 0.723947 0.701516 0.533266 2.834311 -0.762714 -0.079804 0.944639 -0.427479 0.671640 -1.457846 -0.857863 -0.307834 -0.987831 -1.170073 1.379963 -0.894986 0.199780 -1.054205 0.279869 -0.575435 1.232091 0.598130 -1.011161 -1.216942 -0.018662 0.881053 0.002575 1.553435 1.187707 -3.226882 -0.343221 1.459198 1.608734 0.547538 0.522507 0.780544 2.255883 -1.216368 -1.120200 -0.132934 1.069459 1.667929 2.311438 0.076033
him 2.274967 -0.451916 0.432564 0.284982 -0.625008 0.132208 0.945334 -1.511085 -0.723659 -0.203271 -0.431962 1.382990 -0.632797 1.343397 0.891187 1.946563 0.423961 -0.084156 0.200411 0.773638 -1.000919 -0.443802 -0.256311 1.074502 -2.492312 -0.295655 -1.052778 -0.733472 -0.532716 0.043856 -1.119077 1.973031 -0.984199 -0.646879 -0.562725 0.051015 -0.423103 0.603269 1.503525 0.401849 -1.097055 -0.367446 0.056294 -1.173142 1.400716 -1.025143 0.202512 -1.021619 0.299126 -2.758131 0.174767 0.086503 -0.366223 -0.635525 -1.032376 0.241912 -1.360262 -0.954463 0.602918 1.207301 -0.535133 1.917644 -0.217717 -0.436552 -0.672801 -0.009800 -1.750124 0.523223 2.531600 1.534079 0.004999 -0.975146 0.767612 0.096082 -0.311509 -0.712095 1.554674 -0.277552 0.003510 2.988845 -0.844832 0.368536 0.604214 1.671075 -0.557734 0.641326 0.456253 -0.738135 1.304460 2.716566 -0.918749 1.322759 -0.313081 1.705266 0.518556 0.272037 0.740562 -0.073218 0.935103 1.430927 -1.055543 -0.275106 -0.606290 0.702487 -1.275399 -1.061799 0.641920 -0.392644 0.494061 0.469546 1.127948 0.400905 -1.256353 0.602660 -0.540738 -1.585087 -1.400624 -1.122196 0.362871 1.192764 0.264296 0.136370 -1.046192 0.594604 -0.905396 -1.570374 1.732697 -1.296564
have 0.432838 -0.206463 -0.749770 -0.315225 -0.623329 0.991430 -1.817024 -0.288736 -1.225089 0.018323 -0.605504 0.199148 -0.002098 -0.241869 -0.261323 0.072812 -2.208823 -0.875703 -0.192483 0.427685 -0.050339 0.037605 0.187310 1.314102 2.613755 -1.285409 -0.290351 0.265537 -1.276590 -0.481031 1.936917 -0.433496 0.810928 0.488818 1.148285 -1.984080 -0.635519 1.712914 -1.117051 -1.209252 0.696992 -1.045498 0.419931 1.783824 0.272645 -0.035252 -0.832137 0.432757 -0.804109 -0.598745 1.322182 1.593407 1.014308 -0.780563 0.754229 0.904885 0.589521 -0.665469 0.135148 -0.849795 0.370832 0.913197 1.136905 -0.443872 2.721558 -0.217368 0.918818 -0.551219 -1.400236 0.141167 -0.058716 -1.622640 -1.473761 -0.281377 0.270530 0.315514 1.485150 -0.638107 0.356200 -0.185786 -0.908229 -0.631157 0.999497 -1.097589 -2.949266 1.049647 0.179750 -1.322615 0.469584 -1.662649 -0.516075 1.381519 0.376695 0.745595 -0.069832 -0.220269 0.049052 1.348348 -0.890574 -0.038657 0.725147 0.319516 -1.488827 -0.089862 0.217020 0.287545 0.687346 -1.184351 0.144768 0.698285 0.855822 0.121032 -0.815265 0.225994 0.709138 -0.774846 -2.665903 -0.271440 -0.238176 -0.161291 0.216360 -1.141478 1.150598 -1.154730 0.002217 1.064302 0.358508 -0.850870
by 0.153271 -0.722469 1.190756 -0.250204 0.115380 -0.924087 0.580436 -0.420659 -1.114691 1.049711 -0.423487 0.364726 0.108153 -1.003093 -0.559505 1.383989 0.012109 -0.283217 1.373036 1.990582 1.282350 0.128913 -0.715375 -0.874661 0.145578 0.289503 1.463229 -1.299216 0.302836 -1.969736 -1.729545 1.568540 -0.962625 -1.111091 0.453310 0.491631 1.192610 0.950465 -0.946295 1.457106 0.063760 -0.683546 0.253444 -0.429864 0.408223 -0.618756 -2.231626 -1.412521 -0.588678 1.463027 0.371648 -1.298453 -0.349961 -0.005842 0.741636 -0.421454 -0.015395 -0.576506 -0.146256 -1.007885 -0.829902 -0.634906 -0.253194 -1.021477 1.655598 0.240964 3.018763 -1.969865 0.709229 -0.420887 0.235213 -0.879831 1.176817 0.877638 2.603497 -0.038035 -0.307243 0.532611 0.798060 0.018508 0.160699 -0.582730 0.432643 0.271487 -0.260935 -3.689151 0.111754 0.406774 1.106521 -1.007241 0.127753 -0.380993 -0.646148 2.156697 0.561883 1.043948 -1.084955 2.019126 -0.536849 -0.130736 1.140323 1.018048 -1.503853 1.279945 0.636105 0.421289 0.602922 -0.537104 -1.451947 0.198895 0.149189 -0.651367 1.381865 -0.697818 -0.990023 0.061879 1.061182 -0.312200 0.653755 1.936626 0.520579 -2.289428 -0.295063 1.203718 0.918148 0.245912 -1.468462 0.111067
this 1.622604 0.764012 -0.993324 1.175015 0.163128 0.307604 0.241697 0.068677 -0.786546 -0.223946 0.623192 -0.219140 -0.465768 0.183590 0.109309 -2.176433 -0.708046 0.390700 -0.720250 -0.324889 0.332868 1.446740 0.502322 -0.743367 -0.074654 -1.031743 0.374784 -0.479740 0.528053 -0.899456 2.259327 0.925281 -1.524691 0.702932 -1.843409 0.061472 -1.451107 0.127917 0.311639 0.887845 -0.551859 1.280003 1.988647 -1.938401 -1.133803 0.480754 0.470327 -0.453927 -0.117094 0.896039 0.668141 -2.250548 -0.651706 -0.870077 -0.283552 0.684935 -0.279051 0.816638 0.906084 -0.007647 -1.350938 1.960893 0.688946 1.856109 -0.538809 0.638661 0.269337 -1.233521 -1.508545 -1.014561 0.006299 -1.223068 1.309292 1.343488 -0.475387 -0.242205 1.582459 0.592802 0.487383 -0.794933 0.164172 -0.442442 -0.535263 0.770764 0.263638 0.436633 -0.488271 -2.216884 -0.059475 1.697645 -0.595063 1.247280 0.103199 -0.821932 0.300302 0.055454 -0.677456 1.043863 0.052611 0.432985 -1.166357 1.175344 1.339915 0.715698 1.319844 -1.808067 -0.337456 -0.600249 0.286064 0.005998 0.866885 -0.603594 -0.749834 -1.165812 -0.682807 -0.685364 -1.979158 1.089822 -0.839027 0.838900 -0.539578 1.080994 -0.234116 0.650122 0.476201 -0.826423 -0.359059 -1.452805
which -0.254564 -0.643634 -0.600604 -2.207052 0.101643 -2.534732 0.168298 -0.973547 1.038726 1.073070 0.109735 -1.824786 -0.859871 -2.161077 0.207234 1.245809 -2.323806 -0.079883 -1.127910 2.700685 -0.432003 -0.856112 -0.880362 1.016859 -0.034117 0.360982 1.486284 -1.530281 0.506526 -1.753094 0.068514 -0.393089 0.505472 0.926392 -0.461804 0.721855 -0.576331 0.953682 -1.168800 1.349176 0.538242 -0.113566 0.627574 0.935495 0.706702 1.180285 0.050056 -1.174124 1.254424 -1.836038 -0.561304 0.329496 0.237102 -0.984735 -0.256672 -0.424627 -0.351954 0.706766 0.373810 0.342405 -0.526288 -0.493720 -0.703278 -0.687148 2.197272 -1.692634 -0.661226 1.022105 1.220481 -1.719512 -1.309913 -0.639454 -0.787687 0.201260 0.582600 0.243073 -1.622571 -0.570977 -0.325805 1.168693 1.043315 -2.248924 -1.485128 -0.964513 0.269010 0.182936 0.280719 -0.235317 -0.505945 -0.317368 -0.393905 0.578876 1.688692 -0.274203 -0.340919 0.191247 -0.741380 -0.690154 -0.182236 0.134517 -0.079354 0.507954 -0.010256 0.100989 1.494939 -0.263793 0.899204 0.422622 1.907785 -0.287659 0.132172 1.362357 0.559030 -0.143273 -1.352116 -0.598953 -1.320501 0.537025 -0.236413 -0.002153 -0.131766 -0.376225 -0.976239 0.670361 2.048300 -1.705856 -0.608684 0.659832
me 0.048940 -1.103397 -0.270038 0.208067 -2.518891 0.051675 0.115847 -1.341183 -0.484582 -0.758954 0.687286 -0.850482 -1.756939 0.814902 -0.146504 -1.738446 -0.949990 -1.731234 -0.007807 -1.720420 -0.664792 0.142938 -0.911691 0.306549 -0.464869 1.085975 -0.595882 1.003598 1.337285 -2.231055 -0.172607 -0.348282 0.512860 0.577222 0.805597 0.393611 -0.677672 0.885758 0.472722 -2.380262 -2.836634 -0.128931 -0.238116 0.971729 0.333283 0.948328 0.476617 -1.167174 1.783353 -1.307053 2.449589 -0.469509 -0.785959 -1.683285 1.397187 1.928953 0.336579 -0.907525 -0.450548 1.073181 -1.693572 -0.723331 -0.130278 0.010968 1.301603 0.058143 -0.831872 -2.574392 -0.582821 0.005210 0.226710 -0.097212 -0.875175 -0.827925 1.021264 0.354625 -2.421547 -1.246037 0.134062 1.576213 -1.909213 -2.024613 -0.523766 0.274719 -0.451850 0.188761 0.969430 -0.519614 0.959433 -0.380010 -0.470246 0.332295 -0.681595 0.362258 -0.406938 0.716563 1.478803 1.749416 -1.225907 -0.748092 0.284798 -0.885311 0.987723 -1.546219 -0.276583 0.320926 -0.882318 0.059593 0.669012 -0.961085 -0.254655 0.038252 0.746882 -1.244087 -0.665759 0.100122 0.453479 -0.814560 -0.237871 0.841041 -0.487639 0.060024 -0.113168 -0.161194 0.324466 -1.879505 -0.423025 0.125131
all 0.441378 0.215038 -0.178537 0.664635 -0.179970 -1.166784 0.169064 -0.041294 -1.416700 -2.035634 0.052750 -0.087585 0.786933 -1.420485 -0.671433 -0.168161 -0.399454 0.825712 0.380626 0.954211 2.525092 -0.647835 -0.148433 0.841919 1.755417 0.514114 -0.494170 -0.493208 0.721367 -1.551036 -0.484538 -0.345265 0.197227 1.306336 -0.906118 1.770109 0.098761 0.444822 -0.949911 -1.584448 -1.056298 -1.780200 0.298084 -2.367545 -0.282227 -0.540995 0.625871 1.106575 -0.464791 0.126795 0.475025 -0.583116 0.389799 -0.059827 -0.338215 -1.483929 1.740561 1.058948 -0.968093 -0.441254 0.801844 1.734357 -0.004087 0.085033 1.066510 -0.278618 0.179576 0.520082 0.550653 -0.578736 -0.030874 -0.332937 -0.615861 -1.790876 0.957869 1.230963 0.230830 0.558790 -1.230623 -0.603310 -1.868678 1.125399 1.503076 0.331714 0.852491 -0.053783 1.237668 0.208518 0.227244 0.366309 0.655701 -0.830150 -0.637440 0.938858 0.267548 0.397527 0.388728 -0.087851 -0.618987 1.270497 -0.118813 -2.371096 1.553470 1.255724 0.015702 -0.373242 0.012142 -1.460585 -1.369593 0.211373 0.369378 -0.465587 -0.398792 0.490716 0.930303 -0.668378 -1.594394 -0.897312 0.465216 0.350407 1.004068 0.163992 -0.490851 -1.265098 -0.880703 -0.092111 -1.273200 1.140474
said -0.573244 -1.069355 -1.538226 0.781020 1.512607 -0.117178 2.284367 0.297508 0.233767 1.096719 1.109917 -1.454147 0.540368 1.157409 -1.957274 0.563450 0.008817 -1.448857 0.994564 0.430485 -0.996181 1.059031 -0.225655 0.816303 0.027906 0.961490 -0.900616 -0.786538 -0.993412 0.441284 0.444318 1.099293 -1.023496 -1.101083 -0.170278 1.502212 -0.233626 0.146264 -1.478204 -1.383283 0.068841 -0.438394 -0.984375 0.851105 0.975091 1.182761 0.606808 -0.821353 -1.064711 0.409336 -0.045240 1.092553 0.375191 0.183571 0.013924 -0.144745 0.868436 -0.070591 0.015798 0.773056 0.711155 0.621179 -0.485949 -1.946010 -2.182150 1.175527 -0.322414 0.336969 -0.081441 0.120397 1.486590 0.314235 -0.730012 -0.122259 0.122614 -0.341609 -0.704036 0.826376 1.077826 -0.715213 0.227101 0.037013 0.015769 1.421338 -1.892340 -0.192456 0.634940 0.396262 -1.322088 -1.023867 1.128414 0.292078 1.046180 -1.284849 0.874293 0.878035 1.138130 0.084212 0.487495 -0.794217 1.653107 -0.702294 -1.049230 2.107278 1.508007 0.273309 -1.057032 -0.327431 0.839639 0.864680 0.544398 -0.810950 -0.353245 0.053880 1.473270 -0.220596 0.756575 1.186767 -0.128319 -0.666312 -1.040238 1.457659 -0.740569 -1.162039 0.919591 -0.519884 -1.719861 0.917799
she -0.527782 0.283337 0.429820 -1.043025 0.586650 0.681375 1.065430 0.439189 0.636107 0.025357 -1.125660 -0.427925 1.840120 0.445447 0.210743 -0.374902 0.807168 -0.254948 0.027996 0.658457 0.204517 -0.914535 0.560392 0.488282 1.011505 -0.272510 0.192005 -1.693935 0.707091 -1.093956 1.151577 -0.990797 0.857768 -1.406493 -0.893710 0.530448 -1.018545 -1.046378 -0.209223 0.103239 0.420636 0.314901 1.869697 0.084851 -0.318337 -0.269334 -1.811543 -0.520308 -0.132339 0.627514 0.551551 1.202344 0.265495 -0.597234 -0.067325 -0.331475 -0.356178 0.502922 -0.811817 0.185016 0.108843 0.747744 0.645800 -1.118389 -0.395770 0.034224 -0.115170 -0.137278 -2.780685 -0.145380 -2.532742 -0.670175 -1.504194 0.652851 0.901350 -0.197844 -0.259728 0.781522 -0.097528 1.616153 -0.835060 1.107220 -0.720555 -0.077111 -0.048819 0.292954 -0.742403 -0.760356 -0.774288 1.883573 -0.924055 0.243657 1.541155 -0.585718 -0.234414 -0.209443 -0.356062 0.506765 -1.455419 1.136673 -0.065186 0.757858 1.099317 -0.334314 0.908286 -0.783673 0.269097 0.659685 -0.123135 -0.154828 -0.035442 0.700639 -0.098834 1.743467 -0.072677 0.660642 0.546267 -0.342911 0.951952 -1.430889 -0.445934 -1.409435 0.379349 0.464364 0.668050 0.934191 -0.191911 -1.482896
from -1.022324 -0.454867 1.531569 0.973580 -1.031558 0.616839 0.316574 -0.931366 -0.324770 -0.629821 1.441117 -1.067479 0.012340 0.422340 0.030118 0.606333 0.839018 -0.395034 1.055984 -1.087327 0.874870 0.428800 0.403318 -0.282822 -1.794904 -0.317363 0.375344 0.815840 -0.457651 -0.235044 -0.454242 -1.384107 1.038218 -0.014094 0.491757 0.159129 0.233798 0.642093 1.073966 0.011960 -0.079917 2.417301 -0.082102 -1.457983 0.550877 -0.324520 0.463337 0.270474 -1.732010 -0.400419 0.479884 -0.295228 -0.228960 2.140513 1.050157 1.734633 -0.643429 1.234507 -2.168787 1.095292 0.257230 -1.052422 1.152962 0.392459 1.361224 -1.481007 -0.196894 0.667549 -0.950133 -1.511957 1.842888 0.648687 -0.917817 0.638121 -0.045858 1.317723 -1.604427 -1.805474 -0.861273 -0.823000 0.147361 -1.780624 -0.159110 -1.028483 0.171836 -1.335436 -0.018109 -2.553236 -0.273649 -0.060103 0.333332 -0.366315 0.573649 0.432433 -0.235656 -0.567329 0.279619 -0.759316 -0.397676 0.146098 0.636516 -0.757133 -1.228174 -0.642199 0.180746 0.168527 1.361139 -1.193521 -1.220543 1.015009 0.157398 -2.423402 0.373260 -0.218106 0.152153 -2.759557 -2.339675 -0.750579 -0.669398 -0.402389 -1.062396 -2.351782 -0.588673 1.253327 -0.702603 -0.825613 -1.220078 -0.080054
or -0.253316 -0.050318 -0.821624 0.156741 1.422340 0.327929 1.118510 -0.342140 -2.263258 -0.258613 0.032382 -1.031888 -0.088983 0.425373 -1.659720 -2.358902 -0.001556 0.534768 0.003524 1.193573 1.573139 0.501123 -0.305088 -0.482593 0.483260 0.232672 -0.982980 -0.106804 -1.643133 -0.057073 -1.571467 0.691630 0.130210 -2.319417 0.443124 0.575168 0.635313 1.063776 -0.252292 0.264800 -0.152292 1.583253 -1.268419 0.963711 -0.692535 0.995526 0.699642 0.653561 -0.473112 0.271664 1.089140 0.462340 -0.583102 0.200849 -2.473206 0.589442 -0.389360 -0.495283 0.465818 -0.012739 0.737758 -0.934998 1.714060 0.009508 -0.796552 -0.121797 -1.071862 0.990654 1.563453 0.683174 -0.935261 0.561377 0.302080 -0.844997 0.399055 -0.769423 -0.265281 -0.383674 0.657703 0.796161 1.028059 -0.967309 -1.123479 -0.175222 -1.317685 -0.203693 0.032723 -0.643283 0.680467 -0.572233 0.974087 -1.590427 -0.438582 0.189245 0.010920 -1.613593 -1.265026 -0.225924 -0.830792 -1.317919 -0.369639 -0.288020 2.318619 -0.431262 -0.273466 1.032722 0.971907 0.089832 1.903757 0.779235 1.339606 -1.255458 -0.077994 -0.134635 -0.233172 1.889865 -0.739989 0.286769 -1.242942 0.703131 -0.282973 -1.844013 0.838941 -0.336379 1.973917 -0.616169 -1.372589 -0.587327
they -0.253873 0.193397 0.142324 -0.337108 1.260540 1.107961 0.488487 -0.236726 0.519870 0.782054 1.337886 0.141122 -1.381959 0.663485 -0.659174 0.239849 -1.188654 -0.045524 -0.977615 -0.262955 -0.500895 -0.095632 -0.983578 -0.494091 -0.658462 0.467826 -0.229300 -0.417394 0.446791 -2.312237 -0.875018 0.284415 -1.585141 -0.244279 1.656451 -0.378238 -1.241824 0.362803 -0.701563 0.135912 -1.039072 -0.694996 0.097220 -2.340939 -0.079172 0.424511 -0.933360 0.057134 2.134026 -0.128177 1.008180 -0.255251 -0.127578 0.659914 -0.240829 -0.972320 -0.601744 -0.263068 0.089662 0.446681 -0.088798 -0.199793 0.904141 -0.083847 0.405247 -0.282037 1.193447 -0.269859 -0.840236 1.362874 -0.422351 1.083670 -1.282116 0.617756 -0.421594 1.096608 -0.507422 1.550274 -0.640682 -0.609995 0.274861 -0.269071 1.001789 -1.070779 -0.606004 0.876192 1.626809 1.840785 -0.561391 -0.368167 -0.027355 -1.030147 1.068334 0.934531 -1.851708 -1.335265 -0.077435 -0.543994 -1.311904 0.165283 -0.039012 -0.986366 0.419293 1.144445 1.346949 0.292724 1.395030 -1.093624 -0.176904 0.231620 1.302524 1.637404 0.875562 2.332524 -1.094595 0.258349 0.573574 0.763427 2.238032 -0.217746 -0.028973 0.752860 -0.469189 0.624349 -0.201333 -0.048491 -0.600433 -0.260767
so -1.260069 -0.387582 -0.939799 1.633743 -0.351418 -1.660687 0.629878 0.184270 -0.402434 1.165969 0.396118 1.363879 1.501334 0.439321 -1.192920 0.164884 -0.436943 -0.030803 0.010372 0.371833 0.085321 -0.206734 1.132161 -1.571191 -0.184839 -0.091419 0.148804 0.579800 -1.615448 0.734359 1.102505 0.699916 0.620908 0.368395 -0.664662 -0.540285 0.346757 -1.064929 0.029130 -0.724891 -0.947618 -0.466331 -0.404314 -1.176324 0.680220 1.722849 -1.205326 1.194271 0.202382 0.070028 -0.551130 0.490844 0.392529 -0.247253 1.158099 0.200314 -0.559376 -0.097755 1.068931 -0.135902 -1.397543 -0.390372 1.658393 0.023264 0.270245 -0.213763 -0.664407 -0.877014 -0.314096 0.045290 -0.079890 -0.702683 1.020928 -0.577623 -0.771536 1.636047 1.014335 -0.543989 0.283016 0.909504 -0.437919 -0.480216 -0.284117 0.511525 -1.100622 -0.080978 1.266857 -0.661204 -2.282299 -0.767828 -0.063858 0.064292 0.167438 2.101022 -0.160888 -0.335087 1.019154 1.004663 -0.300564 1.234947 -0.525153 1.765922 0.228684 0.227876 1.273541 -0.680573 0.103068 0.533801 -0.055347 -0.308675 -0.013581 0.162127 0.300892 1.753463 -0.379408 -1.730017 0.641517 -0.389278 0.036431 0.522360 -1.139085 0.225073 0.740939 -1.943011 -0.884485 -0.702471 -0.867293 0.725505
are 0.646059 -0.969264 -0.050367 -0.930310 0.669086 1.389309 0.076680 1.062266 -0.529595 0.042090 -0.042079 -0.871423 0.312893 0.706012 -0.281583 -0.276513 0.186422 0.064904 0.603179 -2.210032 0.001802 1.706996 0.871961 -0.544622 -0.897938 -0.891537 -0.535141 0.619349 -0.072949 0.029457 -1.068003 0.414563 1.153004 -1.378409 -1.621240 2.006689 -0.166395 0.305750 -2.366562 0.140340 -0.418402 -0.762039 0.248029 0.701414 -0.698050 -1.852050 -1.788942 -1.625798 1.354618 0.425665 1.311937 0.545559 1.525863 -0.127737 2.371645 1.911960 0.565614 0.393474 -0.951554 1.336694 -0.004140 -0.363550 -0.150709 0.214425 -0.783258 -0.118682 -0.658316 1.880368 0.358870 -0.456154 -1.330300 -0.146682 0.389294 1.229862 -0.798479 1.037294 0.319509 1.606183 -1.352978 -0.532234 0.804413 -0.187434 0.752956 0.057978 -0.501740 -0.173729 -0.546925 -0.328776 0.362379 0.132786 -1.559469 -0.126713 -1.577889 0.251181 0.598735 -1.187821 -1.000484 0.812741 -0.613144 -0.172998 -0.031197 1.842811 -0.926997 1.606368 0.260605 0.797528 -1.031334 -0.647117 0.808795 0.402482 0.202770 -1.166299 -0.457418 -0.144224 0.183300 0.420367 1.392143 -0.172151 -0.507525 -1.297446 1.604185 1.208737 -0.466814 1.091759 -1.082178 1.077412 1.845077 -1.456767
one 0.724166 0.115627 0.900760 0.116013 0.025140 0.539523 -0.555649 -0.701920 1.660907 1.143110 0.367821 1.058806 -1.953874 1.705346 0.000258 1.182165 0.464796 -1.036799 -0.019946 0.722769 1.900206 1.389951 -0.424300 1.836142 1.498350 1.356716 -0.755207 1.868833 0.493574 1.098515 -0.598772 -0.244225 -0.299369 -0.190757 -0.130199 0.636284 -0.839975 -1.087360 0.646782 -0.730995 2.332930 -1.696340 0.384352 1.119684 0.954477 -0.928208 -1.944361 -0.626678 -0.613865 0.166211 0.371130 0.469063 -1.786480 -1.228848 0.253826 -2.076950 0.594520 -1.013356 -1.181405 -0.081919 1.207630 0.532057 -0.680178 1.876570 -1.619194 -0.284951 -0.684282 0.301762 1.763919 -1.297724 1.277778 -0.942370 0.202393 0.369953 0.457175 1.330642 2.063400 0.182093 1.397868 -0.511344 -1.595495 1.011020 1.283881 -0.604388 0.306078 -0.314444 1.047728 1.189810 0.868250 2.649420 1.682165 -0.201059 2.278843 -0.556910 -0.782097 -0.910822 1.455132 0.581028 1.284653 0.696476 -1.401903 -0.387342 1.279240 -2.846637 -0.600878 0.407942 0.937550 0.590541 -0.459145 -0.364813 -1.291411 0.238213 -0.351223 1.415401 0.365647 -0.841085 0.200855 -1.091487 -0.855789 -0.074057 -0.041882 -0.910183 -0.232340 -0.655327 1.210380 1.372036 0.591488 -0.152132
were -0.256193 -0.649231 -0.247981 -0.844078 -1.569551 1.947943 -0.748157 0.154471 -1.586508 -0.352814 -0.536100 -0.276458 -0.521370 0.682569 0.756750 -0.734009 0.571145 -0.617061 1.045552 1.073863 0.529778 0.160595 0.338638 1.758912 1.788576 1.547837 1.652682 -0.812956 -0.975041 -0.359447 -0.442613 0.226536 0.322393 -0.179219 -0.045032 1.416331 -0.285872 -0.370440 -0.172310 -0.666750 -0.484612 -0.368944 -1.840943 1.019207 0.342646 0.219935 -0.126089 -1.840841 0.095758 1.001604 -0.125507 -1.731850 3.040650 1.151331 1.405948 -0.303214 1.482124 0.127425 1.855902 0.276578 0.131728 -0.202613 0.972705 -0.206381 0.599550 2.679241 0.222046 0.729542 -0.676588 -0.946398 -0.290103 1.447999 -0.724850 0.750182 -0.190605 -0.912879 -0.515343 1.131377 -0.187026 0.738887 1.313281 0.931881 -1.325156 0.181511 -1.013112 -0.858708 1.201173 -0.811386 -0.163605 0.989505 -1.120753 -0.088036 0.367724 -0.905333 -1.537446 2.038181 -0.797842 0.570089 -0.320333 0.649154 2.583362 -1.114045 0.027749 -1.109562 -0.014147 -0.835615 0.192762 -0.419875 2.109153 -0.042327 0.597977 0.304144 -0.054021 0.203851 -1.221612 -0.865223 -1.459651 0.044943 -0.647325 -0.295954 -0.893638 -0.589854 -0.313845 0.164155 0.219935 1.009178 0.899118 0.258578
what -0.293536 0.263665 -0.946424 0.647233 0.276759 -0.901091 -0.273231 -0.726926 -0.485634 0.286273 0.065149 -0.743425 -0.973264 1.197080 -0.651425 0.636596 0.555059 0.024651 -1.929303 -0.732244 0.380072 0.221034 -0.002847 -0.639844 -0.792472 -0.582674 1.025333 0.274728 -0.445566 -1.797636 0.961804 0.849274 0.715978 1.220065 -0.143843 -1.497235 -0.533382 0.523883 0.146589 -0.840726 0.091741 -1.277261 -1.586022 0.329983 -0.090992 0.750049 -0.362002 1.146947 -0.630041 -1.602519 0.766199 1.196384 -0.051088 -0.472100 -0.609381 0.053854 -0.565056 -0.304166 -1.044735 0.681211 -0.183267 -0.347744 0.457505 0.405388 1.023534 0.221249 -1.982336 0.057309 -0.014222 -1.984098 0.222450 -0.748806 -0.510906 1.971963 1.203403 0.220840 0.050005 0.485066 0.200019 -2.138659 0.692626 -1.708872 -2.168232 -0.091829 0.562933 0.695161 0.587751 0.475407 -0.543623 -1.570709 1.350006 -0.381111 0.230055 0.415219 0.537059 0.417693 -1.337710 -0.194123 -0.588196 0.891294 2.239143 -0.828684 -0.218011 -0.027810 -2.495305 0.038807 0.421190 -0.957447 1.981540 0.145493 -0.565378 -0.963733 0.403054 0.021334 -0.802578 1.390645 -1.279774 -1.753947 -0.800526 -0.027198 0.686782 2.200688 -0.181967 -0.476291 0.701384 0.302059 0.518383 0.259735
when -1.145200 -0.719148 0.566468 -1.202896 -0.109849 -0.909308 -0.136024 1.760553 -0.477550 -1.072049 -0.299777 -1.153270 -0.637990 -0.107116 0.169443 -0.804724 -1.372416 -0.345155 0.765197 0.810520 0.404826 0.489849 1.029048 -0.410621 0.368436 0.397500 0.419348 1.123745 0.957612 1.537608 -0.841263 0.051802 0.346260 -1.370944 -0.217153 -0.684976 -0.434795 0.199993 1.060938 0.703463 -0.901293 1.390934 1.518204 0.611677 0.749888 -0.451874 0.809021 1.050408 -0.875502 -2.217699 1.438176 -0.873568 0.589176 -0.366848 -0.347419 -2.115895 1.680362 -0.194004 -0.271020 0.056196 -1.658957 -0.549565 1.395486 -0.495936 0.922809 0.174655 -0.376522 -0.784059 0.873638 -0.421750 -1.290981 1.296946 -0.660789 -0.252459 -0.678206 0.320649 -0.061961 0.610541 0.240163 1.837207 -1.184324 -0.991567 -0.940020 0.495786 2.342171 1.021636 1.796605 2.116752 0.323388 -1.090878 1.266453 0.998654 1.768534 -0.983127 -0.968811 -0.047441 0.305473 -0.849743 -0.695337 -0.335629 -1.457115 -0.367238 -1.638961 0.209343 -0.296893 0.169896 0.948691 0.637165 0.844008 -0.301796 0.369203 -0.718598 0.572932 0.985044 0.644478 0.916698 -1.350857 1.146305 0.696652 0.052046 0.005541 0.533864 0.437545 -1.214770 -0.218962 1.713729 -0.072233 -0.051833
no -0.112242 -0.697490 -0.713530 0.733888 -1.861165 -0.503926 1.028732 0.616678 0.779598 0.751376 -0.394220 1.080174 -1.026684 0.494296 -0.490084 -1.733474 0.650779 -1.112664 -0.491461 2.099389 0.436371 0.444742 0.210040 0.846845 1.112743 -1.161358 -0.449037 1.611039 -0.633839 -1.541841 -0.977966 1.563887 -0.907152 0.666344 0.839589 -0.981012 -0.589195 -1.394025 0.532307 -0.777758 -1.394120 1.405599 0.207307 -0.521339 0.771162 1.464085 0.947884 -1.855253 -0.098699 1.162203 1.293207 1.398660 0.737847 -2.437597 -0.496233 -0.264831 -0.423319 0.032186 0.893617 2.273953 -0.345188 1.025454 -0.877776 -0.571004 1.521191 1.372373 -0.388999 0.048481 1.576978 -0.650336 -0.463564 -0.295239 -0.382662 -0.980846 -0.653458 0.213576 0.017080 0.458203 -1.082458 -0.285751 1.404420 1.754860 0.514558 1.590422 1.403146 -0.119740 1.179374 0.572986 -1.363964 -0.483270 -0.773073 1.129082 -1.388907 -0.777051 2.020279 1.766502 -0.318433 0.667419 -0.387792 -0.379457 0.873205 -2.638121 1.127601 -2.185069 1.188311 -0.101791 -0.624463 -0.627372 -0.518570 2.913102 -2.377973 0.258473 2.467110 -0.610231 0.321350 1.002074 -0.845060 -1.347146 -0.082666 0.274864 -0.402632 0.584386 0.281218 -2.273713 1.346192 0.107505 0.437678 1.215510
if -0.314956 -1.676328 1.102572 0.460299 -0.373295 -1.021131 -0.252818 -0.469770 -0.914644 -1.699453 -0.705632 1.146186 -0.114746 0.778061 -0.584481 -0.710483 -0.692594 1.566276 1.542747 -0.977709 -0.225989 2.012277 1.030066 -0.113023 -0.025782 1.474620 2.488265 0.285603 -0.924395 0.687169 0.961123 0.123961 0.336912 -0.752319 -0.439935 0.653985 0.711353 -0.629287 -0.431160 2.723418 -0.899171 0.662668 0.977427 -0.137812 2.318206 -1.221383 -1.863212 0.087619 -0.798132 0.232669 0.613805 0.491185 1.257222 -0.330675 -1.633803 -0.716146 1.830435 0.137037 0.395096 -1.752381 0.417231 0.197294 0.034137 -0.941509 -0.155761 0.001432 0.561944 -2.660560 -0.609928 2.005589 -0.001171 -0.215450 -0.179168 1.199933 -0.984522 0.385092 -1.084834 0.303536 0.913594 2.190912 0.172143 0.975651 -0.618629 1.817712 -0.765988 -0.004353 -0.134732 -0.864987 0.837017 0.708355 -0.528402 0.793934 -0.957461 -1.334537 -0.506998 -1.116073 -0.850463 -1.546020 -0.801992 -1.301464 -0.410197 -0.172550 -0.858497 -0.207921 0.178187 -1.054801 -1.080999 0.101497 -2.022713 0.672036 2.688287 0.555069 1.601091 1.234441 0.031841 0.066893 -0.183898 -1.296502 1.417093 0.573069 -0.530471 1.980224 -1.787925 0.414679 0.503813 -0.089672 -0.264459 -0.950476
there 0.836289 -0.450380 0.878256 0.102834 0.847869 -0.376272 -0.223172 -0.335333 -1.593425 0.238601 1.318684 -0.319507 1.917448 0.253342 0.238652 -0.040017 -1.913905 0.170650 0.792249 -0.940249 -1.209049 0.690187 0.387321 -0.245336 0.350966 -0.516098 1.573305 0.983956 -0.133955 0.679655 -0.632628 -0.725237 0.946761 -1.263461 1.261225 -1.287483 0.200505 -0.172595 1.701558 -0.027439 0.324527 0.731528 -1.117689 -0.009729 -0.212009 1.191676 -3.298306 -0.183021 0.902104 -0.618567 0.457049 -1.092740 -0.326797 1.470797 -0.231247 0.285371 0.379546 0.280159 -1.184458 -1.176419 1.664110 0.427028 -0.367805 0.932650 -1.153659 0.751062 1.481177 0.180999 1.191536 0.190629 -1.713495 0.042041 0.033461 -1.544378 1.114202 -1.349777 -0.962435 -0.618115 -0.234002 -0.991491 0.492318 0.944595 -1.233079 -0.208703 -0.764679 -0.038528 0.112849 1.251817 -0.946376 0.984810 1.807728 1.488697 -0.460762 -0.617040 0.042611 -0.040812 -0.396490 -0.904363 1.102668 -0.503159 -1.038977 1.110919 -0.299546 -1.905504 1.020341 0.321043 0.509482 -0.535134 1.081746 0.809548 1.073672 0.620267 0.876798 -0.774589 0.847440 0.711346 1.553679 -1.556346 1.684067 1.078592 -0.285427 -0.881040 -1.902187 -0.968517 0.037958 -1.004042 0.956218 0.233263
who 1.354958 -0.270698 1.523694 -0.380467 -0.657924 -0.334018 1.441787 0.271529 1.937304 -0.547495 1.994712 -0.872175 -0.689745 0.980182 0.599831 0.002234 -0.287337 0.693311 0.859666 0.717509 0.230098 -1.037736 -0.496501 -1.849050 -0.052780 -1.030724 -0.905617 -0.285181 -1.301850 0.239058 -0.990655 0.417844 -0.814648 -0.687753 1.910557 0.968581 0.598834 0.444587 1.003552 -1.515820 1.773280 -0.338064 -0.102118 0.241030 -0.434684 0.118155 0.885280 0.210216 -0.224669 0.055355 -0.745027 2.377937 -0.724875 0.786922 -0.135476 1.247295 0.515881 -1.131310 -0.902642 0.915841 0.228692 0.632883 1.090351 0.724320 -0.480104 1.463326 -0.586935 2.134943 0.806772 -0.401679 -0.459600 -1.074364 -2.041726 0.396801 -0.789608 -0.790538 -1.312391 0.872147 -0.193834 -0.270481 2.573082 0.669184 -1.809786 -0.868875 0.185832 -0.095826 0.433003 1.306835 -2.018403 -1.153380 -1.417079 -0.813859 2.077907 0.231232 -0.503180 0.576829 -0.175530 0.371012 -2.036131 0.249927 -0.408656 0.532917 0.945126 1.431380 -1.236592 -1.491120 0.126732 -1.339618 0.617258 0.271520 -2.188440 -0.544331 -1.788531 1.220797 2.005697 -0.101862 1.755322 0.186179 0.861986 0.542559 -0.982981 -0.677995 -2.744284 -0.066003 -1.409339 0.673654 -0.837090 -0.303064
we 1.808442 -1.663387 0.130962 0.360291 2.674572 -1.343110 0.909051 -0.886343 -1.433295 -0.097180 0.611474 -0.167774 0.950862 -1.055091 -0.837828 0.408040 -0.575794 0.548280 0.866453 1.174829 -0.887462 0.134708 0.778993 1.758383 -0.242895 0.872526 1.504781 -1.078171 0.327830 0.015303 1.049136 -1.424219 -1.063615 0.677877 -0.544450 0.024449 1.644377 2.003169 0.990181 -0.342915 -0.116271 -0.650972 -0.901945 -0.555193 0.745399 -0.249317 0.607222 -0.470357 0.968594 1.236345 -1.715620 -0.315476 -0.377589 0.749543 0.894977 -0.879481 -0.216704 0.504925 0.010382 -0.667504 -2.158515 -0.752931 0.866922 -1.241299 1.806251 -0.787635 -0.983602 0.222605 -0.100469 0.184316 0.963865 -0.934925 -1.766480 0.715756 -1.334839 -0.094082 -0.595144 -0.119925 1.100110 1.130968 0.686308 0.098647 0.315006 -0.480232 -0.154898 1.304574 -1.588135 0.088900 0.769268 -0.841019 -0.084076 -0.546949 0.624735 0.866870 2.004877 -0.146640 0.005653 0.675648 -0.376739 2.604450 -0.754397 -1.026223 0.104714 1.578970 0.362429 0.276973 0.245889 -1.738437 -1.411773 -0.991615 1.184097 -1.296845 0.502884 -0.136684 -2.216807 -0.219318 0.266324 -1.666704 1.290071 0.211855 0.316301 0.434642 -0.096720 -1.010204 -1.535902 2.762700 0.783903 -2.261437
will 0.403057 0.256512 0.004980 0.192067 2.826467 1.958174 -0.052107 -0.275912 -2.068621 0.772315 -1.053450 -0.554367 -0.699812 0.108334 -0.468725 -0.310236 0.030401 3.708211 -0.068628 -0.494266 1.137018 -0.560299 -0.360460 -0.345394 -1.543653 3.204729 0.848393 1.363083 0.035139 1.298955 0.459642 1.053477 0.705739 0.191807 1.116903 -0.027696 0.799341 1.462218 0.649823 -0.197210 -0.384785 -1.796996 0.747815 -0.723878 0.259288 1.223394 -0.914515 1.770087 0.211475 0.562219 -0.475443 0.505517 -0.569440 -0.262571 -1.965511 0.860442 -1.361694 -1.006683 -1.765265 0.940450 0.598586 -0.541297 -1.557841 -0.236286 0.652323 0.650528 0.492948 1.007203 -0.470330 0.280775 -0.094986 -0.374916 -0.660820 -0.309180 -1.358596 -0.360102 1.769614 -1.782012 -1.559517 -1.440837 -0.725496 -0.610319 -1.699436 0.167884 -0.658746 -1.464143 -0.312434 -1.742114 -0.165342 1.677358 0.040211 0.888181 -2.426426 1.168069 1.098420 0.534446 2.209170 -0.064412 -0.027160 -0.905195 0.272146 -0.788186 0.482694 1.422584 -0.289169 -1.181424 0.476647 -1.112757 1.290535 -0.094912 0.878099 1.744707 1.544627 0.557401 -1.122709 -0.360690 1.188625 0.982524 1.450339 0.198194 0.063684 0.439949 -0.221594 1.211436 0.418762 1.185450 1.010924 0.764993
an -0.939926 1.917917 1.274312 -0.713519 1.037049 0.308172 -0.048314 0.078712 0.834429 -0.181434 -0.074668 -0.713797 0.415874 -1.544993 2.014446 -0.059037 -1.202713 -0.708732 -0.978145 0.646135 1.246576 -0.975955 1.347748 0.507097 0.765631 -2.248924 -0.620518 1.258394 -0.555226 2.454102 0.050691 0.693755 0.009465 -0.186067 0.428080 -1.327554 -0.412737 0.589831 -0.663608 -1.407359 -0.201521 -0.126833 -0.556207 0.199426 -1.535065 -0.411199 0.064634 -0.583015 -1.932906 1.077510 -0.157617 -1.476749 -1.816593 0.433977 1.188918 1.223255 0.162420 0.260201 0.690430 1.021774 -0.193237 0.395021 -0.157862 1.398188 0.288130 0.656385 1.745149 0.387803 -0.196705 1.195057 0.554964 -0.394262 1.668068 0.328167 0.492908 1.340713 0.286493 -0.288528 0.705633 0.501874 0.797522 0.553101 -0.802884 -1.954319 -0.419123 -1.487773 0.747995 1.277431 -1.948067 -1.058156 -1.265424 -0.288643 0.585644 0.104418 2.111638 -0.852307 0.762811 -1.144956 0.722496 -0.118720 1.364987 -1.209686 -0.187929 0.086050 1.132130 1.570271 0.767583 0.783720 -1.062271 -1.262411 -0.335304 1.040246 -0.617462 0.028452 -0.783397 0.458187 -1.141937 -0.844440 -0.122319 -0.402014 -0.548194 -0.692300 -0.210129 -0.535582 -1.580868 0.726475 -0.153966 -0.327923
then -0.959165 0.031235 -0.540367 0.346479 -0.529402 -1.712427 -1.429066 -1.551373 0.567655 -0.010037 0.167495 0.608356 -0.859007 1.388090 0.050423 -0.828832 0.400655 -0.461994 -0.243244 0.023762 1.716602 0.308545 1.181214 0.855688 0.017165 0.189438 -0.953887 0.169706 -1.517407 -1.019812 1.977580 0.747517 0.859547 0.212421 -0.236841 0.488329 1.122103 0.421804 1.358696 0.161391 0.523387 -0.088713 -0.635205 0.176840 0.427679 -1.313406 0.242900 -0.100970 1.023723 1.161794 -0.699596 -1.440565 -0.675225 -0.494708 -1.733474 -2.698857 -0.347553 -1.155347 0.982436 0.960724 0.528281 -1.904835 1.827752 0.927804 -1.089736 0.423040 -1.215063 -1.197868 0.760521 -1.404747 -0.311541 0.411226 -0.222205 -0.279015 1.387678 -0.701243 0.082234 0.021349 -1.623417 -0.209984 0.018217 -0.148799 0.125082 -2.576817 0.328531 2.103436 -0.327514 -1.214854 -0.686910 -0.142507 -0.645951 0.655242 -1.879411 -0.248375 1.026091 0.050496 -1.468903 -0.906512 0.997394 1.465320 1.057429 0.665545 -0.270918 0.682052 -1.223892 0.298729 -0.645450 0.050677 0.593623 0.700718 -0.036102 -0.066969 0.765624 -2.051925 -1.190806 -0.624645 0.000037 -0.140226 2.058894 0.521798 -1.566333 1.179320 0.181812 -0.261906 0.798078 -0.960658 0.271856 1.835571
their 0.298933 -0.194098 2.822015 0.676803 0.425537 0.461342 -0.688172 0.541525 -0.321155 -0.942540 0.182266 1.024665 0.357470 -0.067946 -1.105742 0.931133 -1.108811 -0.347244 -0.805043 -0.526625 -2.088012 -0.598544 2.252525 -0.734274 -0.231565 -0.117911 -0.857704 -0.226077 0.359766 -0.486362 -0.406978 -0.348008 -0.660021 -0.419442 -1.096910 0.751565 -0.915936 1.030010 -1.380544 -2.111014 0.797100 -0.108957 0.991594 -0.748787 0.223031 1.166286 -0.615302 0.273308 -0.193632 0.161909 0.240486 -0.424391 -0.665291 -0.493162 0.674373 0.332830 0.040112 0.178629 -0.041974 -1.539700 -0.030921 -0.423655 1.152477 -1.154500 1.014025 0.112420 1.144952 -0.134460 0.809240 -1.149227 -0.306269 -0.234689 0.863270 -0.011749 0.612875 -1.000913 -1.214018 -0.924024 0.420521 0.317948 -0.705413 -1.127676 -0.769059 -1.198713 1.020941 1.264077 -0.111517 0.868330 -0.407583 -0.778144 0.207308 0.805595 -1.602720 -0.385211 0.263817 -0.187875 -0.543265 -0.320044 0.177299 0.347949 -0.131892 0.046920 0.694650 0.520734 -0.107731 -0.906080 -0.158085 1.728786 0.713757 -0.292059 -0.702339 -0.056988 0.839687 -0.181958 -1.550267 -1.274704 0.152388 -1.205641 0.755621 0.699839 -0.141806 0.524489 1.481959 0.807046 0.154929 -1.198672 -0.436794 -0.537313
would 1.413887 1.018729 2.390970 -0.608854 1.320966 -1.832186 -0.955029 -1.507832 -0.379715 0.389510 -0.529394 -0.135866 0.724865 2.683139 1.434207 -1.737667 0.192099 0.426030 -0.881754 -1.380671 0.908131 -1.083792 -0.880279 0.490307 -1.294298 -2.087962 -0.268070 1.098729 2.081522 -0.769494 1.306437 0.247168 0.881326 1.217710 0.011273 -0.691025 1.329837 0.616062 -0.495019 0.012932 0.277683 0.107492 -2.041617 -0.973280 1.142884 -0.113703 -2.183677 -0.843720 -0.328520 1.937573 0.453792 -0.127541 1.612457 -0.013333 0.663311 1.624678 -0.415772 -0.234339 -0.516376 -0.460847 0.718614 -1.407552 0.369946 1.120318 1.251459 -0.685123 0.522572 -0.065392 -1.494354 -0.099824 0.812704 0.274507 -0.072414 -0.176083 0.490405 -0.816156 -0.993504 -2.513781 1.394452 -0.281128 -0.137810 0.863937 0.047514 0.631922 0.236668 1.191721 -0.622784 -1.245967 -2.070351 0.824754 -0.198962 0.339218 -0.023532 -1.429777 -1.332097 -0.382827 -0.775889 -0.490572 -0.065591 -0.135412 -1.793197 -1.079672 1.666733 0.508242 0.228687 -1.268661 -0.878449 1.933557 0.407251 1.527420 0.690478 -0.701509 -0.531470 0.872488 0.741521 -0.425120 0.430198 0.036701 -0.721055 -1.095549 -0.192901 -0.660758 0.060347 0.274324 -0.943081 -0.792342 1.411102 -0.780026
them 1.184130 0.718406 1.060878 -0.137223 -0.413772 0.528357 1.033013 -1.999923 -1.529947 0.052437 2.556807 -1.582930 0.481484 1.229795 -0.527546 -1.126715 0.074574 1.291656 0.370099 -0.317173 -0.006239 -0.645345 -0.154819 -0.920614 -1.951913 -0.749938 0.775691 -2.415953 -0.204016 -0.214272 -0.317320 -0.383745 2.691964 0.685005 1.084014 -1.174537 1.547825 -0.106577 -0.853680 0.395608 -1.543868 -0.749265 -1.397903 1.000605 -1.058877 0.412908 0.289042 -1.849282 0.897539 0.186537 0.995223 -0.871797 0.170001 1.294053 0.022574 -0.966495 0.662579 1.408777 -1.769051 -1.521295 -1.428476 0.522311 -0.450408 -0.985322 -0.237648 -0.108494 0.568869 1.101992 1.242229 0.358418 0.106434 0.309464 -0.928482 0.053242 -2.387285 0.270923 -1.411650 1.379777 1.052424 0.258295 -0.729718 -0.701028 -0.572076 0.227361 0.293321 -0.408570 -0.840106 -0.358802 1.047581 0.988369 1.369178 2.670361 0.886465 0.772302 -1.359648 -0.705055 0.017875 3.242895 -1.687752 2.321038 1.233474 -0.939504 1.104958 1.289074 -0.701856 0.012797 1.061644 0.523219 -0.252330 -0.398900 -0.174219 0.150078 0.691162 0.039177 1.016612 -0.990054 0.001682 -0.438883 -1.353870 -3.400859 1.836206 0.997076 0.189181 -0.672569 1.169551 -1.989332 -0.799536 -0.586009
been -0.115661 0.955780 1.988998 0.097025 -0.618538 0.228886 -0.214498 -0.088477 -0.667108 -0.392250 0.491736 1.223412 -1.669867 1.129596 0.766129 -1.647455 0.270542 0.649114 -0.278774 -0.649645 -1.200653 0.621868 0.181854 0.256191 1.273607 -1.210045 0.153017 -1.285092 -0.225514 0.705259 0.639266 -1.386350 -0.266873 0.190922 0.488615 0.117277 1.048154 0.769161 0.354805 -0.061624 -2.325837 0.866302 -1.078260 -1.108450 1.061934 0.971018 0.883432 0.744536 0.485115 0.293549 -1.078770 0.807217 -1.175399 -0.320358 0.253715 0.296744 0.521833 0.953516 0.683515 0.986949 0.328669 -0.412842 -1.454544 0.601942 -0.675241 -1.419621 1.888810 -0.505592 -0.537332 -0.005256 0.782093 -0.437301 -0.083806 -0.566427 0.781919 -0.279383 -0.257593 -1.061130 -0.819499 -1.222933 -0.412447 -0.644771 1.295758 -0.287732 0.358253 -1.553671 0.935595 -0.012937 -0.181029 0.713928 -1.361019 0.027562 0.708297 0.875639 -1.516809 -0.916499 -0.860334 0.009186 -0.275440 -0.850296 1.101863 1.466014 1.932446 0.871343 0.341501 -0.003737 0.109881 0.667579 -0.508762 -0.569265 1.044360 -1.367399 -0.704556 0.866221 0.225843 1.387539 0.310957 -0.679097 -0.652128 -1.207444 -0.394983 -0.594844 1.862319 -1.160167 -0.002807 0.038828 1.233654 -1.014348
do 0.620942 0.392264 -0.176591 0.359240 1.275586 0.839424 1.687875 -0.795093 -1.100745 0.895035 -1.948670 -0.476048 -0.216006 -2.221345 -0.598324 -0.481145 -0.355799 0.221612 -0.897016 -2.113715 -1.184228 -0.243557 -0.339936 0.685670 1.259175 -0.616358 -0.617802 -1.247960 -0.331607 1.050864 0.802781 -1.033604 0.898798 -0.376034 0.865071 0.392826 -0.640993 -1.079394 0.391747 0.820216 -1.708850 0.279679 0.210585 -1.738369 -0.606661 -0.210697 -0.230848 -0.720651 0.980964 -0.958303 0.406305 0.208270 -1.220508 -0.056031 1.964852 0.249518 -0.285261 2.377629 1.470171 -0.506731 0.348761 -0.092414 -0.506999 0.028564 -0.750343 0.282003 -0.320535 0.814001 2.058491 0.699550 -0.379366 -0.017277 2.489128 -1.052889 -0.463536 -0.648813 1.670482 0.861964 1.229159 -0.837915 -0.330482 -2.577524 2.318522 -0.283358 0.337404 -2.227484 0.214225 1.438904 -0.842878 0.574201 0.787009 -0.930061 -0.727265 0.622148 2.775703 -0.675777 -0.784166 0.658818 0.786653 0.605133 -1.044223 1.065814 2.463284 1.194584 0.150492 -0.147549 -0.250370 1.476669 -1.284323 -0.149646 0.481477 -0.373490 -2.174766 0.455321 -0.371165 -0.842520 -0.393268 -0.126627 -0.070645 0.583577 0.158096 0.891622 -0.664983 -0.714658 1.628575 -0.402368 -1.502316 -1.814904
your 0.022362 -0.792985 1.385411 -0.326766 1.719111 -0.039767 0.670957 -1.255835 -0.913500 1.697139 -0.207304 0.730368 -0.418573 -0.304263 1.260973 0.676519 0.050616 -1.729605 1.179289 -0.938546 0.608110 1.692072 0.896693 -0.333049 0.344879 -0.614955 1.098851 -0.691752 -2.687774 1.812355 1.198310 1.135661 -1.237453 -0.513783 -0.354525 0.354113 -0.203488 -0.706921 1.753773 -0.093264 -0.254570 -1.850716 0.625513 0.566169 0.069641 0.226536 -1.563789 -0.124289 -0.591033 -0.032583 0.351346 0.163227 -0.272750 0.929925 -1.999654 -0.088227 1.718355 0.039672 -1.317839 0.566945 -0.997908 1.018478 0.572877 -0.265831 0.811392 -2.128494 -0.317029 0.655303 0.546978 -0.037199 0.666654 -1.904066 -0.091279 0.072942 2.694707 -0.113367 0.419975 -0.168720 -1.380428 0.294902 -0.830179 -0.539767 1.417433 1.833885 -0.049717 0.559960 -0.144069 -1.007384 -0.643017 -0.603064 0.229655 0.941113 0.181505 -0.525395 1.262152 0.304623 -0.916344 -0.440646 -0.090287 -0.711168 1.120978 1.282331 -0.135583 -0.680691 -0.296739 -0.037095 1.096705 -1.000903 1.288214 1.695325 -0.316175 -0.913432 0.917754 1.250560 0.150664 1.323133 -0.372461 1.491776 -0.748954 -1.000642 -1.159184 -0.825157 -0.013704 -0.170816 1.048548 0.456689 0.884277 -0.614742
now -1.506294 -0.648317 -1.174823 0.554799 1.448387 -0.891289 0.061904 -0.532554 0.228602 -0.399153 0.375538 -0.546662 -0.620411 0.407952 0.044395 1.914503 0.530186 2.686721 0.735552 0.544803 2.960033 -1.626509 -0.395145 0.193427 2.305493 -0.246267 1.206111 -1.540119 -0.523699 1.079468 -0.469288 -1.504761 1.545756 0.433761 -2.455856 -1.179599 -0.177776 -0.418840 0.518598 -0.068847 -0.796180 0.196546 0.501118 -0.980318 -0.365179 0.338725 -1.322526 1.619606 -1.079010 -1.367927 1.134133 0.564208 1.279486 -0.573538 -0.971588 1.228106 -0.485686 -0.005250 -1.209665 -0.006682 -1.133878 -2.916327 -0.302454 0.710564 0.730354 -0.823041 1.329533 -0.057745 1.505770 0.374577 0.733162 -0.292355 -1.142321 0.060242 -1.105008 0.699878 0.237266 0.296482 1.291532 -0.844782 0.534821 0.051473 -0.051087 0.006283 -1.136964 -1.094067 -0.535633 0.046632 0.918224 -0.198601 -0.916682 0.574016 0.905179 -1.076824 0.411797 0.375052 -0.579068 0.544892 0.212933 0.035951 0.560091 0.848963 0.254909 -1.653430 1.909030 -0.783267 -0.153971 -1.381131 0.276692 0.371556 0.087662 1.071244 -0.436925 0.479767 1.272492 2.455805 1.367844 2.288914 -0.603675 1.403937 -0.467116 -0.537664 1.014272 0.958621 -1.233985 -0.446711 1.756983 -1.484315
out -0.493617 -0.355785 1.451314 1.535517 -0.687415 -0.352778 -0.127619 0.903391 0.137113 -0.500643 0.596891 -0.738361 -0.204084 0.113914 -0.800807 -1.233079 -0.938404 -0.812708 0.259226 1.342068 1.036159 -0.458775 0.252074 -0.664894 0.001199 0.535062 0.010811 0.268645 -0.785883 1.042562 0.584708 -0.135537 -1.178848 -1.209183 0.382787 2.172621 -0.792312 -0.442476 -0.249773 1.915151 -0.845917 1.814717 -0.233194 -1.291513 0.240856 -1.569771 1.173712 0.452244 -1.673140 -0.383481 -1.046576 -1.959707 -0.138505 0.603723 -1.721816 0.631821 0.332415 0.346465 -0.658247 1.531914 0.441721 1.289419 -0.960082 0.339262 0.745493 0.569167 -0.482921 -2.070294 -1.242033 -0.476538 -1.138923 0.547783 0.146438 -1.372056 0.949558 -1.111117 -0.642327 -0.721841 -0.765850 0.499984 -0.277666 0.025225 -0.277611 -0.324430 0.446649 0.304807 1.694466 0.100987 -0.906801 -0.846454 -1.162009 0.123878 0.318239 0.344929 0.148857 -0.338733 1.517373 -0.759614 -1.535773 -0.665020 0.232423 1.491700 0.378745 -1.373760 -0.994065 -0.809197 0.878290 -1.173362 -0.205796 0.448830 0.382103 0.224334 1.784371 1.949321 -0.850902 2.214520 1.232854 -0.165278 0.361516 0.786030 -0.515325 -1.334303 -0.440386 -0.142252 -1.092834 -1.680111 0.312720 -0.180472
more -1.071892 -1.481556 0.747000 -0.344425 -0.421267 1.018627 -0.001290 0.962295 -2.165036 -0.087604 1.836759 -1.287132 0.179706 0.589974 -1.776388 -0.773151 -0.013526 -0.319726 -0.296028 0.573746 2.166156 1.983566 -0.987690 0.845693 -1.627222 -1.226359 1.444128 -1.050028 2.301015 -0.142719 0.040529 -0.830226 0.324758 -2.152886 -0.452341 0.119542 -1.627598 -0.458194 0.246322 -1.100875 -0.499521 0.741513 -1.032422 1.478622 -0.317955 -0.578913 -1.123740 -0.941482 0.572617 -0.743870 -0.865143 1.076452 1.117354 -1.379219 0.205902 -2.665223 0.657060 -1.200536 -0.472793 0.978248 1.229868 -1.305820 -1.241534 1.256425 -1.427206 0.160921 -0.444731 -0.097191 -1.575402 1.096756 -0.894763 -2.388251 0.127094 -1.026104 1.280208 -1.489693 -0.397104 -1.752701 -0.155098 -1.080305 0.674831 -1.107497 0.899212 -0.715726 0.378941 0.086344 1.548477 0.704962 -0.077608 0.498180 -0.616270 0.838681 1.598884 -0.715070 0.317841 0.376196 -1.449422 -1.135568 0.859160 0.541520 -0.872320 1.347138 0.475523 0.567643 0.171575 -1.601669 -0.950088 -0.231607 -1.125882 0.188271 -0.894678 -1.113370 0.126108 0.366829 1.815303 0.736960 -0.945165 0.645784 0.722902 -1.207871 -0.153130 0.119906 -0.505590 -0.206498 -0.484839 -0.652720 0.494364 -0.490646
up 0.712135 0.743847 0.340731 -0.663941 1.395715 0.881068 -0.035211 0.223204 0.279874 -0.676521 2.124747 1.113302 -1.834645 0.191239 0.584243 -0.697342 -1.837794 -0.065709 -0.110764 0.671209 -0.375854 -0.040750 -0.507486 -0.813655 0.982469 1.075600 0.350553 -0.652862 0.435772 0.308878 0.239232 0.919960 1.180352 -0.127922 0.221679 0.444915 0.769873 0.702241 0.855242 1.158590 0.501036 0.420188 -2.293949 -0.452497 -1.503163 -0.101645 -0.581240 -0.600031 -0.902116 0.111863 -0.381775 -0.756257 -0.900320 1.460471 1.334574 0.026967 0.497855 1.354023 0.114936 -0.195444 -0.857929 -0.521250 -0.210468 -0.629355 -0.359053 0.640060 1.475206 0.276591 0.393993 -2.232142 -1.028521 1.244433 -0.246242 -0.097996 0.497299 -0.198127 -0.650029 0.757382 -1.157989 1.001840 -0.449235 -1.053256 0.779946 1.281298 1.280082 -0.243207 0.835802 -1.434993 -0.158840 1.838002 -0.680366 2.462020 0.909951 0.532459 0.497523 0.396012 0.553585 0.593958 0.762182 1.601452 0.591151 -0.216717 -0.274205 -1.041569 1.224689 0.238194 -0.169114 0.942109 1.452297 -1.986268 0.964912 -0.725042 0.678915 -1.206908 0.528755 0.683612 0.523752 -0.709601 0.678103 -2.237347 0.863966 0.384785 -1.209684 -0.161980 -1.259969 -1.292419 -0.833387 1.014144
man -1.102443 0.772217 -1.067511 0.621677 -0.587376 -0.751068 0.868306 -0.304883 -0.655790 -1.123117 0.954158 -0.725826 0.242839 -0.501953 0.266105 0.951410 -0.615317 0.280970 -1.789460 -0.742540 0.425601 1.092603 1.028751 0.893888 -1.293672 -0.675211 -0.174803 0.867894 1.621573 -0.490639 -1.147625 -1.382559 0.691645 -1.479696 1.022860 0.092220 -0.444262 0.633727 0.954085 -1.060055 -2.433393 0.029840 -0.129306 -1.344038 0.463345 -1.351635 0.834240 0.472756 -1.001176 1.927801 1.711692 -1.853519 1.416688 -0.124154 -0.389527 0.315613 -0.830917 0.255671 0.011375 0.488326 0.707446 0.102753 1.587217 0.777314 -1.666497 1.686527 -0.825038 0.357727 -1.579748 -1.679361 -0.759550 -0.074840 -0.456448 -1.776058 0.920438 1.028340 -0.370835 -0.996665 0.078810 0.215079 1.139825 -0.981331 1.058468 1.027906 0.441847 1.250859 0.035204 -0.437147 -0.114587 -1.352137 0.948618 -0.071180 0.039036 1.625979 0.193515 1.192810 0.796046 0.507560 0.033910 0.622200 -0.794256 -1.206761 1.292674 0.652383 1.701271 0.707146 0.641449 -0.941594 -0.301996 -0.578499 -0.233943 1.789513 1.756400 0.480330 1.050387 -0.751509 1.220051 1.171239 -0.314714 0.659054 0.189681 -1.189174 0.229220 -0.423724 0.626817 -0.669737 -0.339059 1.354634
into -1.706341 -1.875734 1.102730 -1.358876 -1.267783 -0.103142 1.312819 -1.370343 -1.343241 -0.039006 1.700020 0.077634 -0.614317 0.003554 0.163465 -0.781945 0.590753 0.944971 0.949917 -1.586156 -0.747009 0.334974 -1.365931 -0.168824 -0.309479 0.383187 0.073142 0.513750 0.311448 1.908127 -0.502662 1.072522 -0.521335 0.742070 0.149420 1.213168 -1.501047 0.273185 0.207798 -1.170251 0.014299 -2.289816 -0.205775 -1.002829 0.954713 0.596776 1.038066 0.026996 1.778065 -1.127156 0.212947 -0.344921 -0.522672 -0.785208 0.446368 0.877362 -0.936273 -1.221798 -0.900261 0.428444 -0.697572 -0.080217 -0.069253 -0.997663 1.296697 0.635045 0.850388 -1.365243 0.537792 0.308889 1.721953 1.850174 0.097212 -1.421284 1.615663 -1.597647 1.648711 0.160378 1.116991 -0.608210 -0.484326 1.246395 -1.960722 -0.225052 0.086230 -0.275770 1.455298 -2.099454 0.379721 -0.476048 -0.610243 0.881529 -0.393648 0.163839 0.175039 -0.237418 -1.821967 0.807035 0.068784 0.531610 -1.616272 -0.154859 -0.642074 0.149593 2.749677 -1.302783 -0.905248 2.226371 0.634476 -1.706329 -0.627695 -1.121932 0.567745 -0.785416 -1.008475 0.540027 -0.771959 0.106932 1.805281 0.234819 -0.252483 -0.116106 1.290953 -1.900800 0.955851 -0.816666 -1.245175 0.403136
some -0.834505 0.131045 2.528272 0.670008 -0.043142 0.765233 0.393210 0.859843 0.219962 0.693930 -1.427211 -0.109228 0.682753 -1.175478 -0.567755 1.289733 -2.519673 1.467002 -0.246129 0.273855 -0.285922 0.225313 2.434301 2.118695 1.597541 0.412280 0.783895 -0.774927 -0.061499 0.438316 0.305417 -1.537549 0.329017 0.889839 0.836465 0.682297 -1.107758 1.175698 -0.450705 0.493663 0.208433 1.386467 1.837383 0.236071 -1.403004 -0.547678 0.862718 -0.690639 -0.339298 -0.170725 1.897554 -0.063307 0.611085 -0.748932 -0.243141 2.196434 0.765446 -0.245536 -0.473788 0.352481 1.556221 0.739249 -2.019001 0.015678 -0.110179 -0.953957 -0.682309 -1.777185 -0.733255 -0.054814 0.329223 -0.765501 0.194781 -0.806951 -0.977815 0.075521 0.581624 -1.534935 0.134509 0.032221 -0.200883 -0.128420 1.714034 -0.339526 0.551023 0.145337 0.194352 0.643740 0.708297 0.082667 1.921470 -0.294775 0.406023 0.373759 -3.047272 0.683257 -0.206255 0.342420 1.830549 -0.565402 -0.531883 0.404114 0.237773 -0.136033 0.769021 0.569959 -0.010698 -1.472579 -0.291665 -0.561795 -0.078541 -0.879153 0.882101 -0.959060 -0.862032 -0.036617 0.412727 0.127804 0.175260 0.413912 -0.613967 0.034139 -0.351824 -0.857850 -0.029401 0.563143 -1.033538 -1.921200
could 0.601428 -0.030721 -0.031343 0.305345 0.791358 2.726760 1.288155 1.181528 -0.645535 0.075509 -1.400634 -0.373559 1.400539 -0.894029 -0.521922 1.859437 -0.404113 0.048992 0.578442 -0.276110 -0.848403 0.392758 -0.685287 0.782552 0.112711 -0.956182 -0.839009 0.773077 -0.890679 0.104883 -2.203563 -0.549215 0.790333 0.254963 1.036666 -0.856311 1.183285 -0.646694 -1.790045 0.417764 -0.734298 0.499858 0.402015 -1.300392 0.101274 0.008559 2.427922 -0.797905 -0.952133 0.858831 -0.140217 1.787626 1.423697 -0.020719 -1.677497 -0.182006 0.469707 1.737064 -1.574217 -0.916651 -1.229697 2.076447 -1.890936 1.194330 0.615816 0.450606 1.391682 0.114877 -0.734974 -0.012776 0.860921 0.038455 0.523234 -0.225274 0.564520 -0.795300 -0.441125 -1.586241 -0.973496 -1.361567 0.338664 -0.172476 1.270395 0.700671 1.855199 -0.769807 0.105009 0.425612 -1.430574 0.696412 -1.829800 -0.238376 0.792920 -0.979464 -0.292351 1.449997 0.134806 -2.817503 0.788519 -1.271951 1.856030 -0.871243 -0.243246 1.456751 -0.159094 -0.579786 -0.543251 0.253199 0.336930 -1.500217 0.681820 1.343604 1.033013 -0.007961 0.456804 -0.514003 1.150284 -1.920262 -0.201661 0.522712 0.019762 -0.390539 1.935243 -1.890194 1.938045 -0.516173 -0.024429 -0.437706
has 0.600846 -0.828761 -1.200458 0.447603 -0.240142 1.322404 0.107573 -0.954728 -1.454399 -0.610345 1.179959 0.278991 0.110704 1.477422 1.445286 -0.819739 -1.082199 0.393015 -0.745511 0.421925 2.469482 -0.199842 -0.123256 1.543651 -0.235265 0.995746 1.393667 -0.028570 -0.753098 -0.511591 0.137012 -0.808930 1.728309 -1.965759 -0.249530 -1.641644 0.341403 0.205090 0.789813 -0.867650 1.247760 0.179321 0.398490 -0.486910 0.362008 -0.511223 -0.419570 -0.466601 -0.093734 -0.944570 3.109693 0.474390 0.247604 -1.270082 -0.090871 0.662886 0.507088 -0.061750 1.220980 -0.881218 0.110987 -0.565279 -1.963613 0.343342 -2.370532 1.726633 -0.260737 -1.181757 -0.647064 1.593555 0.393744 -0.436389 -0.210861 -0.590045 -0.707425 0.446094 1.927046 0.968455 0.063027 -0.713336 -0.211185 -0.245852 -0.282195 0.380644 -0.075309 -0.345518 -1.085715 -0.299154 0.461974 1.265617 -2.642730 0.003207 -0.252195 -0.540717 0.039024 0.508631 1.446322 2.554298 -1.804165 -1.381095 -0.287893 1.579452 -1.440198 1.408753 -0.860920 -0.965434 0.528791 0.192095 -0.644454 -0.931479 1.570310 1.016253 1.186550 0.370084 -1.290937 -1.378855 -0.367191 0.253615 -0.775825 0.093466 0.876298 0.037370 -0.868989 -1.032286 -0.320595 -0.355430 1.994256 -1.113374
only 0.644446 -0.903257 0.575221 0.407355 -0.100517 -0.121355 -0.047821 -0.279447 1.412901 0.337929 1.581933 0.063752 0.391576 0.311601 0.359290 -0.574296 -0.943766 0.279537 -0.107696 -0.227202 -0.654009 1.112068 -2.121385 -0.369230 -1.710127 1.364360 0.123472 0.208150 0.391383 -0.024275 1.936004 1.880793 2.074802 -0.126153 -0.850659 -0.216958 -1.030632 -0.757864 0.083225 -0.085672 0.117091 -0.676495 -0.120076 0.377245 1.202044 0.726061 0.250139 -0.689785 -1.652366 1.987637 0.538420 -0.964177 -0.530140 1.526250 0.911142 -0.596742 -1.070608 -0.043661 0.466933 -0.183166 1.551463 -1.348608 -1.322697 0.928717 0.603082 0.669254 -3.340914 -0.894797 1.332264 0.816787 1.218299 0.879275 1.414391 -1.869215 -1.306350 -0.831612 -0.527753 1.934732 0.687700 0.033358 2.097700 0.052276 -0.082568 -0.358410 1.207854 0.117773 0.953450 -2.269048 0.276970 1.011734 1.607957 1.089479 0.120550 1.112014 0.120442 -1.571362 0.205375 -0.405095 -1.483919 -0.248846 0.807780 0.171362 0.968771 1.648329 -1.185971 -1.237815 1.005910 -0.865782 0.398436 0.379595 -1.511680 -1.560268 -0.718505 -0.576865 0.640614 -0.489954 -2.290030 -0.439485 -0.607509 -1.637508 -1.397601 -1.211154 -0.599287 -0.131414 0.525587 -1.447765 1.437637 -0.356628
any -1.185093 -1.500736 -1.309840 -0.691990 0.782356 -1.054210 0.885749 -0.011041 -0.563377 -2.266967 -0.095225 1.172056 -0.151448 -0.147742 -0.408706 -0.179348 -0.220512 1.792473 0.399562 -1.035110 0.389416 -0.412316 -0.484118 0.429862 -0.442989 -1.355912 -0.777049 -1.249238 -1.674803 -0.255671 -1.192730 1.122355 -0.791210 0.740330 -2.086423 -1.188448 1.171654 0.105722 -1.284616 0.136000 -0.058300 0.410042 -0.058735 -1.740671 0.309126 -0.892249 0.610413 -0.086103 0.403116 -0.119727 -2.577096 0.566407 -1.821932 -0.813256 0.777624 -1.598083 -0.347739 -0.926053 0.182058 -2.218463 -0.207871 1.274222 1.606903 1.361189 2.189152 0.835096 0.773303 0.895551 -0.532271 -1.214322 -0.550111 0.677606 -0.100594 0.690730 2.087007 0.405486 0.978237 -1.647910 -0.613898 -1.406525 -1.212875 0.085971 0.611240 -0.297260 -0.491600 1.851964 -3.156811 -0.570401 -1.172599 0.252086 1.060684 3.736063 0.612671 -0.428360 1.165953 0.126806 -1.827236 -0.660115 2.447842 0.462569 -0.248509 -0.701637 1.164253 0.362491 0.084972 0.202172 -0.591372 -1.350069 1.400753 0.142515 0.102199 1.952367 0.967987 -1.453428 -0.417515 0.541637 1.090471 -0.647413 0.896576 1.607449 -0.044578 -1.864488 -0.937774 -1.334619 1.340187 -0.620958 -0.313170 -1.203769
very 0.514272 0.210933 0.190670 -0.765591 1.540877 -0.380608 -1.263382 0.377811 0.075366 0.400815 -0.121390 1.140767 -1.551920 -0.944458 -1.973403 0.116565 -2.844488 -1.837307 -2.007801 0.047638 1.171773 2.225648 0.466530 -0.360235 -0.068972 -0.301927 0.845602 -1.023160 -0.202607 1.385806 -0.948198 -1.671273 1.718772 -1.104809 1.831143 -0.516502 0.575288 -0.857844 -0.300797 -0.346766 0.607359 -0.513069 -0.121383 0.254457 0.038414 -0.013287 0.429389 -1.206354 0.400892 0.064693 0.570088 -0.404502 -0.293605 -0.251371 0.810848 0.822241 -0.942174 -0.986313 0.847739 -0.794561 -0.745127 0.809168 -0.926738 -0.991866 1.110175 -1.025412 -0.566792 0.698746 -0.537972 0.113812 -1.225357 -1.971239 -1.123389 -0.792256 1.544497 1.067814 -0.792751 -2.295011 -0.157583 -0.866155 -0.109661 -0.936467 -1.079017 -0.731927 2.385824 1.151971 -0.286550 -1.111686 -0.412197 1.184324 -1.028435 0.873213 0.813410 0.446285 1.041749 -0.187695 -0.115470 1.242511 -0.557313 -0.321852 0.485170 0.010520 -0.843436 -0.513057 0.484613 -1.094458 -0.066968 0.790428 -1.703386 1.439439 -0.645632 -0.013945 0.295176 -1.130207 1.351285 -0.443711 0.516075 -0.478426 -1.438582 0.258547 -0.493277 -1.197699 -0.137967 -0.667353 -0.843049 -0.371809 -0.700694 -0.584389
like -1.578407 0.733213 -0.158931 0.959937 -1.951144 0.412433 -0.770982 -0.401225 -0.110325 -0.246144 -0.413413 1.669317 0.564719 0.025464 1.313784 -0.468091 -1.058208 0.370261 1.902088 -1.857913 0.720529 0.478653 -0.282964 -0.599179 -0.026672 -0.804650 -0.344916 -0.052849 -0.628490 -1.031371 0.065052 -0.048278 0.417016 0.547862 0.535337 -0.752736 0.855546 -1.838098 -1.813636 -0.295035 -0.057776 1.561203 0.923611 -0.948444 -0.400103 0.401746 0.935048 0.164126 -0.407277 0.436516 -0.312214 0.145210 0.549605 -1.353484 -0.599275 0.191692 0.335148 1.796070 -0.685794 -0.805568 1.223776 -0.335137 1.418113 0.565097 -0.015575 -0.021259 0.259031 -0.889923 -0.138400 -1.270842 -0.481798 0.561839 -1.813446 -0.013775 -0.017264 -0.515228 1.062312 1.397083 -1.457862 0.125968 0.090798 -1.045175 -0.727654 0.930183 0.676541 2.291116 1.687529 -0.827334 -1.127863 -0.149592 -0.629336 0.074429 -0.539533 -1.028461 -0.904555 -0.486712 0.241774 -0.148056 1.084573 -0.286958 -1.142553 -0.990578 0.716583 -0.576437 1.034669 0.498278 2.223337 -0.056362 0.662182 0.129721 0.541753 -0.728645 0.354502 0.037508 -2.124670 -1.530733 -0.193363 0.491651 -0.556696 -0.134823 0.086494 0.686013 -0.793010 1.123592 -0.115685 -1.391359 -0.549120 1.410241
did 0.278013 1.043824 -0.294506 1.617325 1.346454 0.129930 -0.303155 0.285206 -1.136829 1.745360 0.327649 -0.156592 -1.719524 1.264335 0.794877 -0.702503 1.721183 0.707117 0.014609 -0.051193 1.250458 1.485518 -0.583180 -1.347436 0.231403 0.792199 0.118790 0.438961 -0.000745 -0.821572 -1.085164 -0.113128 -2.745472 -1.658191 -0.378270 0.201922 -1.760446 0.066919 -0.407890 -0.653644 0.525347 -0.137623 -0.222585 -0.106295 -0.528084 2.547824 -0.903659 0.289329 0.641671 0.032224 -0.162747 -0.038372 1.364228 -1.204060 0.333387 0.637596 0.804858 -1.769892 -1.798346 -0.490436 0.106621 -1.078893 1.249031 -0.867846 0.413132 -0.816671 0.590982 0.007629 0.585003 -0.121441 0.821347 -2.032063 1.481087 -1.343532 -0.402411 -0.041285 0.055437 -0.269966 0.411978 0.730329 0.908995 -0.642209 -0.083927 -1.283611 -0.500625 1.912732 0.666890 -2.168390 -0.330824 0.028515 0.619456 -1.050177 0.596547 0.859260 2.333648 0.382235 0.606417 -0.690769 -0.439639 0.101205 1.334792 0.066470 -0.414671 0.586057 -0.484400 -0.411350 -1.758948 1.332504 0.789350 -0.085112 -1.383220 -0.494844 0.699922 0.721672 -0.708207 0.699974 0.172315 -0.785067 -0.271192 0.489542 0.636430 0.127119 -0.371272 0.277621 0.728594 0.014814 -0.905179 -0.111267
time -0.377767 -1.901136 -0.331767 -0.393096 1.190062 -0.228941 -1.170419 0.315004 0.551664 1.397867 -0.289612 0.315666 -2.105567 0.156874 -0.258011 0.216378 -2.354321 -0.670905 -0.708297 -0.278352 -0.129882 -0.750056 1.301452 -2.731066 -1.774556 0.792525 -0.245692 -1.036204 0.131108 -1.500151 1.219540 0.672088 -0.658721 -0.541180 -0.976178 0.133016 1.402321 -0.647733 1.515235 0.902145 -0.821231 1.008503 -0.115236 0.095437 -0.508309 -0.047756 1.428415 0.812868 0.814470 -0.179651 0.526075 -0.863424 -0.131167 -0.458456 -0.418859 1.271551 1.125996 -0.848345 -1.775037 1.946204 1.781745 2.549481 -0.738828 0.512056 0.735364 -1.479950 -0.885130 -1.691260 0.775402 -1.210505 -0.888233 -0.465017 0.820830 0.148209 -1.200550 -1.078776 0.931496 -0.997221 0.470372 0.116865 0.199260 0.087022 -1.453704 1.330982 -1.772432 -0.078911 0.220387 0.404491 1.479470 0.181342 2.059679 0.705284 1.379579 0.363997 0.172322 -1.131548 -1.685537 0.902353 -0.108320 -0.095733 0.166512 -0.393612 1.199022 0.060138 -3.055828 1.014409 0.683313 -0.017761 0.233490 0.047194 -1.689268 -0.677129 0.499984 -1.633844 0.412930 -1.754525 1.321375 1.357274 -2.014561 1.307903 2.349660 0.495511 0.982165 -0.334209 -1.610019 -0.447052 -1.324350 -0.781661
its 0.489812 -0.364988 -0.538473 -0.361025 -1.042608 -0.262370 -1.216398 0.902085 0.558390 -1.992793 0.349959 -2.505712 1.146651 0.046506 -1.784322 -0.870343 -0.349492 -0.943833 0.787692 -0.461773 -1.134940 1.322996 -1.258180 1.337087 -0.557015 0.220242 0.654008 0.392082 0.755821 -1.098041 -0.098539 -2.389018 -0.713837 -1.126408 -0.043224 -1.169307 0.242776 -0.354661 -0.504014 0.271554 -0.004542 0.574906 1.695953 -1.092066 -1.457667 -0.485610 0.433397 0.861050 -0.738299 0.152029 0.161226 0.609914 -0.256640 0.797467 1.036256 -0.184272 0.559886 0.799701 -0.679231 -0.557459 0.149570 -0.971349 -1.331557 -0.779115 1.770220 -0.042469 -0.837747 0.400902 0.668743 0.923136 0.990891 -0.935262 0.268576 -0.722782 -0.495123 0.529811 -1.149459 1.562727 -0.042275 1.578257 -0.278289 -0.149675 0.309454 0.438131 0.256379 -1.518151 -0.505728 -0.203785 0.158424 0.030232 1.444231 0.364476 0.201674 0.750864 1.651990 -0.369924 2.019954 -0.408353 0.350805 0.438131 -0.407821 0.559167 1.372752 0.085116 0.015864 0.217708 -0.997231 -0.498019 -0.518270 -1.163330 -1.377728 2.218282 -0.068717 0.844099 -0.209768 0.557868 0.300788 0.853493 -2.305328 2.066509 0.088525 -0.170670 -0.410332 1.425410 -0.188318 0.101378 1.500059 -1.965081
than -0.578296 0.782836 -0.115481 -0.819664 -1.709080 1.920148 0.893510 0.746319 -1.401989 -0.336582 -1.430833 -0.962633 -1.972542 2.709650 -0.653379 0.725651 -0.749558 -0.167287 -1.708872 -0.760203 0.066308 -0.757177 0.915690 -0.709493 -0.574586 0.415109 -0.576780 0.287390 -0.534945 -1.459249 0.602920 0.209819 0.570210 -0.939084 -1.469165 -0.747584 1.923397 0.194613 -0.120637 -0.075621 0.915200 -0.768517 0.513687 -0.145689 -0.415601 -0.881303 0.186133 0.237186 0.109655 -0.160380 -0.865079 0.133661 -0.232282 0.159357 0.953589 -0.719726 1.277598 -0.751565 1.984688 -1.330271 0.577749 -1.028595 1.835620 -1.167442 0.093538 -1.812841 1.917339 -0.541607 0.103546 -0.604761 1.705788 -0.054227 0.970273 0.851730 -0.726232 0.963643 0.516011 -1.000687 0.490268 -0.629457 0.809822 0.435968 0.370326 0.588468 1.454183 -1.486397 -0.246933 1.097936 -1.440648 -0.940449 0.702293 -0.703406 -0.786055 -0.409532 -0.835288 1.623279 -0.486854 0.503518 -0.334518 -0.539241 0.523137 1.325781 0.782106 -2.099739 1.342308 0.416009 -0.405897 0.986891 -0.599775 1.053405 1.140920 1.567490 -0.448739 -0.509935 -1.279943 0.733851 1.314919 -0.018089 0.515780 -0.569688 0.963342 -0.983743 0.559763 -1.870216 -0.776274 -1.327468 -0.832573 -0.589628
other -0.195363 -2.932497 0.639237 -0.043325 0.923527 0.559651 0.197199 1.665276 -0.445524 0.798069 1.337108 -0.146917 0.410346 -0.532484 -0.604045 -1.357767 -0.112153 -0.408731 -0.147316 -0.342095 -0.358419 1.615979 -0.168269 0.846650 -0.091025 -0.084272 0.298731 -1.901189 0.917767 0.121029 -0.048257 0.140488 0.243005 2.591342 0.658964 -0.286983 -0.929646 0.442469 0.766496 0.332580 -0.235868 -1.537313 -1.477983 -0.278777 0.482498 -0.197664 -0.670849 -0.777925 -1.760548 0.318231 2.144063 1.110090 0.116048 -1.640802 2.023952 -0.110150 -2.760112 0.646407 0.854091 1.064779 -0.722200 -1.003934 -0.643292 0.457262 1.434514 -1.421216 -0.485247 -0.189421 0.963371 -0.993575 -0.642374 0.362467 0.611599 0.903570 0.367468 0.531068 -2.548637 0.026209 1.035833 1.349479 0.170650 -0.208245 -0.262578 0.498861 -0.396122 -1.031721 -0.713021 0.585775 0.934346 0.116735 -0.062220 -0.190986 -1.289706 0.376006 -0.641942 -0.360047 -0.534023 -1.476552 0.673340 0.270999 -0.706043 0.974283 -2.824431 -1.759051 0.845232 0.511826 -1.522973 0.017946 -0.617729 0.996353 1.196003 0.075310 0.211439 -0.140268 1.852359 0.289032 1.292415 0.577747 -0.419328 0.980337 0.304934 2.703176 0.558770 0.495881 0.193375 0.780006 0.977602 2.151467
before 0.960941 -0.688208 -0.013287 1.281928 -0.212773 0.454919 -0.513495 1.242530 2.116618 2.116333 1.180553 -0.400033 0.394298 -0.343458 -0.315770 -0.110110 -2.163953 3.446837 -0.901219 -2.336004 -0.521976 1.535341 -0.814068 0.185190 1.201948 -0.248858 -0.735416 -0.231623 -1.197246 1.140095 -0.922594 0.500882 0.994902 -0.859744 0.425877 1.645656 0.020194 0.987857 0.198013 1.025115 0.330041 -1.638596 -0.354548 -0.534603 -0.817534 0.021369 -1.452725 0.855622 1.680732 2.051574 0.536702 1.321487 1.195786 -0.592720 -0.121771 0.618849 1.914048 0.599155 -0.307718 0.741566 0.289242 -0.923899 0.373025 0.219722 -1.501241 0.234277 1.111353 -0.185332 -0.920661 0.785800 0.460881 0.228310 -0.357940 0.957127 -0.533828 2.715666 -0.593552 -0.291947 -1.202109 0.433819 -0.727670 -0.367839 0.760502 0.768593 0.724838 -0.186707 -0.062925 0.978410 2.968614 -2.172328 0.512508 0.253438 0.978171 0.056908 0.429526 1.029896 0.586951 -0.578652 -1.197662 1.570592 -1.302993 -0.317389 0.835342 0.740928 0.584286 -0.548848 -0.631776 0.453476 -1.138925 0.205732 -0.463220 0.578628 1.488184 -0.531554 -1.162007 1.008357 0.414797 -1.511631 -1.750502 -0.121708 1.234687 -0.473342 -1.000672 1.081860 -1.228633 0.242709 -0.002661 -0.292369
about 0.555545 1.061572 -0.320081 1.246801 -0.547621 -0.694677 -2.739223 -0.565174 0.275619 1.865354 -2.058637 -0.687047 -0.058381 0.476125 0.341056 -1.029854 0.160805 1.525426 -0.491708 0.218878 -0.519225 0.647179 -0.143680 0.187768 -0.487135 -0.223035 2.258424 -1.015799 2.088958 -0.390135 0.959569 -1.826092 0.496729 -0.825993 -1.306829 -1.991527 0.434716 -0.744353 0.324242 0.838926 -1.453537 0.460985 1.389183 -0.557120 1.100563 0.382162 0.078342 -0.243571 -0.762480 0.910467 0.322578 1.749037 0.140241 -0.441711 1.867167 -0.880256 -0.762065 -1.410268 -0.501413 -0.878310 -0.867668 -0.145725 1.044579 -1.525208 -1.732219 2.161847 2.951800 -0.947244 0.941138 -1.480420 0.103508 -0.941738 0.550685 1.019370 0.138350 0.255488 1.479715 0.043743 -0.238478 -0.444793 -0.498895 -0.880287 -1.582439 1.395086 -0.632253 0.633789 -0.818494 0.261586 -2.234266 -0.187130 -0.015879 -0.031329 -0.300019 -0.598115 0.412462 -0.561027 0.379609 -0.189576 0.546439 -1.871815 1.609840 0.232518 0.845541 -2.957507 1.504186 -0.083945 -0.957257 2.099971 1.970703 -0.318467 -1.616082 -0.509627 -2.250512 0.754319 -0.961833 1.191020 1.319388 -0.755571 -0.094777 -0.625942 -1.081946 -0.035289 -0.533617 0.061777 -0.184394 1.262475 -1.115996 -0.147797
