3000 128
<pad> 0.000000 0.000000 0.000000 0.000000 0.000000 0.000000 0.000000 0.000000 0.000000 0.000000 0.000000 0.000000 0.000000 0.000000 0.000000 0.000000 0.000000 0.000000 0.000000 0.000000 0.000000 0.000000 0.000000 0.000000 0.000000 0.000000 0.000000 0.000000 0.000000 0.000000 0.000000 0.000000 0.000000 0.000000 0.000000 0.000000 0.000000 0.000000 0.000000 0.000000 0.000000 0.000000 0.000000 0.000000 0.000000 0.000000 0.000000 0.000000 0.000000 0.000000 0.000000 0.000000 0.000000 0.000000 0.000000 0.000000 0.000000 0.000000 0.000000 0.000000 0.000000 0.000000 0.000000 0.000000 0.000000 0.000000 0.000000 0.000000 0.000000 0.000000 0.000000 0.000000 0.000000 0.000000 0.000000 0.000000 0.000000 0.000000 0.000000 0.000000 0.000000 0.000000 0.000000 0.000000 0.000000 0.000000 0.000000 0.000000 0.000000 0.000000 0.000000 0.000000 0.000000 0.000000 0.000000 0.000000 0.000000 0.000000 0.000000 0.000000 0.000000 0.000000 0.000000 0.000000 0.000000 0.000000 0.000000 0.000000 0.000000 0.000000 0.000000 0.000000 0.000000 0.000000 0.000000 0.000000 0.000000 0.000000 0.000000 0.000000 0.000000 0.000000 0.000000 0.000000 0.000000 0.000000 0.000000 0.000000
<start> 0.371244 -0.091154 0.681189 0.847059 -0.385778 -2.190173 -0.598444 -0.867310 -0.014179 0.458410 -1.453461 -0.299789 0.557751 -0.146184 -0.201900 1.737266 0.757659 -0.670269 -0.478357 0.088455 -0.924270 -0.435841 2.197708 -0.486005 0.238763 -2.423842 -2.400483 -0.143408 -1.517426 -0.516181 0.460957 0.934370 0.541910 -0.413540 -0.867289 1.229806 -1.542273 0.080981 -0.262766 -0.000967 -0.932125 0.335860 -0.962206 -0.831234 -0.806346 0.504989 -0.008047 0.431575 -0.501500 -0.737477 0.412288 1.607862 -1.665470 -0.672354 -0.290918 -1.869535 1.067262 0.034985 -0.356753 -1.361543 -0.060138 0.159079 0.993772 2.050928 0.268068 0.541670 -0.020214 0.051447 1.772668 2.330018 -0.264831 0.908530 0.044974 -0.958982 0.162774 -0.016393 -0.921247 1.196357 1.319577 0.229095 1.334957 -0.810852 -0.485442 -0.625882 -1.198380 -0.527995 0.044372 0.446627 -0.060415 -0.249069 -0.297853 1.454659 -0.023292 0.716671 -0.363692 1.714182 -0.273946 0.352730 0.356455 0.266154 -0.113890 -1.542344 0.583479 0.791073 1.509916 1.070265 -0.744946 1.216117 0.187423 0.970550 0.583194 1.264959 -0.750346 -0.159360 -1.211486 0.457797 1.786605 -0.509843 2.179326 -0.569059 -0.740861 -1.244058 -1.991245 1.092102 -0.100771 0.053291 -0.874223 -0.845969
<end> -0.430150 1.459390 0.467926 2.006505 0.487155 0.657381 -2.291986 1.074232 0.629516 -0.846472 0.413474 1.532606 0.257070 0.659597 -0.538431 1.220811 0.372068 -0.207024 -0.663289 -0.724475 -0.336320 1.268490 -1.766928 1.811952 -0.424813 2.200553 0.471216 -1.032791 -0.614339 0.168934 -0.070606 1.274414 1.349508 0.043010 1.571790 0.577437 -0.605980 1.097230 1.408885 2.472216 0.736513 0.711408 -0.175259 -0.420598 -1.670274 2.003358 -0.337259 -0.433671 -1.512001 -0.927195 0.169329 -0.312520 0.394977 -1.130679 1.618807 1.823498 1.468989 -2.045958 0.849384 -0.639136 0.293871 -0.821296 -0.491301 -0.722209 -0.649532 0.071705 -1.715148 -0.805514 0.179387 -0.016357 -0.089802 -0.489875 1.389750 -0.622420 0.615219 0.523359 0.447771 -0.393735 -1.121158 1.342105 -0.368689 1.271580 0.180799 -1.122630 0.111538 1.604917 -0.245116 -2.659999 -0.427610 -1.134469 1.296998 -2.183538 -0.435485 0.365720 -1.576276 -1.233721 -0.577820 -0.614482 0.533815 1.193485 -0.074988 -1.251857 -0.123934 -0.093732 0.639583 1.064211 -0.482602 0.066172 -1.573131 0.761242 0.535289 0.886253 0.682551 0.763051 0.657863 0.661791 0.683511 0.050578 0.689618 0.472801 -1.429650 -1.121098 -0.888826 -0.033703 0.848005 0.165457 -0.474576 0.947824
<unk> -0.163295 -0.801092 -1.518775 -0.353468 -0.388771 -1.303717 -1.051708 0.171634 0.501393 2.323965 -0.290268 -1.125539 -0.209935 -0.496441 -0.143857 2.067755 -0.170881 -1.101882 -0.763774 -0.920725 -1.226161 -0.623963 -0.888764 0.819852 -0.448969 0.011044 -0.774068 -1.286978 -0.193524 0.928097 0.117787 0.532047 -0.516999 -0.513570 0.058451 0.180692 0.646552 -0.411707 1.005844 -0.942096 -0.400759 0.022509 -0.491028 -0.527730 -1.015173 2.509911 -0.852263 0.467271 1.355811 -0.486624 -1.682525 -1.975948 -0.139899 0.065704 -1.063905 1.459617 1.766363 0.368796 -0.681177 0.675224 0.313434 -0.685601 -0.368790 1.136724 1.019658 0.880546 -1.140120 1.057324 -0.435878 -0.473778 0.404706 1.129136 1.404899 0.209804 1.412648 0.815790 -0.783462 0.284759 1.303416 1.402530 0.199972 -1.202077 1.797375 0.082981 1.851943 -1.934537 -0.748746 0.915176 -0.315033 1.438084 0.924348 0.316525 -1.359370 -0.663659 -0.544794 0.661569 -1.745119 1.831051 0.829909 -0.172103 -2.063129 1.979605 0.697366 0.892905 0.523483 -0.105737 1.007008 0.964899 -0.427930 -0.612951 0.077462 0.126854 1.219471 1.274028 0.702905 2.362522 -1.318589 -0.967266 1.324935 0.602451 0.841795 0.525088 0.020113 -0.603096 1.263301 -1.633921 1.774538 0.118460
the 0.234113 0.167363 0.439314 -0.692910 -0.902434 -0.980147 -1.508205 1.899535 0.572156 -0.017820 0.716648 -0.735632 -0.873100 -1.119708 1.778805 -0.874640 -0.460522 0.557624 -1.340916 0.095755 -0.665842 -0.622465 -0.246306 -0.865147 -0.619142 0.577693 -0.463195 -0.060201 1.624950 1.179064 -0.932542 0.902656 1.094121 0.668964 1.668971 0.544921 -0.316708 -1.024988 -0.553503 3.085872 -0.512974 1.309869 0.031281 -0.313617 -0.348201 0.478295 0.042260 -0.330429 0.624910 -0.877278 1.108549 1.009190 -1.844966 0.349566 0.015139 1.168886 -0.197571 -0.348706 -0.456607 -1.122210 1.930925 1.822445 1.029018 -0.114213 1.423163 -0.079910 -0.230932 0.197768 0.523687 1.704741 0.352162 1.095133 -0.439416 -0.167693 -0.249358 0.489443 1.114221 -0.789448 -0.805285 -2.521937 -0.313043 0.815389 0.117670 -0.939947 -1.324857 -0.083712 -0.073213 -0.509408 -0.814792 1.716468 -0.492649 -0.254609 0.314081 0.432902 -0.110218 -1.056686 -0.456001 -0.233887 0.956575 -1.009757 -0.017507 -0.189394 -0.035661 0.790169 0.916504 1.011118 -0.484797 2.345749 -1.218096 -0.175740 -0.906565 0.294799 -1.920426 -1.572172 -0.177048 -0.346888 -1.024240 0.694609 0.532226 -1.077842 0.939689 0.769486 -0.767873 -0.075193 0.119119 0.026041 -1.244010 1.422851
and 1.768647 -0.160249 1.093241 -1.454294 -0.854695 -0.106976 0.974122 0.476133 1.520351 0.746532 0.302750 -0.647722 -0.466309 0.666004 -0.407741 0.934581 1.087009 -0.914965 0.484289 1.072816 0.552843 -0.446341 -0.289624 0.135874 -0.290200 -1.137565 0.538801 -1.825538 -1.067465 2.160039 0.657140 0.068975 -0.772524 0.427969 -0.709909 1.675060 1.122762 -0.296396 -0.630640 0.134591 -0.025330 1.609681 -1.165699 1.555983 -0.068515 -0.391793 0.487175 -0.177903 -1.460092 0.416929 -0.330203 -1.181722 0.675660 1.245596 0.249219 0.452985 0.370297 0.082871 0.274340 -1.040272 -0.275249 0.585607 1.307370 -0.263027 0.335504 2.065679 0.158940 0.689250 -0.538348 -0.298705 0.493756 -0.082319 -0.822526 -0.754233 -1.362716 0.029115 0.517115 0.063763 1.353754 -0.361288 1.062984 -0.985627 -0.603748 2.013079 0.073890 0.009851 -0.354925 -0.544665 0.996365 -0.250428 -0.928265 0.171220 -0.310014 1.277845 0.691131 0.146726 -1.436897 0.876308 2.600197 -0.061489 0.535400 0.113980 -0.245274 0.359802 -0.370655 -0.665271 -0.410903 -0.937852 -1.675293 -0.687911 -0.569700 0.768982 0.602660 -1.640023 0.791877 0.103151 -0.226267 -0.145763 -1.207884 -0.350557 0.486363 0.771234 0.069202 -0.620368 -0.667309 -0.231721 -0.519752 -1.079266
of 0.158607 0.132374 1.124137 -1.003767 -0.556969 0.285586 0.363908 -0.428784 1.561225 -1.121026 -0.197775 -0.808974 0.863572 -0.934680 0.543063 0.400975 -0.415354 0.703854 0.948676 0.336732 -0.029657 0.673999 0.379582 -0.183971 0.668639 0.691668 0.082352 -0.812966 -0.814773 -0.051920 -0.348398 0.997362 0.537404 -0.617472 1.106616 0.342885 -0.868566 0.417248 0.230671 0.274586 -0.897998 -0.111484 -0.849126 -0.945213 -0.023833 -1.192521 -0.903434 -0.655371 -1.100662 0.079555 1.121098 0.114563 0.140947 -0.710928 0.089648 0.889546 -0.117968 -0.738949 0.543819 -0.171174 -0.876937 1.386308 0.639405 0.041995 -0.739412 0.148751 -0.583135 -1.914540 -0.167947 0.495780 1.586908 -0.246345 0.668403 -0.924449 0.511766 -1.127069 -0.887996 -0.519011 -0.174821 -0.184676 -0.026938 -2.340580 1.573966 -0.022687 1.386511 0.248178 -0.250957 -0.469545 -0.117680 -1.068204 1.060899 0.051610 -1.418340 -0.095780 -0.415978 -0.713118 -1.151573 0.041462 -1.411194 -0.211592 -0.221152 -1.412778 0.562784 -1.060612 -0.135479 -0.110431 -0.133715 0.174726 -0.178567 2.218822 -0.337662 -0.002714 0.211287 0.515247 0.350677 1.236448 -0.047914 -1.419888 0.680560 -0.955587 0.558502 0.274852 -0.303303 -0.574622 -0.109180 -1.665829 0.487011 -0.053211
to 0.364038 1.184226 -0.622043 -0.188203 -0.726304 -1.588745 0.822543 -0.125150 0.330225 -0.151964 -0.717877 0.560059 2.648795 -0.540383 0.928115 -1.257653 0.612803 -1.372098 -0.310463 0.273191 -0.628130 0.123231 -0.954009 0.604562 -0.546459 -1.033301 1.299031 -0.613581 0.162724 -0.162704 -1.764204 -0.165370 0.345370 0.442050 -0.037772 -1.860122 -0.699433 0.133900 0.190443 0.559981 0.981192 -0.127974 -0.991691 -0.759924 -0.247231 -0.040688 -0.281971 0.024962 -0.650531 -2.067980 1.127512 -0.133072 -0.847680 -0.709492 -1.347622 0.864221 -0.996310 -0.256193 1.848873 -1.038700 -0.581820 -0.619720 -0.253611 1.217340 -1.090156 0.632349 0.614178 0.432557 2.752106 -0.904618 0.087184 -1.264425 -0.195019 1.554577 1.138869 -1.122469 -0.776661 1.407614 0.591736 -0.071944 1.671139 -0.512569 2.240254 0.615919 -0.562336 1.335853 0.162502 0.347317 0.320864 -1.166310 0.130027 1.115342 -0.332340 0.653793 -1.034149 -0.027566 0.069748 0.113902 1.536795 0.459322 -0.409457 0.304345 -0.998934 -1.187392 1.227897 0.285851 -0.642119 -0.988351 1.332176 0.468235 -0.685447 -1.345151 -0.015265 -0.279757 -0.095978 1.489440 -0.437913 0.515550 1.169431 1.588793 -0.281902 -1.427160 0.895838 -1.049542 1.522016 -0.365426 0.220477 -0.887914
a 1.110302 0.548965 -0.117355 0.417713 0.211056 -0.419591 -1.478162 0.361154 -0.618857 -0.892141 -0.579133 -1.439796 -1.019419 1.344327 0.207086 1.807962 -0.242190 -0.033587 1.692253 -0.771922 -1.294015 -1.290484 -0.768140 -1.265933 1.845586 0.519654 0.722302 0.124741 0.016680 -1.962576 -0.037937 1.226237 0.657689 0.246742 0.238161 0.001541 0.393810 -0.109055 -0.545527 -1.577735 0.758449 -0.008342 1.504747 0.817870 0.667541 1.115825 1.934084 -0.715209 -0.501951 0.091237 2.544708 -1.583473 0.571359 1.349990 -0.119428 -1.283539 -0.695951 -0.631318 0.000262 -1.901861 0.465103 0.432181 -0.379664 0.203633 0.584815 0.525235 0.341004 0.112081 1.205621 -0.434875 0.660388 -0.914564 -1.241787 -0.025015 -0.530167 2.430758 -0.004573 1.510587 -0.986730 1.298191 0.149424 0.097287 -0.820428 0.065553 0.733975 -0.398354 -1.565420 -1.128536 -0.384249 -1.650537 -1.108494 -0.282108 1.194968 -0.468602 0.142852 0.944659 -2.111415 0.659617 0.543251 2.655623 2.982204 -0.018796 -1.744787 -0.442700 -0.457465 -0.018247 -0.714182 -0.269863 -2.284778 0.642829 0.598236 0.692125 0.422644 0.529629 1.758565 1.724580 0.778660 0.025643 0.095281 -0.589959 -1.169889 0.384526 -1.050291 0.591837 -0.931688 -1.459346 -1.963932 0.019927
in 1.258378 0.035650 -1.284028 1.062960 -2.899921 -0.581570 0.351075 1.466815 0.869187 0.354392 -0.409947 -0.917269 -1.568840 -0.172603 -0.079886 -0.218219 0.603905 1.272592 -0.097935 1.673010 -0.014447 0.603870 0.324444 0.257760 -1.794105 0.749956 0.888471 1.395843 -0.523768 -0.061576 -0.953186 -0.123689 -0.631385 -0.748554 -1.202134 -1.448759 -1.547021 -2.144967 0.232176 0.314849 0.032157 -0.191158 -1.541939 -0.188332 -1.744345 0.959914 -0.967280 -0.262815 -0.173596 -1.115924 -1.921906 0.130517 -0.057503 -0.902444 1.048254 1.639576 1.122002 0.588493 1.347074 0.544921 0.490538 0.023093 1.246270 -0.065877 0.959115 -1.784249 0.456363 0.748237 1.111120 1.631456 1.681165 -0.243266 1.383705 -0.473241 1.269870 -1.669396 -1.255295 2.167113 0.471173 -0.898862 -0.207066 -0.651094 3.256604 -0.017699 0.788635 -1.415901 0.338114 0.859425 0.911937 1.873972 -0.054374 -1.084230 0.307182 -1.900849 -0.198314 -0.052606 -1.810421 0.242311 -0.045579 0.098518 0.352987 -2.211904 0.067729 0.544280 0.293325 0.820536 0.106816 0.211445 1.298036 -1.184479 -2.003086 -0.097689 1.054839 -1.452841 0.156426 0.508444 0.040385 0.457499 -1.319064 1.233350 0.232952 1.925972 -0.417917 0.223278 0.176855 -2.670863 -0.266107 -0.168531
i -2.680208 -0.614141 -3.280473 1.350767 0.027581 -0.660868 -0.014735 -0.185002 -0.037175 1.902189 -0.502620 -1.880862 0.120721 -0.563885 0.419254 0.032817 1.266814 -0.207761 -0.017647 1.334884 -0.783088 1.363333 -2.405247 1.615283 -1.631911 0.714888 -0.157677 0.585212 -0.158860 -0.568088 -0.508491 0.768752 -0.914616 0.253596 -0.714646 -0.173328 0.887607 0.530976 1.631635 0.329385 -1.421030 -0.344950 -1.640272 0.769548 -0.314689 0.859488 -0.564925 2.106851 0.686960 -0.605566 0.243652 -1.282043 0.367582 0.965113 -0.739776 -0.091310 -1.010562 0.400666 1.032481 -1.901785 1.303480 2.449669 0.883369 0.585111 -0.852251 -1.474995 -0.632573 1.240212 -1.114404 -0.167058 -0.319139 0.626582 -0.497960 0.927772 -1.259096 -1.507726 0.641143 -0.808039 -0.509145 2.259219 0.386802 0.883983 -2.077157 -1.072329 -1.496659 0.122379 -0.286171 0.809806 0.158208 1.797409 0.842031 -0.618417 -0.290246 -0.090214 -1.020270 -0.184961 0.217000 -1.124978 -0.774685 1.564969 -1.132656 0.887979 -1.326482 -0.098109 -0.691865 -0.894539 0.441187 0.191759 -0.279399 -1.951388 0.202748 -0.153206 1.256796 -1.207872 -1.047107 0.651339 -1.032034 0.854371 0.612751 0.635942 1.337952 0.305498 -0.097532 -1.499311 -1.905139 0.510697 0.434264 -0.966729
he 0.627118 -1.174943 -0.602679 -0.259115 -0.374259 -0.049111 1.996853 -1.348280 0.635646 -1.555649 0.492996 -0.323449 -0.311511 -0.690498 1.175614 1.367747 0.831490 -0.515511 0.433493 0.199905 0.786463 0.735959 0.673765 0.093179 0.678133 0.123004 -1.217378 0.213665 -0.759681 1.073403 0.968760 2.299265 0.411155 -0.420461 -1.896829 -0.053825 -0.518399 1.762426 0.375248 -0.927491 -0.532903 -1.997626 1.157788 0.571284 -0.612979 0.823327 -0.754474 0.521778 1.143158 -0.384497 -1.212640 -1.725798 -0.036733 0.787645 0.140070 -0.629586 0.700876 0.088455 -0.225727 0.206155 -0.205091 0.256708 0.046618 0.084257 0.449887 1.175783 0.135548 -0.474382 0.691939 -0.222981 -1.411651 0.202203 2.206630 -0.101170 1.805383 0.409696 1.099510 2.561707 -0.450426 0.322656 -0.892263 -1.846887 0.484695 -0.296535 1.325094 1.908195 -0.737042 0.274861 1.995380 -0.587208 1.130620 0.126764 -1.046908 0.357309 1.444500 0.773270 -1.152458 -1.423042 -0.694578 -1.333460 2.330189 1.035210 -0.160328 2.263410 0.308995 0.869308 -0.412688 -0.575806 2.284986 0.541176 -0.723330 -1.043085 -0.810815 1.442669 0.895230 1.241307 1.341954 0.638837 0.381277 1.037723 -1.200338 -0.046987 -0.707179 -1.543453 0.020455 1.644090 -0.534170 0.183205
that -0.555815 0.389415 1.183376 0.968749 0.397758 0.267224 -0.165841 0.855102 -1.394596 -0.329150 -1.189031 0.781850 1.089886 -0.088223 -0.504703 1.085875 0.321849 -0.004192 -0.979127 -2.643022 2.638872 -0.516692 -0.619770 -1.921825 2.189334 1.818694 0.713983 0.136675 -0.865776 0.339850 1.833228 -0.891656 0.298157 0.012023 -1.148916 -0.476800 -0.195194 -0.081618 1.401918 0.354814 -0.573377 -0.686389 -0.591605 -0.241407 0.165732 -0.100164 -0.075633 1.062472 1.134277 -1.020367 -0.240467 -0.157604 -0.484631 -0.280371 1.294276 -0.830029 -0.469838 -0.711197 -0.398971 -2.677454 -0.101211 0.126984 0.721883 0.846165 0.775653 0.107930 -0.975129 0.820341 0.219069 -0.089106 0.693367 -0.094261 2.735420 -1.049772 0.167720 1.524411 0.269309 2.051152 1.176673 -0.121041 1.516834 1.637538 0.013236 0.679934 0.758460 -0.877330 0.564226 1.685883 1.079024 1.740884 -0.446769 0.343497 0.269245 -1.534519 -0.725083 -0.039779 -0.646696 -0.192025 -0.754228 0.094738 0.007951 -0.201390 -0.643904 -1.427773 -0.201694 0.537617 -1.171164 -0.366058 2.019369 1.065863 0.083125 0.955905 -1.474049 -1.465531 -0.325259 0.407643 -0.178954 -2.691605 -1.355160 -0.552629 -0.169875 1.536837 0.725072 0.222486 2.269847 0.228167 -0.083848 -1.120644
his -0.103123 2.091979 -0.140654 -0.611862 0.371102 -0.675855 0.144251 0.263861 3.341909 0.058331 1.042081 -0.369827 0.216083 -1.324232 -0.245134 0.252245 0.318764 0.084867 -0.672091 0.524673 -1.492572 0.815923 -0.752643 0.861395 0.766868 0.136305 -0.613280 -0.426911 -0.708492 2.704823 -0.004136 -0.598207 -0.858019 0.153636 1.843165 -0.383696 -0.919142 2.279092 -0.132455 -2.362042 1.270608 -0.144270 -0.662361 -1.625397 -0.128014 1.934199 0.525905 0.209500 -1.391057 0.859518 -0.057550 -0.874439 0.428603 0.016423 -1.344751 -0.549974 0.218360 -1.176317 0.665106 1.806532 -0.119369 0.139947 -1.012658 2.131337 2.142500 -1.099996 -1.771068 -1.973347 0.556917 -0.711041 0.402311 0.795427 0.168515 -0.790781 1.056170 2.791273 1.069351 -0.288825 -2.671375 -1.276639 -2.802215 -1.068895 1.614251 -0.806024 0.901755 -0.059070 0.011434 1.042826 0.856981 -0.745743 1.174336 0.815968 -2.019500 0.276865 -1.155464 0.681860 0.881693 0.363196 -0.732489 -0.344708 -0.785274 -0.553267 0.770117 0.051505 -2.155756 -0.637202 0.897226 -0.378083 0.611531 0.247135 2.397583 -0.326948 1.495236 1.259884 -0.032946 -0.108188 -0.285755 0.277119 1.049069 1.001932 0.246273 -0.990302 -1.527665 -1.749728 -1.282771 -0.357213 -2.176355 -0.354462
was 0.432942 2.916627 0.633867 0.037566 0.088274 -0.001730 -1.077712 0.829705 -1.099988 -0.010884 0.891936 1.830482 -0.056859 1.280811 -0.388148 -0.786370 -1.273588 0.977228 -0.820618 0.146131 1.319424 0.966121 -0.075197 0.126641 -2.383902 -0.684236 -2.156571 -2.313300 0.621177 0.354982 0.531503 -0.899729 -0.821859 -0.159797 -1.200837 -0.913539 -0.583192 0.476198 2.042657 -1.077034 -0.026537 -0.919367 -0.166075 0.285457 1.746842 -0.304406 0.258586 1.580044 -0.736737 -1.486716 0.732200 -0.990444 -1.423973 0.447212 -0.576537 0.810949 -0.496401 0.627316 0.614281 0.048163 0.802605 0.198884 -1.252501 0.249358 -0.994301 1.267206 0.105090 0.229513 -0.697347 -1.311200 -2.601249 1.842981 -1.437883 0.733048 -1.066925 -1.755675 1.297603 0.716167 0.547687 -0.542728 -0.742382 -0.933834 1.858587 -1.568673 0.620694 -0.516499 -0.663114 0.479923 -0.340587 -1.297233 -0.158441 0.280996 0.224663 1.063298 0.727301 1.320640 -1.715957 0.412065 1.377920 -0.099955 1.324399 1.210989 -0.816330 -0.610217 0.290884 0.063079 -0.178106 -0.320631 -1.186704 -0.936996 1.495158 1.618100 -0.471331 -0.932870 -0.217354 0.016410 1.903085 -0.631043 0.926860 0.380005 1.375590 1.059460 0.351027 1.865134 0.201189 0.786458 0.133244 0.787987
it 0.144264 -0.335727 1.345051 -0.309877 0.753902 0.672621 1.462580 1.394855 -0.989429 -1.813200 0.100072 -1.318820 1.820528 -1.369801 -0.487120 -0.880303 -0.710702 0.584695 0.857671 -1.388992 0.730643 2.310889 0.525827 0.010305 1.448608 -2.436120 -1.517671 -0.004508 -0.323459 -0.867457 0.253545 0.309744 1.453851 -2.365815 -0.836619 1.149909 0.680416 0.066658 -0.566638 0.621512 0.302659 -0.779722 -1.095719 -1.249117 -0.558259 0.840134 1.385375 0.653162 0.603128 -1.661377 0.838380 -0.190650 0.172873 1.101982 -0.481309 -0.882938 0.368415 -0.415322 1.634172 -0.555373 0.312503 -0.431142 -0.898570 1.279344 -1.350986 -1.525666 1.591378 0.169194 0.025848 -2.387825 -1.018670 0.283431 1.190018 -0.002547 0.439207 0.307398 1.302044 -0.551205 -1.698839 -1.375784 -0.702685 -0.243476 1.089820 -0.952741 0.684844 1.975137 -1.512975 -1.234579 -2.516059 1.575216 0.126462 -1.180165 -0.556193 -0.570513 -1.237449 -0.959317 2.834678 1.006457 -0.071641 -0.687994 0.092260 -0.069126 0.597225 -0.870794 2.154352 -1.784481 -0.598344 1.130341 0.141546 0.029922 1.286720 1.063461 1.236164 -0.796555 1.179422 -1.618571 -1.099353 -0.682196 1.382281 0.376338 -0.584093 -0.343178 0.121556 -2.618405 2.368719 -0.191017 0.251798 1.686818
you -0.501613 -1.275660 -1.905530 -0.686852 0.356831 -0.412627 -0.960530 -0.661358 1.026579 0.065154 -0.117891 -0.507955 0.707824 1.212775 -0.718084 0.708236 -1.073777 -1.654336 1.193308 0.097695 -1.256247 -0.406032 -0.596220 0.677953 1.595509 0.250301 -0.699392 -0.227063 -0.694580 -1.198439 -0.393133 1.365035 1.562168 0.346681 -0.754475 -0.344028 -0.873783 -0.829625 1.045061 1.275022 -0.285803 0.361443 0.011352 0.700137 1.508557 1.304740 -1.306000 1.568761 0.952711 -0.992839 0.180474 -0.591943 0.100743 0.385470 0.463549 -0.198822 0.003692 0.079253 -1.068291 -0.381338 -1.091442 1.836183 -0.310545 1.369014 -0.302611 -0.724801 -1.122836 2.102943 1.702205 -1.286366 0.516351 -0.435352 -0.641745 -0.116930 1.153561 0.897487 -1.257470 -0.414133 -0.446842 1.859779 -1.502191 -1.610259 0.351685 -0.410149 1.419482 -0.102455 0.663917 -1.928047 -0.015647 -0.533490 0.811167 -0.628583 0.802416 -0.865846 -0.976894 -0.623961 0.207359 -0.604927 0.242768 1.385709 -0.694619 -0.664295 -0.172664 0.375601 -1.286401 0.463013 -0.777577 -0.648948 -0.787139 -0.088998 -0.399939 -1.624002 -0.374691 0.302767 1.440130 1.412758 -1.649231 -1.172704 0.678873 -1.931256 -0.665973 1.256716 -1.880494 0.354746 1.934863 0.168601 1.070432 -0.877819
with -0.420479 0.177075 0.900162 1.238991 0.050977 2.124041 0.113256 0.545529 -0.403988 1.511517 1.777161 -0.568122 0.208211 -0.778736 -0.789976 0.535402 0.360533 -0.076273 -0.354161 -0.646199 -1.743022 0.376474 -0.218997 -0.029258 0.864492 0.793307 -1.229409 0.502696 -1.160240 -0.979302 -0.934347 1.502022 1.179817 -0.580814 1.371315 -1.267442 -0.012362 -1.625394 1.220409 0.732419 -0.996606 0.473808 0.555243 -0.452590 0.640209 -1.023623 0.672282 1.237781 -0.012829 0.360156 -1.024832 -0.163466 0.242085 0.320701 0.566677 0.008723 1.345461 0.585449 -1.823928 0.543160 -0.506868 0.356014 -0.792381 -0.418190 0.243733 -0.132224 0.265891 1.125267 0.053285 -2.038222 -0.787393 0.388393 -0.157606 1.776064 0.368942 1.260038 0.635251 -0.343858 0.388065 -0.182481 0.091261 0.646398 0.305404 0.443651 0.386617 1.044614 -1.796825 0.279145 -0.690690 -0.641677 -0.656564 -1.815055 0.483505 -2.663499 -1.227037 -0.349813 1.713750 0.292546 -0.409444 -0.245626 -1.506566 0.626751 -0.218926 -1.550707 0.188873 -0.699541 0.351050 1.133943 -1.500254 1.163502 0.087092 -2.595333 0.645782 0.862851 -0.608620 1.776925 -0.116405 0.901867 1.568222 0.416220 -0.958227 1.124439 0.192605 0.170028 1.449090 0.149274 0.171109 0.048771
is 0.338190 -1.129358 -0.985381 -1.085269 -1.342210 -0.481137 0.346772 -0.827948 2.245336 0.242032 -0.011779 -0.246857 0.135033 -0.409740 -1.043104 0.702926 1.592371 0.501104 -1.463774 -1.078462 -0.641875 -1.581947 -1.125156 -0.533602 -1.371799 -0.702612 -0.594567 0.195414 0.359237 -0.852992 1.746200 0.759312 1.298195 -0.562764 -1.566133 -0.176116 -0.346930 0.066288 -1.509606 0.180758 -0.305336 -0.298230 -1.275203 -0.274569 1.469692 -0.562271 2.259109 -2.498686 0.219581 1.797083 -0.235839 -0.850746 -0.594954 0.221564 0.261839 -1.389423 0.671473 0.979527 -0.448858 1.548947 0.156254 0.180722 -1.515045 -0.986031 1.717008 0.710190 0.147871 1.913979 -1.051367 0.444540 0.797019 0.030273 -1.736558 -0.492269 -1.479142 -2.073180 -1.909063 0.904792 -0.318956 0.812055 0.206910 -1.380820 1.174464 1.118297 -1.487642 1.436670 -0.546660 -1.029178 0.241310 -0.746381 1.091190 0.499250 1.558234 0.329003 -1.559380 0.276126 0.453866 -0.243614 0.355768 1.356041 -0.953873 0.835376 -0.591092 -1.392279 0.630384 -1.597656 -0.970496 -0.134952 0.479333 -0.223332 -0.209501 1.977841 0.136456 -0.332440 -0.209484 -0.499324 1.220907 -1.558114 -0.173957 0.291552 -0.568699 -1.652429 0.313366 -2.070840 0.474654 -0.248027 -0.579485 0.618597
as -1.752764 -0.355538 2.052178 1.068568 -2.098403 1.302385 1.562038 -0.652610 0.000227 0.446826 0.196130 0.350914 1.036079 -1.580717 0.801902 -0.286931 0.494376 0.051898 -0.463265 0.504796 0.700439 0.033807 2.086520 -0.402433 -0.795540 -0.896477 -1.183303 0.393741 2.123415 0.515449 -0.324825 0.523611 -0.637645 0.897642 -0.346764 0.590939 0.976545 1.788209 0.123228 -0.018660 0.447757 1.260407 -0.698531 -1.371594 -2.895400 -1.138524 -1.724049 -1.220447 -0.884770 1.437556 3.354277 1.003499 -1.113795 0.577432 1.216689 -0.230278 -1.347291 0.684050 0.803728 -0.669266 1.136883 -0.779397 1.009780 -0.172112 0.546074 -1.038829 -0.180258 1.887853 -0.835283 0.301027 0.996729 -3.685310 0.384811 -0.425154 0.482019 -0.515626 -1.111160 -0.029595 -1.027277 -0.465505 -0.490664 1.237535 0.681714 0.176491 -0.990972 -0.277979 0.607449 1.737179 2.032655 -2.902695 -0.304238 -1.197434 0.443740 -1.113968 -0.209390 0.121521 1.727138 -0.879591 -1.304713 -1.762861 0.570919 1.033859 -1.010850 -0.176157 -0.020938 0.848473 -0.478037 1.264273 -0.444338 0.013090 1.501757 -1.098153 0.679508 1.652885 -0.609771 -0.001761 -1.568789 2.714154 3.082549 -1.082932 1.062092 -1.844631 2.038159 0.159655 0.707834 -0.272992 0.167401 -0.589591
not -1.909655 -2.011747 -0.388317 -0.426919 0.713760 0.755027 -1.245026 0.841004 -0.693667 -0.104973 1.443186 -0.902773 -0.092793 0.481147 -0.713686 -0.103282 -0.534333 -1.465290 -0.305547 -1.974044 -1.274379 -1.010391 -1.738614 -0.590088 -1.127208 -1.274531 -0.501709 -1.419945 0.405409 0.358216 -0.091436 -1.143893 -0.138570 -0.669710 1.685796 0.345155 0.659711 0.371378 0.846312 0.077052 -0.297513 -0.524652 3.032796 -1.645560 -0.296841 1.773978 -0.200771 -0.069439 1.065913 1.894778 0.279566 -0.366744 0.094655 -0.156026 -0.586612 0.652847 0.171228 0.119569 -1.096557 -0.645252 0.392483 -0.180028 -2.537907 0.399637 1.987115 -0.219000 -0.913128 -0.482938 1.981434 2.213821 -1.325471 0.656728 -0.996734 0.710866 1.039346 0.633425 0.634283 0.707206 -1.330499 2.005438 -0.463701 -0.418999 0.583033 -1.296061 -0.564623 0.399911 0.574364 -0.072355 0.865894 -0.987406 -1.323169 0.439427 -1.057922 -0.213076 0.310104 -0.001207 0.613217 -0.399340 -3.053569 -1.174041 1.113180 -1.352010 0.965126 -0.888285 0.132484 0.173148 0.664911 -0.413423 -1.341016 1.896414 0.260167 1.935109 -0.578877 -0.633257 0.567089 -0.190339 0.401444 -1.068927 -0.119913 -0.896207 -0.109080 0.049863 -0.201787 0.461667 -0.164168 -0.320903 0.659913 0.864369
for 1.037364 0.438376 0.708725 0.171956 -1.038611 -0.041892 0.494630 1.221576 -1.004034 -0.707143 -0.440573 0.435864 -1.750051 0.780871 -1.332986 0.455945 1.258940 0.370579 1.041747 0.316707 -1.174783 0.565127 -1.309015 -0.104699 -2.645884 -0.672331 -2.373332 -1.943265 -0.778365 -0.102514 0.196598 -1.155678 -0.343127 -1.461015 -0.357357 1.282119 -0.506781 1.567603 0.101709 -0.466634 0.524213 -2.406161 0.057091 -0.369450 -0.145748 0.134310 0.332250 -0.315421 -0.610069 -0.489468 0.404846 -0.357137 -0.348710 -0.163947 -0.491159 -0.866602 2.607333 -1.513144 -0.459857 -0.171418 -0.666176 -0.180300 -0.186267 -0.538851 1.893432 1.007772 0.828660 0.307545 -0.192094 1.054403 0.363046 1.335147 -0.069004 -0.379538 0.661411 0.444448 -1.111700 -0.532859 -1.577704 -1.060644 -0.709089 0.725242 0.212878 -1.504719 -1.099910 -0.111562 1.174642 -1.803218 -1.868920 -0.943439 0.234513 0.860120 1.690313 0.234475 0.905176 -0.113745 0.572099 1.092189 -1.118708 -1.213252 0.533928 1.135333 0.926843 0.014904 -0.689980 0.532368 -1.642637 -0.402791 -2.510671 -0.182598 1.084158 0.831662 -1.455799 0.783029 -0.574384 0.046662 -0.204270 0.354616 -1.248877 -0.259243 0.064371 -0.619424 0.295285 0.649245 -0.357500 1.742601 0.241798 0.545339
had -0.955125 -0.500548 0.870185 -0.499699 0.437944 -0.589613 0.859694 -0.070119 -0.873924 -1.749461 1.665738 0.815017 -0.765912 -1.872827 -0.499034 0.957795 -0.552154 0.757671 -1.516624 -1.333325 -0.198815 -0.279305 -1.391896 -0.454978 -0.336135 -0.664997 0.739796 0.281886 0.383367 1.177054 1.798467 -0.301084 1.606973 0.298404 -2.298272 -1.069651 -0.073141 -1.020423 0.701621 -0.280816 -2.485895 0.016378 0.464046 1.070014 -0.554334 0.242913 0.506313 -0.585379 -1.114045 0.452857 0.230437 -1.685593 0.844059 1.107212 -0.096952 0.816779 0.058348 -0.197721 -1.667951 -0.247113 -1.157777 -1.006036 -0.229170 -2.249803 -0.125933 0.269767 -0.019887 0.439016 0.382854 1.947283 0.983035 -0.918631 -1.745558 -1.234250 0.958777 0.453588 0.721628 -1.751167 0.735990 1.180483 0.571529 -0.184621 -0.075864 1.271899 0.996776 0.468752 1.300227 -1.078577 0.268381 0.949387 0.825470 -0.553023 0.425388 -0.594617 -0.959840 0.090571 0.377168 0.972143 -1.090511 0.059294 -0.389570 1.515510 1.467557 -0.351096 -1.310185 1.651089 -2.297329 0.131760 -0.292628 0.191126 -0.356562 -0.065592 -0.082233 -1.526790 -0.966534 0.489953 0.548284 0.469839 -1.297079 1.627590 2.151687 0.552268 1.077914 0.585771 -0.468747 -2.143822 -1.305334 -1.494848
but 1.728787 -1.027625 -0.409753 -0.841730 0.680490 -0.611378 -0.733826 -0.191689 0.335173 -0.441657 -0.879118 -0.286068 0.137512 -0.926821 1.258177 -1.992438 2.212592 0.416875 0.608332 0.162189 0.829355 -0.058614 -1.186769 -1.354980 0.478499 0.467839 0.201660 2.498696 0.672716 -1.217393 0.416643 0.832104 -0.797350 0.871704 -1.640972 0.601727 -2.125567 1.052877 0.886568 0.185545 0.676396 -0.389732 0.017280 -0.890787 1.087769 -0.641002 0.184028 1.156563 0.838018 0.913957 -1.078008 -0.470457 -1.514719 0.023821 0.168629 1.476063 -1.089758 0.682252 0.458199 -0.431800 1.979615 0.548806 0.037837 2.090544 0.753563 -0.357623 -1.347901 0.578308 0.166795 0.822912 1.249102 -1.712597 -1.278148 0.764211 -0.208148 -1.194240 -0.204737 -2.056620 -2.787809 -0.882905 -1.139298 -0.172209 -0.926344 0.852080 -2.359980 -1.111683 0.717714 -1.542626 0.600032 -0.606659 0.608155 1.382819 0.938756 0.743145 -1.323184 0.909354 0.328658 -0.614955 0.583674 0.433986 0.664480 -0.125377 -1.661835 -1.396253 -0.626260 0.163433 -0.306613 1.708512 -1.657458 1.746378 -0.562053 0.089852 0.821536 -0.707320 0.317447 1.006522 1.972756 0.168283 -1.221011 -1.601812 -0.899236 0.537114 0.023509 1.257829 -0.431319 0.449991 -1.241837 -0.431172
at 0.155495 -0.158674 0.107471 0.664802 0.553636 -0.628953 -0.474042 -1.013262 -0.742052 -0.052530 -2.205911 0.853508 -0.817975 -0.166714 0.684002 0.900771 0.694452 0.163179 -0.268630 -0.555572 0.084766 -1.688682 0.773556 -0.753427 -0.280720 0.101496 -0.320159 -0.057384 0.097658 -0.849655 0.732372 0.093082 0.430637 -0.731866 0.344067 -0.317724 0.558815 -0.090804 0.523955 -0.051186 0.662378 0.275506 1.052925 -0.912817 -0.764432 -0.370658 0.694381 -0.881582 1.122739 0.413049 -1.499465 -0.773717 -2.350791 -0.614967 0.875254 -0.874690 0.685426 -0.535859 0.152646 -0.869069 0.226124 -0.767329 -1.393803 -1.315731 0.007378 -2.171791 -0.935253 -1.547283 -0.554045 -0.473066 1.319363 0.960121 1.321433 -0.050010 -0.890482 -0.849575 0.129373 -0.826003 -0.963551 2.034129 1.467464 -0.350920 -0.553162 -0.279471 -1.430758 -0.015281 -0.465980 -0.750310 -2.205673 -0.787703 1.462297 0.523066 0.717871 -0.051588 -0.275927 0.252318 0.028346 -1.967860 1.170774 0.438942 2.187749 0.280042 1.037747 -0.274952 0.246095 0.885159 1.110423 1.494016 -0.932509 0.647946 0.235681 -0.345516 -0.764751 0.167288 1.106231 -0.252441 -0.381558 -0.794595 0.607259 -0.281605 -1.748257 -0.588308 -0.877050 -2.439662 1.104459 -0.853853 1.134703 1.422209
be 0.366677 0.810971 0.007000 0.711453 0.309018 -1.013657 -0.361448 -0.979631 0.099298 -0.840318 0.536427 -0.308789 -1.034392 1.620753 1.290119 -1.051450 -0.706120 -0.062682 -2.799781 1.390854 0.869735 1.301531 1.436600 -0.247320 1.242866 1.615393 0.420553 0.911954 -1.141444 0.321983 0.331052 1.203705 1.584127 0.583713 -0.078908 0.712228 -0.753861 -0.358339 0.777085 -0.913423 -1.175627 0.304389 -1.146270 -2.067215 -0.767325 -0.476647 0.297026 -0.149435 -1.111051 0.992887 -0.149309 -1.131093 1.449908 -0.523926 -0.849790 -1.286898 -0.257964 0.527517 -2.129059 0.854220 0.985321 0.604667 0.998692 0.335467 1.922768 0.518889 -0.160863 -0.351921 -2.031395 -0.461386 -0.368712 -0.235331 -0.292007 -0.920768 2.037822 2.471914 1.339541 -0.983228 0.654205 1.555519 -0.226927 -0.529961 -0.951852 0.400176 0.286934 0.247124 1.612343 -0.631417 -0.951647 0.991907 -0.902540 0.612336 0.710445 2.409509 0.681061 -0.168168 -0.413339 0.634137 -1.256292 0.935075 -0.820994 0.062815 2.480844 0.418651 -0.538725 0.102083 -1.536569 1.745913 0.725921 -1.123553 -1.425553 0.592565 -0.263177 2.038393 0.184080 0.812637 -1.260454 0.829941 0.605599 1.056865 -0.707508 0.383097 0.548005 -0.836212 -2.415130 -0.627808 0.274223 0.298232
on -0.575619 -0.534711 0.117687 1.041189 0.993632 0.537077 -1.279932 -0.723373 0.467961 1.056370 -0.663872 1.540928 0.454404 -0.718098 -1.337445 -2.133838 -0.847175 0.124434 -1.770594 -0.406912 0.505637 1.289191 -0.321832 -0.215889 -1.103568 -1.067087 -0.709354 0.090952 0.719345 0.716626 -0.679178 -0.314974 -1.570229 0.177277 -0.268447 0.226495 0.504146 -0.322181 0.837455 -1.099381 0.971878 -0.343213 -2.327334 0.399574 0.622560 -2.099117 -0.349159 2.072967 -1.281620 0.743350 0.067907 0.309623 -0.358124 -1.783901 0.096447 0.779797 2.142287 0.053277 0.718394 2.854046 -1.035505 -1.812459 1.131762 0.207836 0.237970 -0.539807 -0.673723 -0.517625 -0.452975 0.441277 -1.116642 -0.390138 0.640435 0.058454 0.235465 0.789104 -0.201112 -1.183108 0.420863 -1.105367 -0.099616 -0.009109 0.302380 0.223416 0.163750 1.154547 1.347437 -0.822282 2.433774 -0.480219 0.008903 0.051024 2.089439 -0.318138 -0.754305 0.729040 -1.476313 1.077918 0.863706 0.695686 0.419721 -0.665509 0.151005 0.757145 0.584872 0.329400 0.410850 -0.714375 -0.707005 1.182302 -0.002197 0.172429 -0.311811 1.550676 0.074632 -0.527877 2.009442 -0.144708 0.729537 0.295796 -0.490336 0.156701 0.749664 0.097391 -0.219225 -1.246720 -0.122044 -0.700883
her -0.098060 0.933646 0.375343 -1.359559 -1.705211 0.397204 1.058484 -1.165426 -1.498162 1.153813 0.139161 -0.124446 1.309523 -0.458013 1.382414 -0.083195 -0.159749 1.833061 -0.395146 0.679040 -0.288492 -1.715274 -0.648373 -2.253933 -1.696045 -1.467488 -0.450105 -1.287697 -0.380113 0.568536 -0.714737 -1.058898 -0.678431 -0.775713 -0.641982 -0.728800 0.307267 2.488346 0.652907 0.469668 -0.023998 -0.078536 -0.099423 -0.463782 -0.235332 -1.062341 -0.063296 -1.960286 -2.131339 1.099549 1.724416 1.905017 0.519040 -0.282257 0.862857 1.051954 -0.622927 0.538300 -1.609309 -0.801524 -1.320355 0.997789 0.325440 0.114819 1.358841 -3.220452 -0.724098 1.193216 -0.433046 1.498832 -0.600019 0.156096 -0.453726 -0.720861 -1.188144 -0.006214 -1.173966 0.733760 0.102145 0.830945 -1.349445 -0.381223 -0.301124 0.216040 -0.595737 -0.016090 -3.190230 -1.454170 -0.211138 0.614412 0.887725 -0.026939 -0.080311 0.665823 0.921779 -0.189451 0.408068 0.490157 -3.120200 -0.922329 1.296972 -0.187078 0.707332 -0.127203 -0.557475 -0.807695 -1.347689 -0.525823 0.957709 -0.275225 1.759942 -1.233243 0.900101 -0.651693 0.746879 0.064761 0.492437 2.450452 -0.715785 -0.509219 -0.814063 -0.608428 -0.716523 0.174771 -1.036615 0.045222 -0.933160 -1.264204
my -0.928105 -0.255914 0.163014 0.115324 -0.450245 1.227438 -1.658833 -2.249516 0.817457 -0.262190 -0.395233 -1.822532 0.800960 -0.713589 0.506300 1.862584 0.810408 -0.780807 -0.167055 -1.339705 0.985523 0.647165 0.055713 0.630504 0.103827 0.062725 -2.052320 0.970772 -2.356890 -0.866897 -0.960347 -0.009807 0.938430 -0.203188 1.067848 -1.336168 1.256307 0.113019 -1.232510 0.876167 0.342872 -1.205477 0.912259 -0.330532 -0.045515 -0.964450 0.811216 0.154304 0.985973 0.119723 0.361793 -0.272260 0.779449 -0.421571 0.349212 1.206811 -1.791247 1.630540 -0.045932 2.476353 -0.337217 0.560219 -0.342774 2.338415 0.776396 -1.003916 -0.369427 -0.081166 1.769289 -1.248742 -2.077805 -0.869945 0.750924 -0.417888 0.049937 2.585210 0.647743 -0.380443 -0.933540 1.379333 0.181850 -0.159614 0.216735 1.423180 1.189472 0.017116 0.314826 0.169236 0.483234 0.010904 -0.008796 1.840821 -2.101758 -2.502862 1.049167 1.135874 -1.783882 -1.069046 -0.038515 0.422706 1.365556 -0.195662 0.452578 1.002015 0.314081 1.041149 -1.469618 0.414727 0.054513 -0.987005 -0.021359 -0.057045 0.340867 -1.546987 -0.514809 -0.472717 0.033526 -0.801413 0.897490 -0.869128 -0.420164 0.938953 -0.052161 0.175456 -0.379212 -0.543392 0.809230 -1.720493
him -0.366629 1.412312 -1.204052 0.568377 -2.337349 -0.055860 -0.168353 -0.133617 0.376717 1.111352 1.548292 0.453121 -1.477575 -0.632786 -1.350637 0.451777 -0.798763 0.629018 1.084646 1.598189 0.999634 0.811325 -0.530910 -1.062910 0.555991 1.746548 1.263883 -0.077260 -0.850639 0.297476 0.691950 1.179623 0.609379 1.004381 -0.254841 1.848557 1.265163 1.163935 0.340445 -0.153070 0.248098 -1.599064 1.043570 -1.626280 0.133511 -0.663306 -0.834653 0.102395 -0.886977 -0.526672 0.471493 -1.973862 -0.945952 1.845682 -1.067753 1.109892 -0.382095 -0.615142 -0.715712 0.546518 -0.400557 0.176573 -0.300794 -0.770245 -0.004703 -0.015544 -0.339985 -0.524980 0.271586 -2.408056 0.023162 -0.523838 1.005532 -0.651005 -0.073520 -0.156274 0.265115 0.175584 0.526259 0.941305 -1.791073 -0.786746 -0.616089 0.685164 0.448921 0.185109 -2.109568 1.363701 -0.304705 1.259420 -1.588017 -1.865574 -1.077865 -0.935711 -0.214008 -1.285133 1.144596 0.012874 -0.061033 -0.888874 1.001075 0.113182 -0.732964 -1.374940 -1.152838 0.618564 -1.600399 0.623056 -0.702581 0.573782 -0.231416 0.927114 1.415528 1.798837 0.589607 -1.019887 1.962098 -0.046136 0.246104 1.876590 -0.982768 0.150544 0.077454 0.346874 -0.023513 0.197791 -1.512332 -0.691787
have 0.071004 -1.101000 -0.566629 1.912302 -0.485647 -0.290122 -0.210981 0.097518 0.273747 -2.673374 0.729127 1.130663 0.226993 -0.928950 -0.454691 0.793204 0.010508 0.098908 1.040685 -0.984877 0.960833 -0.479366 -0.577204 -2.170953 0.804740 1.113000 1.254568 -0.941398 -0.348365 -0.750444 1.148967 -0.005591 -0.516605 -0.515648 0.695848 0.491843 0.128317 -0.310019 -2.063401 2.204928 0.758237 0.010355 -0.326166 0.007934 -0.665957 0.887214 1.008510 0.442837 0.643910 -1.390959 -0.972640 0.691829 0.988833 -0.684333 1.037760 -0.627999 0.368877 0.451872 -0.758920 -1.057504 0.696940 -0.095417 1.177348 -2.451235 -1.715336 -1.476573 0.257500 -1.239761 -0.465317 0.102014 0.811963 -1.709445 0.143615 0.579326 0.263136 0.063575 0.913075 -0.775292 0.507550 0.586162 -0.612301 -1.636266 -1.413663 -0.841403 2.785884 -0.450780 0.923575 -0.188397 0.030749 -0.075622 1.081552 -1.137828 -0.013231 -0.750512 -0.178360 0.164345 0.219354 1.698686 -1.297410 -1.566777 0.175319 1.409435 0.041408 0.341427 0.184628 1.140589 -1.726213 -0.625321 -0.875233 0.965655 0.462179 -1.481464 0.777747 -2.995959 -2.313752 -1.398015 -1.505862 -1.775728 -0.618448 -0.104121 -0.443682 0.203546 1.543211 0.602179 -0.064345 -0.615102 -0.498812 1.488995
by -1.028815 0.505222 1.144689 0.485604 0.316150 -0.258491 0.643172 -1.422103 -2.149940 -1.187450 -0.485674 0.175325 -1.674568 0.177843 0.712676 0.791420 -0.187169 1.714764 -0.326084 -0.750035 1.409874 -0.802219 -0.162179 0.231208 -0.698872 0.974564 0.389293 0.798499 -1.918534 0.206240 -1.209957 -1.418964 -0.685522 0.724464 -0.469062 -0.294202 0.195337 1.594547 -1.168734 0.848837 0.734617 1.724233 -0.260107 1.460214 1.713033 -0.638628 -0.238284 1.083224 0.502672 -0.558984 -0.963393 0.074311 0.361294 -0.637801 -0.820240 -0.196740 -0.053664 0.464477 -0.083757 -0.545938 -0.136386 -0.470442 1.376297 -0.508565 1.423759 0.017918 -0.696449 0.823273 -0.170722 -0.347116 0.440207 -0.289357 -0.327520 -0.474545 -0.583305 0.164760 0.025263 -1.194093 -1.073687 -2.182584 -0.644343 2.128950 1.098644 -0.522077 -0.957195 0.814622 0.249285 -0.697188 -0.633686 -0.051636 -0.218030 -0.708570 2.162984 -0.252722 -0.201995 -1.256609 1.108682 0.467578 -0.599114 -1.487031 -1.618368 -0.073522 -0.593252 0.550497 -0.473040 1.606496 0.850352 -0.550007 0.284281 -0.483930 0.091823 -0.689707 -1.149854 0.894134 -0.058522 0.393742 -1.084200 -1.313867 -1.121340 0.856118 -0.733256 0.618794 0.681379 2.082217 0.575257 1.247090 -0.281141 0.060620
this -1.269691 0.536245 0.867093 0.343838 0.883750 -0.506862 -0.065042 -0.977362 -2.023201 0.058271 -1.055225 0.991626 -0.488766 -0.535961 -0.661435 0.022962 -0.273996 -0.016235 -0.360542 -1.019166 0.350852 1.335202 -0.733729 -0.709571 1.251996 -1.437951 0.257077 -0.946240 -0.872441 -0.075039 0.073544 0.160094 -0.080869 1.178216 2.150257 -1.383818 0.217371 0.790308 -1.546217 -0.453443 1.809959 -0.807769 0.062580 -0.710451 0.987325 -0.105655 -2.712582 -1.181638 -0.963844 -0.710644 0.174898 0.014858 -1.266735 -0.134512 -0.849001 -1.390021 2.006786 -0.577259 -1.124366 -0.138336 1.078925 -0.048643 0.825404 -2.021097 0.563398 -0.714407 -1.505473 -1.672510 2.340366 -0.402471 0.059819 -0.616473 0.032187 -0.194259 -0.054527 0.670659 -0.701857 0.413302 -2.169153 0.424401 0.713953 -0.158851 -1.829243 0.630812 -0.244207 -0.203198 1.523628 0.593704 1.554060 2.270304 -0.790915 0.669813 -0.362973 1.052731 0.903858 -0.269154 1.095744 1.061231 0.778503 -0.530594 -0.633308 0.397964 -0.135647 -1.454286 -0.932773 0.504949 1.412326 0.501978 -1.088611 -0.675649 -0.066259 0.895559 2.308809 -0.278323 0.876180 -0.569463 1.578975 1.630343 1.614153 -0.020731 -1.586966 -0.329030 0.029764 0.283213 0.232781 0.357027 0.281971 0.953453
which 0.640323 -0.327163 0.358109 -0.595559 0.838298 0.432525 1.255981 0.337990 -0.791638 1.021941 1.018704 -2.109302 -0.622929 -1.610997 1.358876 -0.792611 0.235053 -2.200305 -2.688769 1.979810 0.777213 -0.914515 1.231704 1.644177 1.021972 -0.323841 0.552933 0.141017 -1.412569 -0.492897 0.613774 0.726363 -0.860621 -0.579278 -0.808674 -0.056159 -1.389083 0.966421 1.061582 0.620528 0.420223 -0.592269 -0.179608 -0.467501 0.665052 0.487429 -2.247386 0.776443 -0.843566 1.222233 -0.167270 0.143494 0.687894 -0.619604 -0.396784 0.111935 -0.533389 0.709082 0.174745 0.475051 -0.703618 -0.738482 1.884495 1.013910 0.111151 2.322489 1.758669 -0.257906 1.120433 0.326901 0.477876 -0.008175 -0.242375 -0.542117 -0.134701 -0.818531 0.053117 -0.169156 1.196359 0.609826 -0.718272 -0.066702 -0.070014 -0.459872 0.248112 -0.280649 -0.656053 0.451327 -0.945867 0.192710 1.138216 -0.455485 -0.375566 -0.765821 -0.619518 -1.476941 2.627351 -0.462139 0.806089 0.630585 0.784555 -1.807610 0.061073 0.867615 -0.406542 0.835411 -1.118950 2.215300 1.039750 0.814626 -0.519671 -0.081754 -0.986370 0.018092 -1.003675 -0.540891 0.621302 0.601547 0.848564 -0.068729 0.204844 0.836915 -1.175834 -0.084745 -1.539265 1.111377 0.228026 0.077351
me -0.419822 -1.251586 1.016900 0.161642 2.311435 -1.952868 0.077854 1.653582 0.715496 -1.218828 0.178711 -0.617470 0.539081 -0.489208 -0.708944 0.028187 0.522943 -0.997503 0.183447 -1.946296 -1.250507 -0.761781 2.060988 0.531313 0.169409 -0.948527 -1.666828 0.880611 0.457904 -1.377138 -2.188166 0.239215 -0.256339 0.305322 0.025465 -1.338356 -0.560193 -0.397545 0.091561 0.404649 0.603862 1.467643 0.346801 -1.351273 -1.022047 1.080716 0.749077 -1.172170 -0.638811 0.333048 -1.707911 1.059578 0.260361 -0.183600 0.721471 -0.307179 1.021695 0.162279 1.552681 1.188720 -0.035451 0.414217 0.700481 -0.209494 -0.499245 -1.882665 0.613792 2.334043 -1.945037 0.830668 -0.368669 -1.170827 -1.579577 -0.311116 -0.647466 -0.373661 0.961058 -0.118916 -1.758773 0.060732 0.303144 -0.610396 -0.253478 1.881106 -1.119450 -0.601201 0.153606 0.547826 -0.763729 0.767164 -1.427076 -0.769127 0.939028 1.025621 0.207345 1.334368 -0.827004 0.322468 0.613491 -1.054467 2.000905 0.727597 2.232406 0.693656 -0.501468 -0.777382 -0.099826 -1.226638 -3.544672 -0.514305 -0.847532 0.998181 0.416061 0.674217 -0.078368 1.124709 0.491945 0.702521 -0.250742 1.828579 0.575142 -1.443222 0.359621 0.303265 -0.199991 1.062339 -0.706767 -0.969518
all 0.207053 -2.002871 1.145781 0.585934 0.552445 1.300594 0.129804 -0.177388 -0.753315 0.292028 1.205181 -1.865985 0.408855 -0.672851 -1.207571 0.746834 1.037039 -1.003600 0.647900 1.202745 0.798519 0.493244 -1.637119 2.565254 -1.203544 -1.622639 -1.958750 0.499956 -0.423657 -0.255007 0.547306 -1.340633 -0.090910 0.352935 -0.157890 -2.256821 0.204876 0.915148 0.649751 -0.152753 0.068370 -1.564302 -0.152624 0.429853 0.335657 0.315092 -0.962790 -0.514997 3.097822 0.499936 0.544666 0.016702 1.152935 -1.960626 0.579740 -0.421592 -0.506423 0.792107 -1.558512 -1.000610 -0.495070 0.696117 -0.268363 0.419996 0.246407 0.541477 1.239497 0.607487 1.015876 0.401267 -0.663806 0.499955 -0.471801 -0.892887 1.748374 0.324481 -1.440540 -2.594855 -1.430525 0.647888 -0.638795 0.433753 -0.096926 1.220011 -0.725417 -0.144257 -0.273656 -0.469669 0.242030 1.914842 -1.495335 -0.508311 -0.384561 0.195628 -0.421997 -0.108989 -0.527735 0.714838 -0.129905 1.038634 0.216952 -0.727061 0.491843 0.557750 1.775803 0.280498 -2.428860 -1.337598 -0.076839 0.965132 -0.608882 -1.043136 -0.467494 -0.115557 0.289371 -0.445548 0.147293 0.656129 0.719591 1.893101 0.514961 1.415154 1.097579 0.916576 0.982698 -2.319880 -1.125940 0.883604
said -1.409381 -0.767547 -0.391681 -0.054278 0.897886 -0.082517 -0.310198 -1.357021 0.782330 -0.420638 -0.883209 -1.067040 0.194598 1.121004 0.110232 -1.091779 -0.111204 -1.638644 0.562177 0.312018 2.303219 -1.285143 0.118891 -0.935935 -1.900414 -0.675907 -0.136029 0.358798 0.256064 0.781248 0.648586 0.732011 1.588415 1.011401 -0.734861 0.281555 -0.209085 1.123724 0.209127 -1.037721 -0.293149 0.320638 -1.786801 -1.086944 -0.964765 -1.034623 -1.656335 -1.007823 0.516252 1.603601 1.576161 -0.693952 0.604394 0.231960 1.376687 -1.466609 0.268322 1.192403 -0.752591 1.219714 1.178094 1.597443 -0.438525 -0.294366 1.276894 0.593422 0.612026 2.150743 -0.455103 1.206768 0.662960 -0.416580 0.502208 0.025214 -0.166075 -0.326087 0.100278 0.466699 0.924780 2.351447 0.773805 1.646846 0.550413 0.565427 0.954047 -0.324093 0.088019 -0.519271 -1.265589 0.429381 -0.055049 -3.346062 -1.520360 0.666124 -0.223684 -2.001211 -0.135902 1.149436 -1.241304 -1.451868 0.427743 -0.433542 1.853308 -0.005486 -0.549745 0.988750 -1.145995 -0.358934 -0.164127 0.382257 -1.861542 -1.109215 -1.260403 0.558360 -0.766365 0.464599 -1.107073 1.340383 -1.712136 1.071809 -2.050894 0.700511 -0.626825 -2.037020 0.066204 0.365239 -1.705450 0.260157
she 0.734775 0.991735 -1.226117 -0.587145 -0.233806 -0.021722 2.254702 -0.912152 -1.217283 -0.762325 -0.671498 -0.731371 0.787943 -0.394847 0.419035 0.994058 -1.834723 -0.344537 1.588454 0.136370 -1.003966 -0.144738 -0.242720 0.365140 0.209237 -0.658463 -0.703662 -0.340637 -0.475168 -0.246766 0.960749 0.409014 1.112626 0.455002 0.190167 -0.666538 0.903974 -0.220357 -0.790012 -0.403975 0.169074 0.392675 1.228644 -3.501468 -0.337482 0.394755 -1.091944 0.544394 1.995878 1.947819 0.099903 1.062962 0.658209 1.616887 -1.477499 1.230895 -0.308005 -0.078553 0.084290 -0.024211 -1.674252 -0.946781 -0.971000 0.433871 -1.518279 0.958749 0.207464 0.621746 0.886272 -0.630875 -0.000761 0.453030 0.252181 0.413250 -0.812422 -1.129321 0.107889 1.585968 0.102745 -0.830570 -0.382213 -1.029276 -0.549471 1.610694 0.043078 1.263969 -0.142353 -2.026553 -0.284943 -1.466028 1.272190 -0.905998 0.273084 0.538570 1.041372 0.007620 1.587669 0.486352 -0.619548 -0.048226 -1.509518 0.740672 2.530693 -0.037577 -0.907235 -1.333430 -0.796912 1.553336 0.933785 0.021607 -0.617187 -0.139962 0.302127 -1.182613 0.637221 -0.190363 -0.273067 -0.398570 0.770124 1.684740 -1.132149 1.084056 -1.088081 -0.415204 -0.146326 -0.383087 -0.112976 0.133704
from -0.801829 -0.425629 2.025625 3.263518 0.096190 -0.106473 -0.452808 -0.470766 -0.305574 0.034178 1.469657 0.904098 -0.356250 0.099337 0.804733 0.114965 -1.540158 0.585800 0.474130 0.367648 0.531107 1.392164 0.675534 -0.187494 1.016896 -2.871309 0.220811 0.993043 0.008345 -0.808998 -0.402090 1.333070 2.103409 0.526097 -0.705388 -0.159607 0.660326 -2.720383 -0.413322 0.558686 -2.660162 0.717605 0.418220 -1.438838 1.190936 -0.102422 0.322545 -0.775904 1.628236 1.286159 0.102612 0.134188 0.955128 -0.753990 1.772811 -0.724540 -0.462158 -0.591363 0.172812 0.747886 -0.151422 -0.126480 -1.417077 0.848587 2.682143 0.906663 0.979803 0.277510 0.601161 -0.328459 -1.450272 0.542420 0.800553 -0.451376 0.317569 1.283106 -1.785168 -0.421930 0.551632 -0.549245 1.418692 -1.698115 -0.245491 0.550172 0.559828 1.440665 -0.495340 0.349730 -1.926680 -0.364152 -0.491077 1.673151 0.385007 -0.311387 0.693861 -0.527720 -0.128871 -0.051807 -0.069911 -0.303002 0.670932 -1.362220 -1.250366 -0.644356 0.828648 2.124529 0.526201 0.182107 -0.222117 -0.611218 -0.973511 -1.397752 2.441778 0.031052 0.404813 -1.640186 0.170066 0.057731 0.129748 -1.239558 -1.420991 -0.702123 -0.632285 -0.913473 -1.304036 1.308449 1.677006 -0.456824
or 1.076370 -0.101653 -1.052839 0.411187 0.513121 -0.837212 0.139196 -0.306233 0.006046 -1.020846 -0.382939 -0.697725 -0.858004 -0.301709 -2.083854 -0.290875 0.264754 1.480165 -1.413479 -1.657824 -0.554530 1.815995 -0.763371 0.837193 -0.468356 1.780172 -0.269500 1.136743 -0.369872 -0.317876 -1.054443 1.280794 0.717697 1.503960 -1.259154 1.415940 -1.215491 -1.365087 1.612630 -0.013747 -0.871675 1.105073 -0.825874 -1.080267 0.520985 -0.257667 1.588546 -0.323575 0.628000 -1.322713 1.296969 -0.717477 -0.468630 -0.212645 -1.181741 -0.010669 0.117385 2.181024 2.047495 -1.635989 -0.173254 -1.973406 2.324513 0.524703 0.764198 -2.013556 0.026394 -0.191629 -0.199242 -0.693285 0.383130 -0.477214 -2.491880 1.633408 0.472192 1.060447 2.105346 -0.350422 0.444581 -0.414392 -0.647730 0.425016 0.931981 -0.357544 0.503593 -0.124838 1.274125 1.451223 0.391008 1.207843 0.442219 -0.809163 -1.300624 1.099320 -0.006521 -0.923995 -0.214456 1.677002 -2.021948 -1.026909 1.334814 -0.365458 0.919624 0.483877 0.391004 -0.335099 -0.800095 -1.025891 2.099782 -1.357955 1.405017 -1.089291 -0.228411 -0.814102 -2.381001 -0.837266 -1.383063 -0.330424 0.485948 0.398226 -1.983340 1.125987 1.125413 0.526458 0.268038 0.009827 1.226104 0.074414
they -1.136019 -0.578789 -0.728077 -2.595060 -0.549231 1.684728 -0.956791 2.198483 -0.209749 0.079002 -0.412220 0.599026 1.340868 0.797355 0.116590 -1.383784 -1.721770 -0.921434 0.936018 -0.127703 -0.013423 -1.864718 -2.331793 -0.019874 -1.621141 -0.694075 -1.552418 0.339938 0.354915 -0.378824 0.473295 0.264316 2.127357 0.311419 0.842709 -0.378286 -0.270611 -0.269786 0.887032 0.244539 0.777314 -1.293219 -0.151368 0.525959 0.452056 -0.012483 -1.481844 1.161193 -0.751601 -2.482451 0.226944 0.055827 1.363994 0.572577 0.377284 -0.989624 -1.232682 -2.297920 0.494370 1.137130 0.320845 1.130388 1.424631 -1.210614 0.129068 2.459769 0.768159 0.645713 0.417698 0.420541 -0.595378 1.095258 1.473738 0.010667 0.046613 0.919428 -1.362181 1.576597 -0.368259 -0.359967 1.007121 0.412780 0.066267 1.581274 -0.101693 1.404815 0.579013 0.342744 -0.114491 -0.029506 1.977403 0.153891 -0.807057 -0.751397 0.427588 0.180028 -0.393172 0.415921 -0.770379 -1.082132 0.533391 0.694171 0.692557 -2.573696 1.044329 -0.304103 -1.003457 -1.264177 1.029362 -2.071513 -1.005284 1.113145 -0.353811 -0.221872 0.906871 -1.045035 0.251566 0.926503 0.906730 -0.920243 -0.098953 -0.217876 -0.795891 1.097312 0.592545 0.886697 0.489352 -0.102126
so -0.155710 -1.724975 1.065708 1.998190 -1.336051 0.969106 0.940516 -0.068047 -0.573403 -2.435308 -0.701770 0.061634 -0.371697 0.454653 0.000011 1.676582 -1.088217 -0.188005 0.812347 -0.947436 1.590146 0.907625 -1.489247 -2.048924 1.069469 -0.897197 -0.414910 1.102806 -1.590295 0.343330 0.035785 0.196400 1.815993 1.382427 1.086974 0.220202 0.650057 0.178153 0.457485 -0.061834 -0.966969 0.230805 -1.073178 0.892867 -0.302412 1.243839 -0.000065 1.351822 1.290435 -0.001211 0.541421 1.850468 -1.565758 0.215734 0.550071 2.063903 1.902045 -0.959919 0.281967 0.078482 -0.011615 0.044230 0.113015 -1.142882 0.340167 1.667872 -0.248366 0.375922 1.471249 -1.265415 1.201915 0.549459 -1.722455 1.622964 -1.563505 1.697362 -0.292148 0.547840 -0.166451 0.192183 -0.326757 -1.715801 0.874433 0.212622 -1.355229 1.224935 2.018684 -1.311933 -0.365445 0.273476 -0.092176 -1.475452 -2.479384 -1.043001 -0.851338 1.622153 0.391131 0.232091 0.045564 -0.832868 -0.524710 -0.180276 -1.408646 0.863174 -0.572448 -2.178241 0.402028 -0.125301 0.231488 -0.044844 -1.343079 0.321329 -0.832149 -0.786366 -0.652798 -0.958951 -0.310885 -0.418547 0.205101 1.475979 1.223845 0.107317 -0.454793 -0.296566 -0.434645 1.878851 0.293391 -0.793781
are 1.260951 -1.871886 -1.106182 0.511193 -0.276159 -1.266163 0.185619 -0.718863 0.447885 -0.693085 -0.977955 -0.045170 0.758580 -0.566789 -0.442577 0.009184 -0.237794 -1.007719 -0.105978 0.880389 0.611289 -0.861633 -0.377070 0.088852 1.220515 -0.690960 -1.231554 1.356534 -1.093927 0.660979 -0.069918 0.080781 -1.027865 0.800694 0.220584 0.306148 -0.740482 0.551949 -0.645317 0.031318 -1.848602 -1.075523 -0.555571 -0.791358 -1.065301 0.730032 -0.506148 1.486847 -1.558039 -2.269855 -0.886322 -0.125642 0.517245 0.313596 1.364618 -1.234166 1.079115 2.608525 -0.332187 -1.132463 0.219279 -0.314162 1.270914 -0.668797 0.625707 1.559585 -1.015421 0.247937 1.300745 1.083165 0.303417 0.038383 -2.449606 -0.555168 -1.631392 -0.565133 -0.880454 -0.143184 -1.018942 0.605744 0.759671 -0.199857 1.015504 0.769407 0.625758 0.334093 -0.649362 -1.526289 0.225898 1.336671 -0.813099 -0.357769 -1.227393 0.146133 -2.003290 -1.470613 0.480523 0.291965 0.426664 -0.825894 0.825191 -0.133333 0.499962 0.777761 -0.650859 -0.850700 -0.511253 0.373669 -1.038217 -0.058747 -0.650109 0.563424 -0.074139 -1.123369 0.310320 -0.775025 -0.164993 -1.229019 0.530157 -0.831975 0.299049 0.568622 -0.300080 -1.044888 -0.623496 -0.004413 -0.300111 0.209567
one -0.121885 -0.155103 -0.502069 0.460819 0.502957 -0.512286 0.699541 -0.581784 -0.972158 -0.666153 -3.411773 0.847905 0.930718 -0.136057 0.038411 -0.467857 0.065835 -0.230838 0.155067 0.526741 0.282505 -0.976636 -1.275650 0.715314 -0.546561 0.363362 -0.002636 0.696715 -0.310912 0.835128 -2.192230 0.520645 -2.377671 -1.681672 -1.346930 0.089555 -0.276455 1.519012 -1.245338 -1.004842 0.552229 1.032707 -1.996349 -0.224978 -1.247938 0.944849 0.255381 -0.412360 -1.248949 0.135021 -0.151182 0.972258 -0.294503 1.766224 -0.440439 0.365375 0.654310 1.465021 -0.854605 0.891295 -1.117328 0.832054 0.009899 -0.144386 0.884103 -1.712533 0.647173 -0.482666 -0.267323 0.259991 0.167459 -0.428348 -2.034309 -0.003380 -0.177170 -1.039538 -0.086230 0.680918 1.546832 -1.299106 0.667359 -0.364490 0.523563 -1.566679 -0.671543 0.764743 0.397889 -1.287806 -0.083414 -2.012767 -0.936039 1.618625 0.224238 0.520592 0.786323 0.314786 2.180725 -0.603472 0.090358 0.708213 1.286671 -1.209674 -0.130826 0.552532 -1.294735 1.376350 0.713749 1.197562 -0.380225 -0.781519 -0.322574 -0.383311 0.559158 -1.011631 0.191885 0.060977 0.094105 -0.072311 -1.415139 -1.301849 -1.993006 -0.419309 0.251811 0.079942 1.152320 -1.083440 1.264709 1.134387
were -0.021271 -0.107298 -1.281636 -1.065338 0.436478 -1.626201 0.554605 -1.453878 0.177660 -0.776042 0.213810 0.877824 -0.177634 1.108847 0.305236 -0.058449 -0.017438 2.022331 1.854401 -0.892841 0.193900 0.361959 -1.663979 0.194220 1.416955 0.539500 -0.863478 0.948307 0.050628 1.261113 1.154049 2.073537 -0.750846 0.036392 0.263494 -1.847338 -0.236438 -1.985351 0.284580 -0.139696 -0.358329 0.741316 -0.512237 1.080213 -2.015176 0.318409 -1.496741 -0.515754 0.216918 0.129721 1.062478 0.047302 -0.375338 -3.358744 0.693982 -0.008794 0.840085 -1.060502 -0.784054 0.545426 -1.169824 1.321463 -0.091572 0.423390 0.613001 0.618233 -0.556633 -0.700326 -0.934097 -2.332019 -0.322379 1.959105 1.302867 -1.275928 -0.176300 -0.242302 -0.359358 1.944945 -0.581107 0.414442 -0.345188 -0.002745 -0.625413 0.391997 -0.946329 0.268559 -0.385659 0.812426 0.305354 1.020668 -0.328399 -1.564488 0.691569 1.339980 0.706228 0.457296 0.348268 -2.071352 -0.605474 -0.242190 -0.770261 -0.653803 -1.283892 0.485285 -0.705944 1.023580 -0.806717 0.679044 0.125768 -0.170487 -0.946376 0.483237 -0.829926 0.173381 0.526049 0.624701 0.533028 -0.072064 -2.860197 1.441680 -1.745732 -1.992897 -0.536152 0.795198 -0.964237 -1.091176 -0.002180 -1.757337
what -0.177429 0.434732 0.010309 0.427948 -1.715215 -0.070597 -0.137757 -1.406732 0.500202 -0.441842 0.599523 1.897218 0.654894 0.270829 -1.038697 -1.964612 0.582007 -0.055055 -0.725858 0.296871 3.128489 0.859454 -0.960204 0.419062 -0.084430 -0.693006 -0.751626 -0.579169 0.811433 -0.425411 0.322774 1.206105 0.720977 -0.470249 -2.360406 -0.556323 -0.308409 2.499390 -0.029736 -0.006851 0.259096 1.146821 -0.519580 -0.358833 0.381189 0.622471 -1.018258 0.123505 1.141254 0.916159 -1.038659 0.780486 0.543395 -0.052725 0.593083 -0.743016 0.453914 1.211600 0.774735 1.206828 0.048830 -0.156034 0.267421 0.354607 -0.096992 -0.617787 1.614622 -1.584839 -0.069474 -0.257847 -1.208761 1.958556 -0.686951 -0.514904 0.088314 -0.564539 0.099405 -0.441321 2.069813 0.732761 -0.464924 -0.616153 1.205989 -1.040143 1.363040 0.287711 0.393210 -0.804633 -0.106155 0.440467 -1.687450 1.362304 -1.516123 0.092962 0.439103 0.541923 -0.025081 0.102753 -1.242657 0.546154 0.179058 -1.216908 -0.186250 0.972599 0.256498 1.669814 1.388174 1.293248 0.000621 -0.226609 -0.989626 -1.008612 0.451272 0.408121 0.820534 -1.358789 0.209349 0.053562 -0.170534 1.397665 -0.241569 0.692369 1.064943 0.383074 0.178640 0.320812 -0.365587 0.240151
when 0.272377 1.292404 0.053304 0.829979 1.648973 0.819133 0.156471 0.831570 0.270838 0.008247 -0.173475 -0.722500 0.465289 -0.659233 0.999577 -0.074155 1.139668 -1.101276 -1.482186 0.184410 -0.374114 0.006915 -0.068078 0.168878 -0.813694 0.314126 0.224696 1.269722 0.216699 -1.331449 -0.273974 -0.754580 0.342267 1.955595 1.102746 0.618980 0.970769 -1.126561 -0.004801 -0.932152 -0.001298 -0.159422 0.130105 -1.977549 2.145101 1.381682 -0.537236 -1.489938 -1.150101 -1.384964 0.939503 0.643275 0.317057 0.394937 0.564588 -1.308076 0.587624 1.989334 0.729517 -0.582718 -0.238112 0.808691 -0.175203 0.164161 -0.644343 0.289315 0.474714 0.784099 1.490369 0.729228 -0.785898 -0.297617 -0.327922 -0.153317 -0.469112 0.656378 1.588223 0.567049 1.435813 -1.017410 0.793835 -0.639964 -0.353257 -0.353938 0.699155 -0.429750 -0.369382 1.884603 0.640474 0.027323 -1.261546 -0.013872 0.326743 0.204462 0.045058 -1.659525 1.060315 -1.782910 0.514434 0.197891 -0.891551 0.188896 0.725233 -1.511251 -1.430901 1.254565 -0.069033 -1.140260 -0.222405 0.249024 -1.020793 1.645432 0.024821 -0.512331 -0.719454 -0.768223 1.530263 -1.242552 -0.299238 -2.665930 -0.269722 -0.797066 1.107117 0.668326 -0.863770 0.344121 -1.022258 0.513188
no 0.435775 -0.717638 0.013806 0.031505 -1.510654 0.941752 1.411191 1.514742 -0.582634 1.182681 -1.163196 -0.451724 -0.182861 -0.164735 -1.045705 0.146840 -1.340725 -1.477846 -1.654158 -0.246660 -0.045675 1.285917 0.800283 0.755443 -0.937158 0.214929 -0.918640 -0.205209 1.717418 0.000357 0.632111 0.275883 -1.110112 -1.056687 0.182461 0.147571 -0.503514 -0.626465 -0.925648 0.548352 -2.337460 -1.727615 1.319994 0.163207 -1.517223 0.219036 -2.173881 -0.116116 -1.750926 1.142332 -0.160012 1.580165 0.053829 -0.982170 1.043503 -0.401278 -0.258799 0.307064 1.802635 -0.199555 1.076164 -1.473278 -1.066815 -0.831212 0.093200 -0.046583 1.019417 1.057520 0.180229 -0.396398 1.724067 -0.051151 1.879239 0.396413 0.863798 -0.344302 0.721964 -0.942980 -0.634173 0.782474 -0.172851 0.590446 1.590941 1.038488 -1.069023 -0.166244 0.658862 -0.779919 -1.212813 0.953905 -0.341928 0.845348 1.044537 -1.581256 0.895721 1.517809 -0.256851 -0.857093 -0.170593 -1.388735 -0.837981 -1.708999 -1.434850 0.675790 0.649674 1.151746 0.533420 1.952232 0.017157 -0.097602 -0.415836 -0.101523 -0.255420 -1.170480 0.219948 0.544568 -0.012297 -0.184137 2.327163 1.344575 -0.780831 0.577538 -0.167208 -0.659848 -0.552898 0.253614 0.415787 -0.361855
if 0.376945 -0.076794 0.238620 0.267928 0.705580 -0.626724 1.024175 0.648683 -1.536089 0.728383 -1.967669 0.863550 0.227893 -0.214816 0.061473 0.422657 0.917008 0.447420 0.447878 -0.389266 0.788503 0.793433 -0.479928 0.727527 -2.243832 -0.617407 -1.030680 -0.855529 -0.790780 0.266266 -0.228423 -0.518741 0.099063 -0.780656 0.153441 0.644307 -0.391453 0.207829 0.494950 -0.966056 -0.697809 -0.178778 -0.064288 -1.049554 -0.415462 0.317086 -1.537164 -0.613740 1.252820 -0.544501 0.983027 1.605605 -0.860934 -1.633404 -0.380673 -1.394068 1.156011 0.123408 -2.458039 1.551066 -1.723115 -0.180236 0.224656 2.108263 -2.055545 0.748009 1.670770 0.608258 -0.268085 0.844387 0.197473 -0.619418 1.136261 1.657736 -1.853858 0.429924 -0.491811 2.164262 -0.727209 0.451559 -0.137662 -1.489542 -2.099019 0.501479 -0.417078 1.586375 1.218407 0.902414 -0.354398 0.863154 -1.035984 0.283809 0.575931 -0.027094 -0.415794 -0.308106 0.409336 2.278185 0.278269 -0.074922 -1.278264 -0.016423 -0.955873 -0.376615 -1.530957 1.397464 0.440568 -0.109972 -1.164463 -0.127095 -0.836239 0.579009 -1.720896 0.418638 -0.451122 -0.001373 -2.147362 -0.394226 0.222197 1.540117 -1.708440 -0.108117 -0.172782 -0.882965 0.086078 0.031499 -1.714866 -0.861481
there -0.265521 0.077672 -2.443945 0.194580 0.971638 -0.061503 0.608813 -1.805750 0.668203 0.642991 -1.622361 -0.511012 1.719949 0.390942 2.977584 0.232738 -1.304243 -0.359199 -0.153716 1.267959 0.684016 -0.311094 0.533289 0.192090 -1.028849 -0.478145 0.281868 -0.285592 1.698307 -0.929376 -0.151259 -0.957380 -0.840634 -0.647349 0.627983 -0.112712 1.141142 1.857628 -0.220618 -1.718858 0.617759 0.220898 0.012969 -0.260933 -0.310611 0.238269 -1.555353 2.094330 -1.791809 -0.692702 -0.609358 -1.160395 0.016785 -1.300236 -0.792802 -0.396551 1.611170 -0.589726 -1.059709 -1.416854 -0.312010 1.389251 0.604452 -0.811566 1.173868 -1.005744 -1.110865 1.602644 0.404495 -0.240478 0.983593 0.611154 -0.957600 0.167563 -0.038620 -0.115263 -0.577688 0.725351 0.929766 1.688708 -1.292713 -0.509252 0.070275 0.455284 -1.008409 0.210802 -0.191728 1.057457 -0.275424 -0.924034 0.027358 0.174391 -0.827459 1.009455 0.374550 0.952448 -1.303096 0.271874 -0.057942 -0.416084 0.459133 -1.074495 0.255136 0.125051 1.297268 0.414495 -1.338394 2.298887 0.056745 1.386630 -0.061995 1.251187 -0.504689 -0.010659 0.378530 -0.141839 -2.612268 2.863577 0.614301 0.313790 1.540144 0.821030 -0.355243 -0.220037 1.159021 1.416814 -1.413934 0.887005
who 1.251709 0.820990 0.170013 -0.579723 0.636496 2.452752 0.558834 -1.670208 1.025478 -1.107988 1.737498 -2.272415 -1.024076 1.523556 -0.077126 -0.556854 1.113173 -0.294513 -0.964363 0.481549 -0.849146 -1.783365 -0.101764 1.253742 1.180686 -0.380911 -0.482048 -0.114760 1.297570 -0.575848 0.147360 -1.361988 -0.553991 0.635475 -0.380362 -0.885127 -1.494611 1.863235 -1.532214 0.011031 0.840634 1.321331 -0.055211 0.324824 0.348606 -1.323526 0.245791 -0.852972 0.439287 -0.052304 0.258300 -0.958300 1.238645 -0.839143 2.505733 -0.836929 -0.950705 0.974314 0.689167 -1.160063 1.266539 0.477954 0.533565 -0.550369 -0.765052 -0.192790 -0.682252 0.414941 -0.979856 -0.730124 0.600063 -0.048301 -0.951935 0.656652 2.143539 1.911760 0.624289 0.002591 0.328132 1.034136 -0.550014 -0.344251 -0.045945 0.553051 -1.967176 2.037017 -0.591192 -0.427397 1.996089 -0.802105 -3.415835 -0.689106 2.221853 0.551518 -1.257372 0.451074 1.547141 1.002303 0.761370 0.233689 0.270219 0.315986 0.685276 0.499534 0.349857 0.115865 0.185535 -0.711189 -0.699251 -0.593087 -1.138372 -0.379153 1.522457 -0.408192 -1.246930 -2.732173 0.047166 -0.753388 0.063750 0.641686 0.986029 0.591294 -1.446297 0.022788 -1.275015 0.049634 0.208185 -0.719707
we -2.048211 -0.745719 0.125621 0.692938 2.785866 -1.973844 -0.990198 0.411261 1.013023 -1.722700 -1.380304 -0.959782 -0.210523 0.062598 1.130976 0.468457 -1.107315 1.971216 -0.974767 1.083334 -0.454549 -0.030219 -0.873294 0.045199 0.529598 -0.110457 0.257012 0.459960 -0.764418 0.709064 1.832521 -0.263615 1.781603 1.539137 1.989783 1.183299 -0.709858 1.064996 -0.813678 1.721123 -2.121299 1.660054 1.068130 0.843121 0.290977 -0.035101 -1.803957 0.020259 0.592643 1.352920 0.456604 -1.492787 0.287824 0.806744 -0.589596 0.314004 0.536982 -1.088296 0.887161 -0.835868 -2.164865 0.477209 0.820705 0.903892 0.987232 -0.678499 0.204588 1.035160 -1.502300 -0.224551 0.315461 -0.136137 0.307709 -0.395526 0.696149 1.561797 -0.985914 -0.057404 0.562728 0.824739 0.245591 0.657921 1.404436 1.523808 0.112743 2.198271 0.071228 -1.270243 0.624903 1.142681 0.236974 -2.319748 -0.060303 0.453275 1.755168 1.234653 1.860775 -0.411088 -0.355892 1.384673 1.249917 -0.576440 0.720059 0.798950 1.777667 1.273687 1.508753 -0.745395 -0.614370 -0.054387 1.475357 -0.233615 0.822175 -1.278648 0.451312 0.378976 -1.640223 -0.504608 0.383157 -0.137584 -0.385974 -0.522190 -0.065078 -1.260951 -1.366670 0.697729 1.057883 0.814661
will 1.080017 -0.112818 1.384766 -0.726947 -0.821252 1.482905 -0.068288 -0.308378 0.368783 -1.023684 1.503025 0.063001 -0.580434 -0.776568 -0.923101 -0.992874 -0.669689 0.862250 -0.365581 -1.269009 -0.244983 1.294010 1.584156 -0.062642 -1.510083 0.680915 0.571313 1.993590 1.252474 -1.341924 0.559135 1.401891 -0.077796 0.991946 0.456003 -0.048302 -0.604418 0.588022 -0.940034 0.151312 0.507565 0.709481 -1.060259 -0.592304 1.565389 -1.275347 1.645683 -0.049180 0.918378 0.195756 -0.389808 0.333612 0.723370 0.570206 -1.717877 -0.112466 -0.090256 1.157828 0.459868 -0.646703 1.235328 0.300780 0.476859 1.087414 0.083922 -0.473623 0.676937 -0.355374 1.218687 -0.718030 0.495819 1.619174 0.215394 -0.320314 0.151504 -0.347162 0.341558 0.214493 -0.560154 1.341800 -0.127016 0.099376 0.295590 0.701066 -0.501998 -1.948509 -1.246657 -1.016107 0.514382 -1.290034 -0.043410 0.842657 -0.184925 -2.139458 0.508729 1.282904 -0.636491 0.881666 -0.351947 0.085700 -0.274616 0.563442 -1.127194 0.000342 -0.889167 -1.374584 0.471633 -0.473614 0.952789 0.417016 -0.002249 -0.505769 2.211529 -0.533327 -1.748381 0.133660 -0.807209 -0.857335 0.504614 -0.503273 0.110464 -0.062598 -0.648658 0.734021 0.267223 0.892808 -0.489864 0.683260
an 0.489729 -0.108538 -0.590005 -0.093033 -1.557022 0.804296 -0.365783 0.621927 -0.580851 -0.714978 0.701270 -0.968142 -1.725047 -0.514116 0.274829 -0.062320 0.420731 0.740743 0.522116 -1.067096 -0.224922 -1.096290 1.048262 1.717679 0.713092 1.083653 0.695197 0.237546 2.153360 -0.486752 0.893060 0.644128 0.843373 0.805661 -1.370311 0.525471 0.466646 1.333529 -1.399459 0.315089 -0.421567 -1.324601 0.980566 0.454794 -1.151374 -0.327022 0.595143 -1.017156 -0.798501 -1.657355 -1.092606 1.275308 -1.244883 0.531683 -0.524822 -0.089668 0.624302 1.369091 -1.795948 -0.869080 1.037253 1.644316 0.000992 -0.514383 -0.807398 1.039466 0.617246 -0.889789 1.060015 -1.943661 2.088330 -1.071039 -0.391993 -0.428066 0.596265 0.038943 -2.306541 -2.198696 -0.112392 -0.575056 -0.932112 -1.469528 -1.533441 -0.637451 -0.647629 1.106920 0.856306 0.429498 -0.231927 0.043546 -1.303509 1.152258 -0.389386 1.580768 -0.359875 -0.247331 0.726323 -0.114437 -0.902893 0.366240 -1.163250 0.361568 -1.117495 -2.359128 0.306237 -0.189776 1.480027 -1.925182 1.500559 -0.401825 0.974793 -0.422005 -0.700580 -0.516440 0.620769 1.179036 -0.603718 0.616829 1.545768 0.738189 0.337715 0.091583 -1.079392 -0.338546 1.199483 -1.342629 -0.951707 -0.092169
then -1.362458 -0.309144 0.017840 -1.795082 1.621624 0.344953 0.352518 1.514516 2.677267 1.249286 1.806829 -1.673743 2.206502 0.323426 -0.972837 -1.540673 0.198346 0.597504 1.515842 -1.029982 0.536815 -1.353724 0.497776 -0.931847 -1.102671 0.491916 -0.427308 -1.991111 -1.650498 0.437536 0.294461 2.394179 0.226375 0.720134 -0.663679 0.857399 -1.925329 -0.789537 -0.208963 -0.759198 -0.036061 0.854608 0.364771 0.276619 0.787217 0.063476 1.377989 1.818058 0.200796 -0.094946 -1.106203 1.822135 -1.312105 0.438208 -0.251703 -1.108704 -0.213732 1.063418 -1.430488 1.125718 -0.009569 -0.686434 0.047363 1.654389 -0.330009 0.093065 0.726396 -0.337104 0.421195 -0.460732 0.267255 0.019599 -1.485347 1.403820 -0.505402 -0.812095 0.241226 -0.291112 -0.222700 -0.494347 -1.046488 -1.768698 -0.323015 2.268239 0.583985 -0.177380 -0.068675 -0.893182 -0.346119 -1.984375 1.731778 1.635653 1.417915 0.792637 1.352777 0.026424 2.605157 -0.061913 -0.081912 -0.270132 0.207454 -0.531946 -1.824276 0.352584 2.021857 1.078121 0.313667 -0.137624 -0.344770 -0.142043 -0.247162 0.417419 1.594844 0.833085 -1.882246 1.735093 0.035445 -1.200863 -0.869033 0.056889 0.613244 0.089318 -0.036333 0.091358 0.368610 -0.679420 0.012753 0.890222
their 1.664922 -0.852833 -1.457562 -0.004299 -1.189614 -0.167047 -0.115347 -0.849650 0.641912 -1.302503 -0.674309 -0.545890 -1.304678 -0.869904 0.706919 1.726785 1.881074 0.076628 0.850490 0.924135 0.493282 -0.096750 1.704766 -0.071282 0.176153 -0.054118 -0.491193 1.119588 -0.041671 0.328474 0.419593 -2.394637 -0.082976 0.626664 0.633791 -0.706400 0.422038 1.554319 0.128231 -1.776349 -1.206869 0.637496 -0.391329 -1.663472 0.257952 0.730754 -0.551304 0.196959 1.658734 -0.897841 0.326262 -0.053837 0.368308 0.188196 -0.098594 -0.011717 0.532195 -0.674669 -0.201441 -0.345614 -0.963400 1.637756 -0.070832 0.168383 0.825627 -0.111420 -0.476640 0.579432 -0.143084 -0.378954 1.055223 0.039704 0.077540 0.657027 1.581758 0.670457 -1.217808 1.680524 -0.532982 0.499210 -0.019350 0.456815 0.580165 -0.996675 0.538133 -0.085924 -1.686898 0.424642 -0.331264 -0.462741 -0.439964 0.324970 1.408832 -0.316810 0.586162 1.260514 0.670185 0.257966 0.444858 -0.923975 -0.283913 -0.220340 -1.308115 2.420575 0.789862 1.560501 -0.335170 -0.212371 0.942128 -0.691413 -0.120618 1.582478 1.103426 1.269113 2.307035 0.832040 1.917191 -0.767178 0.592281 1.124922 -0.577774 0.315262 -0.741177 -0.757969 1.118444 -0.915236 -1.995235 0.148979
would -0.577034 -1.291189 0.672005 1.740823 -1.718603 -1.080575 0.195044 1.278183 0.061003 0.483789 -1.855273 -0.232719 -0.104594 0.243566 -0.736392 -1.507760 -1.553461 1.011068 -0.643430 -1.801337 -2.366470 -0.145383 -0.048612 1.447132 -2.034832 2.195523 1.185331 0.196865 -0.836845 1.442833 -0.834480 -0.214293 1.077827 0.073691 -0.812612 -0.742680 0.956743 0.022470 -2.512248 -1.317323 -0.810809 -1.650466 -0.958992 1.020648 0.366030 1.040421 1.952933 0.605742 -0.478024 -0.483233 0.910869 -0.181768 0.802591 0.222195 -0.455861 -0.601546 1.190391 -0.477493 0.181813 -1.547730 0.119960 1.435213 -0.514957 1.702204 -0.068258 -0.593642 0.634286 0.751817 0.423096 0.014691 -1.947955 -0.102615 -2.166457 -0.380869 0.937161 1.244594 -0.887304 -2.861626 -1.089122 0.577429 0.257530 0.193428 0.176964 -0.719900 -0.530090 0.344947 1.530091 -0.053738 1.103546 0.579027 0.232668 0.497069 0.714820 0.967739 -2.475604 0.302621 -1.511625 0.184322 0.423771 0.526281 0.776285 0.227839 1.301218 -0.718203 -0.333670 -0.682260 0.597441 -0.349994 -0.532140 0.466835 0.734527 -1.543575 -0.135441 -1.580965 -0.325124 0.262206 0.845583 -1.052222 0.252474 -0.301881 -0.350851 -0.428017 0.121157 -1.792002 0.315293 1.701226 -0.126217 0.742203
them -0.885863 -0.177705 0.963417 0.623432 -0.479839 -0.241570 -0.575267 0.769471 -2.211622 -3.324823 0.991740 0.420451 -0.225998 1.557893 0.604776 0.536154 0.956196 -0.282350 0.982275 0.398175 -1.278364 -0.362621 -0.091575 0.312929 -1.554317 1.469374 0.771350 0.589426 0.324308 0.474782 1.098788 0.975847 0.597233 0.932846 0.179772 0.533020 0.214221 -0.311094 1.914399 -1.286993 -1.408935 -0.647505 -1.461492 0.038053 -0.802737 -0.884287 0.838780 -0.226918 -0.738412 1.537015 -0.938131 1.881124 -2.346524 0.626105 0.231467 -1.196556 -0.629456 -0.776285 -0.701171 1.852659 -1.134399 -0.428979 -0.286117 -0.922479 1.508433 -0.538747 0.168647 -1.172931 -0.423371 -2.575003 0.904654 -0.657898 -2.670793 -0.172364 0.864513 1.328967 -0.003386 -2.088515 0.404076 -1.182584 1.707594 0.717211 0.472813 -0.380846 1.206323 -0.577271 0.051615 -0.192119 -0.573633 0.353529 0.139052 -0.588796 -0.043048 1.208430 -0.014404 -2.561131 -0.112348 -0.099744 0.438597 1.444623 -1.323450 -1.365011 0.965172 1.219430 -0.360444 0.737342 1.370930 1.450928 0.372522 0.689412 -0.950852 0.411207 -0.201503 0.694353 1.548567 0.455867 0.655550 -0.944129 0.277658 1.097815 0.409086 -0.128940 1.139611 -0.444270 -0.682108 0.946849 1.409916 2.324403
been -0.994448 0.927138 0.603933 -0.121083 -0.215956 0.971247 0.705314 -0.356868 1.700883 0.173927 1.156726 0.145286 0.724474 -0.212365 -0.306699 -0.285756 -1.610250 -0.160916 0.869730 0.441170 0.647234 0.961086 -0.609889 -3.408206 -0.021686 0.113087 0.247353 -0.215015 1.619823 -1.864570 -0.649020 -0.470281 0.367992 0.608704 0.893832 -0.173205 1.315452 -0.970477 -0.242763 0.921567 -0.316100 0.980484 0.898212 1.306850 0.158462 -0.565323 -0.187919 -0.088046 1.516662 -0.318512 0.335344 0.755524 0.649393 1.099734 0.487321 -0.537408 -0.724637 0.114465 0.277568 0.300544 -0.210887 0.652455 -0.330648 -0.547404 0.036537 -1.033675 -0.938290 0.604648 1.378499 -0.315549 1.049341 0.809174 0.624512 -0.231153 -1.739003 0.851547 -0.403445 0.153650 0.354423 -0.732744 -0.732861 0.320014 -1.562348 1.270867 0.135360 0.075557 1.041791 -0.874007 -0.064511 -0.625437 0.619019 0.298341 -0.072486 0.310749 -1.179375 0.427468 -0.393081 -0.844014 -0.996407 -0.409349 0.589604 -0.203538 -0.163764 -0.004798 -0.456667 1.356738 -0.537679 -0.634680 0.632433 -0.806096 -0.034191 0.769811 0.535679 0.390952 1.170689 1.296540 0.251579 1.075137 0.514468 -0.048913 -0.440563 0.032064 -0.488083 1.162618 -0.646010 -0.307861 1.057912 0.811218
do 1.482349 -0.263222 -1.154831 -0.077627 -0.822407 -2.167515 -0.749206 -0.690662 -0.819502 -1.277877 -0.235128 1.186807 1.204941 -0.147522 -0.134428 0.840608 -0.268093 0.826439 0.429962 -0.451865 0.670960 -1.139302 0.470882 0.299972 -0.364708 1.201576 -0.036988 -0.861020 0.425259 -0.012984 0.608784 1.424880 -0.537379 -0.719646 2.395612 -0.868264 0.118904 -1.352118 2.875793 0.328973 0.478590 -1.615986 0.196369 -1.996059 1.019369 -0.234503 0.358312 -0.200958 -3.458486 0.069826 0.455825 0.506533 0.966195 0.417455 -0.167419 -0.257484 -2.302146 -0.696590 0.649758 -0.819268 -0.501159 -1.065232 0.468041 -0.655351 -0.225060 1.652351 -0.089690 0.316418 0.532145 -2.056178 0.444474 0.475523 0.415410 0.649240 1.187927 0.757169 0.543050 -0.797179 -0.126766 -0.019530 1.104069 0.430402 1.510101 -1.686701 -1.081527 0.748855 0.141147 0.191041 0.703510 0.375968 1.147926 0.010781 0.769083 0.572290 -0.156674 -0.691674 -0.711261 0.091615 1.614866 2.568538 -1.528609 -0.678216 -1.491054 0.073902 -0.460945 1.726072 0.400801 0.604808 -0.446873 1.172444 -0.664627 1.191221 -0.302965 0.319438 -1.622981 0.536147 -0.370759 0.575963 1.865305 -0.561552 0.436083 -0.018805 -1.076976 0.664297 -2.268005 1.725440 0.497830 0.833376
your -0.797168 0.179244 0.647570 -1.132872 0.962736 0.308312 -1.885982 0.611529 0.982025 0.745105 -1.090620 -0.145775 -0.692581 -0.712442 -0.042798 -0.020221 -1.282987 1.986080 1.042490 1.273711 -0.603407 0.929700 -0.214956 -0.459781 0.195937 0.073683 -0.615022 -0.646112 -0.140806 0.556228 -1.447226 -2.618932 -1.100861 -0.288048 0.735451 0.655982 -0.647824 -1.623151 0.045546 1.051301 0.150898 -1.721900 -1.104808 -0.301744 1.506679 0.877177 -0.099319 -1.271501 -1.572268 1.199843 -0.760274 0.376994 -0.168310 0.479101 0.086990 -0.131312 0.240636 0.588060 0.981178 -0.426140 -0.144773 -2.952631 1.245787 -1.118177 1.729423 -0.048757 0.345030 0.536853 1.457528 -2.514210 0.532592 -0.771684 1.088351 1.411321 -0.299780 0.556366 0.557327 -0.091785 -0.514668 -0.061413 0.623449 0.612346 -0.131540 -0.131147 0.717625 0.276322 1.611267 0.484014 -0.129675 -0.341171 -0.483674 0.549077 -1.105719 -1.106411 0.820899 -0.379772 -0.333905 -0.224209 -1.522947 0.613325 1.008510 0.813774 -0.948762 -0.294934 0.461582 1.159087 -0.729159 1.215437 -0.066666 0.530926 -0.142642 -0.436023 0.706125 -0.751931 0.831462 0.487494 0.919532 0.541457 -0.863274 -0.780868 -0.056127 -0.877090 -0.879480 0.035377 1.425530 0.850997 0.753041 0.016399
now -1.993172 -1.205091 1.603417 -0.845903 0.627792 -1.673149 -1.626093 -0.546872 2.215666 -2.070961 1.584141 1.739739 1.501752 -0.519812 -2.064295 -0.971829 0.349684 -1.419130 -0.342568 -0.026977 0.288154 -0.337475 -0.042656 1.895803 0.242236 0.051022 2.514548 1.777032 0.945540 -0.179805 0.712390 -0.379530 0.487459 -1.142494 -0.064679 0.039593 0.425333 1.071029 -2.154999 0.802883 0.048595 1.237356 -1.284762 0.256338 0.443875 -0.627773 -0.571358 -0.549650 -1.054020 0.133336 -0.732805 0.727679 -0.657093 -1.233081 0.729424 -0.819547 -0.862155 -1.719693 -0.996675 -0.143860 -0.251573 0.073043 0.025261 -0.271788 -0.245729 -0.369667 1.019858 1.122073 -0.075062 0.335481 1.247068 0.004990 0.606358 -0.453244 -0.258084 -1.955007 -1.174650 0.346787 -0.798321 -1.568792 0.058956 0.738751 0.403716 0.551294 0.951755 0.356168 -0.954524 0.737134 2.102512 1.179528 -2.495450 0.147477 -1.001991 1.055851 0.180447 0.383192 0.952554 -0.620305 0.348901 0.380446 -0.481897 -0.405030 0.810476 -0.947785 -0.438675 0.719338 0.151421 1.180497 0.799713 0.939708 1.591507 -1.272245 0.201965 0.985223 -0.959642 0.072015 1.401662 0.036437 0.395949 2.292262 -0.116475 -0.950394 -1.245818 -1.053793 -0.702576 0.930987 0.517205 -1.602705
out -1.366203 0.348628 1.254321 0.331581 1.552546 -0.164427 -0.605431 -1.570196 0.963149 0.939759 -0.181293 1.198227 -0.336842 0.410692 1.486599 0.294380 -0.102355 -0.101954 1.611570 -0.668767 -2.355128 0.502570 -1.390669 -1.750254 0.969993 -0.986817 1.470270 0.376108 1.581475 -0.025379 0.456371 0.092306 -0.750428 0.622294 -0.682555 1.175146 -0.432956 -0.117605 -0.655099 -0.000258 -1.823622 0.835430 -2.221640 -0.724373 0.273867 0.571714 -0.107897 0.866674 -1.389893 -2.082564 1.829034 1.148260 1.224932 0.381831 0.643539 -1.516872 -0.197801 -0.479391 -1.917321 1.038562 -1.491796 1.072646 -1.378488 -1.100692 -1.092014 -1.894335 1.113075 -0.347944 -0.072531 0.419835 0.630099 0.371029 -0.452235 -0.983653 -0.680377 -0.017584 0.280601 0.245019 0.730264 0.523077 0.138399 1.001383 0.194374 0.394533 -1.784746 -1.836587 -1.699209 0.158979 0.840297 -0.461422 0.237202 -0.856424 0.114075 -0.759480 -2.245935 -0.234181 0.638816 1.117636 0.105967 -0.019174 -0.200409 0.526223 -0.201541 0.974400 0.236329 1.912176 0.853765 -0.755442 -0.942510 1.244114 1.590396 0.584469 -1.764422 0.724016 -0.797144 -1.290212 0.813231 -0.811047 -0.634973 0.226572 0.205938 -1.745131 -0.113963 0.432236 0.033778 0.117476 -1.018601 -2.425664
more -1.137447 0.367411 -0.721656 0.516218 0.831647 1.102274 1.638059 0.343618 -0.275049 0.371523 -0.989889 0.800141 0.917927 0.504370 -0.881692 -0.023665 0.638373 -1.237845 -1.977136 0.398096 0.456445 -0.540632 0.491403 2.164815 -0.095346 1.548486 0.686894 0.164987 0.362035 -2.144894 2.048443 0.409971 0.725442 -0.983431 2.437226 0.277162 0.490442 0.506330 0.487320 1.022388 -0.867613 -0.097473 -0.341662 0.812065 -0.318505 0.431540 0.835945 0.335809 -0.292590 1.479297 -0.414336 1.119214 1.378738 -1.214625 0.422013 -1.458430 -0.857303 -0.299641 1.575125 1.161224 0.260710 -0.707221 -0.459416 1.084200 -0.225318 1.611815 -0.052404 -1.195152 1.514385 -1.346789 -0.640342 1.518629 0.889686 1.698502 -0.245970 0.713211 -1.060145 0.725960 -0.538297 -1.273669 -1.163964 0.380698 -0.465482 1.344534 0.805040 1.345993 1.580620 -0.159896 0.903499 0.738679 -0.754267 0.428602 -0.713381 -1.604951 -1.119685 1.488447 0.051353 0.373641 0.248358 -0.001270 0.087402 -0.542434 -0.342991 -0.043794 0.188943 -0.515849 0.730269 -0.340708 0.512564 -0.635621 1.044021 -0.795925 0.107601 -0.627779 0.423294 0.792829 0.069351 0.168173 -1.620397 0.170882 -1.836577 0.488646 0.619879 -0.813353 -0.703398 0.646098 -0.572039 -0.961768
up -1.109218 0.193037 -1.565338 -0.217170 0.602282 -0.829043 0.258070 -1.685537 -0.229405 0.892940 1.456417 -0.945816 -0.946880 -0.535650 0.062363 -0.331550 0.522050 1.295539 -0.606002 0.737100 -0.145413 -2.544434 -2.078729 1.184195 0.081105 -0.332396 -1.386555 0.470879 0.097860 -0.030972 0.136295 -1.158522 0.818664 0.929382 1.027974 1.705563 0.699727 -0.974800 -1.730439 -1.243243 1.002140 -0.409015 1.183343 -0.002031 -0.276356 0.722972 0.023023 -1.140006 1.885696 -0.383214 -1.830856 0.368046 0.519902 -0.044149 0.191187 2.187451 0.200312 0.053175 -2.044116 0.165462 -1.436833 -0.223069 1.337313 1.088741 0.398392 -1.074977 -0.681858 1.099342 -0.074589 -0.206104 -1.535229 -0.128837 -0.229848 0.735723 -0.209090 -0.619862 0.162850 -0.651903 0.347667 1.727737 -0.302363 0.591657 -0.950378 0.082680 0.049051 1.014455 -0.232538 0.011147 1.485025 -1.486303 -0.108193 -0.319778 -0.861413 0.925345 0.208161 -0.637096 2.053721 -1.043103 -0.357929 -0.228405 -1.200051 -2.394737 0.753394 -0.518419 0.997317 0.063218 0.308332 1.169383 -0.831221 -0.952140 0.452448 -0.933029 0.025061 -1.272738 0.271887 1.247697 0.640926 -0.166032 1.628090 -0.242301 -0.236106 -0.516501 0.401650 -0.237636 -0.378766 1.386357 -0.603254 -1.200328
man 0.299007 -1.184777 -0.812738 0.407698 0.764371 1.554198 0.492768 -0.077957 -0.624142 1.711454 0.670524 -1.872709 -1.136961 3.010565 -1.521971 -1.537426 0.931570 -0.659224 0.512250 0.199638 0.692909 -0.801605 0.499559 1.251080 -1.198464 3.402112 1.611482 0.835426 -0.390401 -0.401039 -0.568231 0.669830 1.303626 0.333869 -0.709980 1.030507 0.520899 -0.182059 0.401813 -0.572297 1.905199 -0.483833 1.473245 0.441630 0.292921 -1.121244 -0.480206 -0.841856 -1.463285 -0.475527 -1.204502 -0.709897 1.871534 -0.524981 -1.225479 0.743088 -1.757826 0.423766 -0.675429 -2.231113 0.781563 -0.249314 2.080123 1.275577 0.822693 0.770609 -0.529428 0.614785 -0.256834 0.343852 -0.446489 -0.400491 -0.223278 -0.381160 0.856307 -0.936213 -0.145893 -2.103575 -0.465056 -0.292728 -2.097016 -1.435122 -0.431000 0.610917 0.338250 0.577194 1.569709 -0.462759 0.092876 1.870690 0.125980 -1.417000 -1.100895 0.959703 1.185380 -0.797797 1.639242 -0.201607 -0.018457 -2.325435 0.144512 0.726597 -0.078962 0.712195 0.335135 0.224503 0.221900 0.014871 0.058616 -1.393193 0.931488 0.236933 -1.367339 0.341039 -0.001055 0.075716 0.158567 0.624397 -1.514142 0.596657 -1.473936 1.005469 -0.071495 -0.017858 -2.226593 1.771005 0.807400 -0.470097
into -0.572039 0.212540 -0.137995 -0.520202 -0.948495 0.226326 0.831151 -0.327136 0.393761 -1.468509 0.359847 0.980951 -0.502730 -1.204084 -1.647598 0.584255 -1.328635 0.268612 -0.643735 -1.697146 -0.723476 -0.162430 1.318833 0.376884 -1.064407 -1.103775 -1.491395 -0.351922 -0.905427 0.083951 -0.640373 -0.113373 -0.123063 0.056208 0.839831 2.326367 -1.450899 -0.145324 -1.183287 -1.495529 0.386706 0.257220 1.016696 -0.116342 -0.806250 -0.176775 -0.205724 -0.279191 -0.018183 -0.155808 -0.125947 1.082512 -0.117974 -0.615861 0.180118 -0.913834 -0.643946 -1.205853 -0.232725 0.975406 -0.258410 -0.002240 0.809939 0.368196 -0.079621 0.396595 -0.248825 0.987423 -0.272962 1.738428 0.671790 0.196539 0.654315 0.066057 -1.469581 1.025688 1.122076 -0.433715 -0.862928 1.324817 -0.577446 1.168086 -2.226565 0.349423 0.467125 1.533128 -0.644490 1.325810 0.929373 2.461684 -1.692609 1.403113 0.312752 0.224813 1.421412 -0.730099 -0.968606 2.074879 -0.082586 0.729861 -1.359521 0.205313 0.030883 -1.240678 -0.490981 -0.545176 1.168713 -0.084620 0.358855 0.027752 -1.511344 -0.245374 0.275435 -0.713352 -1.514853 0.700802 -1.682479 0.036037 0.072686 -1.979982 0.065191 -0.262615 -0.040007 -0.350679 0.018251 0.871544 -0.279081 1.620171
some 1.506200 -1.795250 0.706842 -0.760612 -1.497807 -0.533481 -0.118065 -1.713502 -0.040740 0.138609 -0.534466 -1.028986 0.195095 1.358965 0.947856 0.520045 -1.071000 1.036084 0.592736 0.895072 -0.705959 -0.353953 1.103738 -0.086558 0.892578 -0.172571 -1.320878 -0.202102 0.520885 -0.741231 -0.185174 -0.409704 -0.166579 -1.383776 0.958991 -1.863429 1.621304 -0.523853 -1.837445 2.948392 -0.094309 0.908232 -0.576500 -0.662868 0.464018 -2.173931 -1.380958 -0.568428 -0.177311 1.176451 -0.522665 -0.696655 -2.053919 1.531466 0.087244 -1.086987 0.991345 -0.316323 -0.981257 0.039553 -0.927412 -0.628177 -1.444854 -0.417308 0.716018 1.191503 -0.665237 0.774920 -1.525196 -0.376612 0.513447 -0.889762 -0.704406 0.099900 -1.109152 1.312855 0.353539 -0.002811 -0.939221 -0.330147 1.185084 -0.861999 -2.443927 0.707278 -0.367307 1.710288 -0.335219 1.140496 1.516646 0.128087 -0.347228 -1.952139 1.086984 0.855193 -1.300950 0.533832 -0.753009 -0.037601 1.093224 -0.041508 -0.525760 -1.400972 -0.278667 -0.277609 0.263427 -0.833997 0.261755 0.308848 1.164740 -0.171015 -0.210157 1.240577 -0.194603 0.522790 -1.074136 0.003796 -0.159655 0.044622 -0.378983 0.562206 0.353909 -2.289045 1.306414 0.071352 0.551946 -0.745903 0.203868 0.148411
could -0.500369 -0.042361 -0.554038 -0.794276 -0.309838 -1.291793 0.031585 -0.940798 0.215146 0.989051 0.935609 -0.260015 0.989003 -0.693155 1.536783 0.941493 1.297857 0.271460 -1.359774 -1.104890 0.212525 0.416760 0.465971 0.130433 -0.967299 -0.701174 -0.363800 -0.085870 0.798002 0.665237 -0.375047 -0.278618 0.663679 0.719738 1.731109 1.103418 1.484876 -0.760214 0.365946 -0.775688 -0.382367 0.269457 0.718482 -0.122030 0.969169 -0.811369 1.391127 -0.355068 -0.045296 1.614306 -1.518352 0.577854 1.780349 -1.577441 -0.508448 0.518327 -0.336387 -0.310840 0.637594 1.215620 -0.826413 0.441570 0.773733 0.416635 -2.440852 -0.529969 0.581636 -1.908488 -0.123091 0.163292 -1.434184 1.855617 1.208476 0.663653 1.370743 0.067497 0.437197 0.670105 -0.412792 -0.245558 -0.446816 -0.985575 0.052403 1.057921 0.127683 -0.467414 -1.675046 0.548331 -0.095191 1.420959 -0.197295 0.097057 0.270448 0.603847 -0.215181 1.428711 1.227046 0.180231 -0.707338 -1.051241 -0.275503 -0.414352 0.035979 -0.312854 1.469886 0.259569 -1.415780 -0.751858 -1.016771 0.944691 0.252944 0.766148 -0.468526 -0.343486 1.570452 0.449307 -1.251931 1.771337 0.578796 1.384803 -1.121714 -1.951299 0.634818 1.421079 2.255304 1.138931 -0.676736 -1.532621
has 1.279993 -1.096193 -0.562794 -0.983673 1.389399 -0.172531 -1.868640 -0.573506 -1.246256 -0.648772 -0.327457 -0.046830 3.236254 -1.087637 1.067735 0.063619 -1.370845 -1.396539 0.436060 -0.064811 1.830020 -0.903383 -0.172789 0.353650 0.267596 -0.337687 -0.129465 -0.168635 -0.725905 0.083127 -1.034032 0.210513 -0.758153 -0.724363 -2.101669 -0.992525 1.306228 1.538817 1.547051 0.208647 -0.536028 -1.187191 -2.177009 -0.602650 0.989712 0.191866 0.207217 -1.111085 0.657790 0.316618 0.060419 -1.458274 -0.593868 -0.356298 -0.281628 -0.118491 -1.149274 -0.089251 0.300075 0.411071 -0.280369 0.494833 -1.347547 0.301081 0.479120 -0.136732 1.682629 -0.285651 -0.725874 0.484547 0.937259 -0.585857 -2.089224 -1.131220 -1.713408 0.849889 0.335426 0.128892 2.137360 0.042672 -1.109745 -0.723299 -1.259334 -2.036308 -1.582821 0.444193 -0.403839 1.510227 -0.537111 1.418390 1.369381 0.482309 -0.795298 -0.744400 -0.472637 0.495604 -0.914042 -0.192853 -1.477696 0.939743 -0.554353 -0.544693 0.184117 -1.181218 0.593169 -1.846212 0.550934 0.661177 0.856307 -1.245748 0.627270 -1.262366 0.094547 -0.429932 -0.470152 2.424226 1.737223 0.761668 0.586857 -1.026766 0.135175 1.190108 -0.836351 -0.092826 1.616858 0.215620 0.289331 0.375044
only 0.328671 1.197644 -0.086510 -1.050088 0.957750 -0.879034 -1.057858 1.034119 -0.689583 0.337080 0.072026 -1.772322 0.481803 0.749303 0.338024 -0.255954 2.005449 -1.496495 -1.324407 0.057217 0.669704 -0.319931 0.838461 0.869708 1.460295 -1.637820 -1.203635 -1.552712 -1.326172 1.148032 3.028445 -0.962986 -0.653233 -0.664780 1.246574 -1.347307 -0.194587 -0.318643 -0.012005 -2.647373 -0.683633 -1.078858 1.335744 -0.812801 2.022809 0.884514 1.690853 -3.144766 0.323269 -0.387653 0.647999 2.392659 1.783377 -0.387212 -0.510366 -1.502308 -0.952250 0.439749 -2.320567 -0.737697 -0.249530 -1.606108 1.213415 0.556771 -1.050451 0.673462 1.689218 -1.323080 -1.246642 -1.148597 0.834559 0.425389 -1.681990 -1.148439 0.019427 -1.400800 -0.574692 0.394893 0.754617 -0.079869 1.474430 -1.380425 -0.447483 -1.159918 1.140513 1.024626 -0.088807 -0.561255 1.901142 0.482946 -0.156225 -0.804784 1.319825 -0.946248 -2.476719 1.299534 0.904457 -1.298004 -1.711416 -1.328383 0.453342 0.202126 1.425496 -0.216057 0.010101 -1.300221 0.898355 -0.940660 -0.174740 0.279765 -1.613195 -0.852450 0.427483 0.627765 0.545904 0.737462 -0.006592 0.467507 -0.882771 0.082628 -0.827931 0.589500 -1.886851 -0.019978 0.792257 1.220912 -0.493485 -1.651121
any 0.362199 0.151258 -0.116593 -0.755787 -0.299320 1.427430 -1.277075 -0.487501 2.259467 -0.997476 1.008075 0.813184 -0.823644 -0.006627 -1.487309 -1.837638 0.540597 0.218754 -1.200494 1.286980 0.860609 1.028748 -1.584260 1.862587 1.034471 -1.361017 1.789236 1.245877 -2.065069 -1.452260 0.382484 0.880858 0.940174 0.806274 -1.516375 -0.023087 -0.700520 -1.265077 2.185089 0.021020 1.163574 -0.395101 1.179127 -1.438002 0.720077 -0.244355 0.760295 -0.669403 1.286970 -0.009240 -0.016760 0.098964 -1.652864 0.427065 0.636756 0.329771 -1.862118 -0.968625 -0.061137 -0.374928 -0.534852 1.343683 -0.524519 0.700580 1.236903 0.784823 -0.152080 -0.389220 -0.937654 -0.582314 -0.422729 -1.416528 -1.335802 0.728566 0.315266 1.736046 -0.153277 0.086467 0.961351 -0.688908 1.063534 -0.735080 -0.094352 -0.293833 -1.488577 1.307940 -0.167921 0.653579 0.853492 -0.208740 0.030304 -0.910715 -0.349532 1.666022 0.680337 -0.041133 -0.302046 0.506279 -0.170371 -0.454935 1.949396 0.919343 -0.316795 0.061782 0.992720 -0.153795 0.003090 2.672953 -1.208833 0.894302 0.620221 -0.713535 0.548712 -1.758220 -1.295502 -2.759459 0.856137 -1.709901 0.735367 1.610191 0.357593 0.494866 -1.106836 -0.261503 0.173112 -0.265205 -0.536767 -0.135740
very 1.251034 -1.747527 0.693694 -0.930397 -0.179673 -0.860280 -0.442583 -0.084811 -0.021366 1.181488 0.457213 -0.846635 -0.985479 0.770263 -0.022928 -0.680630 0.035017 -0.134352 -0.278404 -0.516045 -0.700888 -0.691205 -0.083559 2.098678 0.570192 1.568644 0.436773 0.883859 -0.000810 0.566311 0.300057 0.040838 2.316659 -1.061681 0.708681 -0.365131 -0.908245 0.135781 1.111823 -0.047512 -0.596848 0.098452 0.891112 0.718741 -0.174990 -1.525897 0.341148 0.195051 0.207782 -0.152789 -0.253884 -0.817280 -0.296256 0.032584 -1.965569 1.203436 -0.044855 0.300869 -0.864814 -1.353614 -0.423371 1.600002 0.045660 -0.503989 -0.622252 0.184949 0.873251 -0.289900 0.158896 -0.482445 -3.114711 -0.898868 1.419004 -0.282424 -0.042743 0.391153 -1.164630 -0.522138 0.705785 0.533339 -0.995644 0.781277 0.803832 -1.679670 -1.080574 0.821737 1.999003 0.504913 -0.857148 0.461327 0.459655 -0.195743 0.109615 -0.046148 0.039732 -0.190841 -0.561591 0.286316 -1.077123 -0.643489 0.470765 0.425156 -0.450388 0.769324 -0.287216 0.271045 -0.606908 0.489334 -1.214058 -0.188029 0.728152 1.382363 1.264348 -0.241487 1.768087 0.217394 0.708390 0.216284 0.552979 -0.833478 0.728499 0.295373 -1.658900 0.335110 1.348720 0.672232 -1.484426 0.842615
like -0.125207 -2.100600 1.965995 -1.899458 0.817175 0.018986 -0.861239 0.673185 1.751371 -1.048717 -0.527711 1.365668 0.733768 -2.351534 0.766040 -1.433198 -0.560569 -2.401748 0.668894 -0.034403 0.336286 -1.113466 -0.088483 0.012603 -0.528660 -0.123816 -0.542606 0.171971 -0.276369 -0.950578 -0.135022 0.442991 1.424120 0.785525 -0.427852 -0.825674 0.128513 1.518244 1.378996 0.025971 0.059860 0.212004 -0.129605 1.087355 0.013509 -0.515017 0.268611 0.060115 1.407075 -0.655514 0.187151 1.083482 -0.749524 -0.453845 -1.523582 -0.704533 0.124837 0.009358 -0.928373 -0.604958 -2.167195 0.226632 0.589321 0.056735 1.307440 -0.205067 1.415781 -0.885382 -0.009492 0.735967 0.803558 -0.298717 1.287450 -0.658194 -0.381698 -0.565350 -0.975892 0.194645 0.189036 0.605829 1.671549 0.474147 -0.948504 -0.145984 -0.463801 -0.418208 1.754461 1.792825 0.391264 -0.733722 -0.073409 -0.576990 -0.706236 1.159364 0.352350 1.650900 0.007663 -1.969870 -0.042511 -0.452594 1.057603 0.251954 -0.776190 -0.423049 -1.107476 -1.418123 0.393843 -0.674623 -0.732993 -0.450050 -0.938405 -0.309367 -1.305333 -1.900916 1.527305 0.100267 1.386456 0.783101 1.341728 -0.497741 0.314748 0.307310 0.511063 -1.553048 -1.680395 0.556327 0.355612 -0.981440
did -0.000763 -0.005491 1.454824 -0.532793 -0.479553 -0.247809 -0.092091 -0.186142 -0.850991 -0.795337 -1.518059 0.062639 -0.516529 1.071190 0.791419 1.461972 -0.049876 0.967592 -0.894465 -0.340213 1.639017 0.763020 1.172868 0.566854 -0.427206 1.159038 -0.170558 0.104278 0.329788 0.729448 -1.032921 -0.821430 2.432287 -0.318194 -1.043898 1.142029 -0.849365 -1.657493 -0.995021 0.311903 0.959503 1.048197 0.120186 -0.157843 -0.111400 0.315961 1.042969 2.919631 -0.933544 0.634936 0.595686 1.468122 -2.961377 -0.184694 -0.006990 -0.789548 -0.579056 -0.101353 -1.084022 1.668076 0.423047 -0.127449 -1.583624 0.823526 -0.384281 0.736667 0.252522 1.099400 -1.106756 1.773708 1.278061 -1.340165 2.248161 -0.717478 0.890036 0.881435 0.190615 -0.693547 0.281965 2.447351 0.337044 1.515161 1.062913 1.361585 1.860614 -0.369750 0.905243 -0.136435 1.339387 -0.454030 0.707944 0.021321 -1.017846 0.484610 -1.887617 -2.524773 -1.920330 1.072351 1.052350 0.999263 -0.451183 -3.123028 0.139323 0.007652 1.666886 0.579499 -1.549738 -0.959965 -1.575438 -0.351595 -0.556060 -0.273293 -1.063525 0.048836 -0.949858 1.165497 0.167330 -1.225389 -2.603692 1.202532 0.955028 -1.437992 -0.001853 -1.924923 -0.618326 0.759192 1.435234 -0.702654
time 2.685164 1.161098 -1.395104 0.236757 1.014591 -0.182694 0.935988 -0.837943 -0.885013 -0.965366 -1.438628 0.622209 1.091927 1.031040 0.746818 0.579986 0.471518 -1.455559 1.418905 0.064394 -0.095385 -0.488765 0.175477 0.609743 -0.511521 0.626962 0.822062 -1.612533 0.054170 -0.854158 0.226035 0.104698 -1.250309 -0.796489 0.434503 1.545125 -0.260568 0.007537 -1.646924 -0.373876 1.050315 2.231229 -1.353458 -1.346270 1.565384 -2.389058 1.485473 0.002188 -0.469208 0.125361 0.601148 0.497919 -0.255252 -0.752223 1.479089 -0.565564 -0.268410 -1.043315 -0.225369 0.624787 1.583697 0.334031 -0.862047 1.201398 -1.228785 -1.610135 0.583331 -1.033648 -1.352618 -0.051770 0.863863 1.256209 0.391674 -0.231234 0.546179 -0.094442 0.024635 0.127621 0.502211 -0.766960 -1.241914 0.563683 -1.889030 -1.143035 0.755936 -0.465955 0.368450 -0.164358 0.069122 -0.458383 0.457798 0.804943 -0.424526 -0.495482 -0.906937 1.725696 -0.124646 -1.662495 -0.600717 -0.511658 1.456044 -1.159996 0.621204 0.460277 1.345351 -0.518821 1.639740 0.373444 -0.929761 -0.351353 0.499194 1.309110 -1.285586 -1.503652 -0.006467 -0.078577 0.440825 0.723111 -0.770853 0.967511 0.644422 -2.625289 0.801266 -0.858397 -0.897585 -0.709992 0.312872 0.578446
its 1.883986 1.236888 1.190706 -1.439088 -0.590926 1.416148 -0.392999 -0.218726 0.003882 1.384623 0.173271 0.467141 2.611725 0.330846 -0.357714 -2.284685 -0.447924 1.031212 -1.717486 0.596086 -0.587532 -1.191352 0.146455 1.558260 1.015592 0.354927 -0.697877 0.483518 1.411206 0.353105 -0.681781 0.450972 -0.856043 0.512389 0.331125 -1.528744 -0.587316 -0.514273 -1.585075 -1.047087 0.105749 1.249399 2.150312 -0.198049 1.328667 0.745973 -0.285935 -0.504075 0.610511 -0.566314 1.744401 1.333659 1.984994 -0.599342 -0.473942 -1.757088 -1.720586 0.070243 0.186064 0.488392 0.716154 -0.216927 1.102040 -0.315882 1.225641 0.401974 -1.810166 -0.142089 1.594818 0.602523 -0.607637 -1.000449 -0.480374 -0.674352 0.381023 -0.554339 0.273094 -1.567375 0.407999 -0.203441 0.040158 -0.089026 0.153513 -1.186503 -2.718772 -0.828120 0.071950 -1.788729 -0.363782 1.060632 0.859583 -0.677868 -1.133423 -0.106661 -0.679367 0.236606 1.643900 1.766502 0.765044 1.356265 0.335883 -0.409652 1.921380 0.030542 -2.372942 0.933233 0.225177 -0.614584 -0.229760 -1.773238 0.916228 -1.493610 0.604983 0.308576 -0.707211 0.598245 -1.162465 -1.000364 0.139612 1.409673 2.110009 2.471028 1.196985 -1.609719 -0.672165 -0.717101 1.097599 -0.342037
than -0.317749 -1.211811 3.260879 -0.710362 0.430315 0.010270 -1.062116 -1.196392 1.604937 1.865947 -0.061172 -0.187448 0.783094 1.208728 1.120230 -0.762796 -0.740616 -0.270712 0.407393 1.122805 0.586277 1.373821 1.715902 -0.113035 0.396452 0.639578 -0.104445 0.224290 -0.674683 2.501336 2.476627 0.372234 -2.021809 0.091903 0.225903 0.944472 -0.562751 0.719361 1.168579 -0.297614 0.675087 0.261100 -0.810213 0.400935 -2.315398 0.229606 -0.651509 3.161121 0.256084 -0.887985 -0.421924 0.656387 -1.441972 0.000244 -0.073849 0.290198 1.112742 -0.739563 -0.385070 1.080290 -0.546115 -0.590664 -0.246895 -0.218083 -0.387452 1.784455 -1.306108 0.620840 -0.160738 -0.690608 -0.201458 -0.025088 -0.266654 0.941557 0.002971 0.019837 0.346336 1.132076 -1.533571 0.328824 -0.633660 -0.492220 1.022467 1.049392 1.110903 -1.373799 1.347856 -0.556457 -0.774010 -0.252337 -0.620668 -1.820411 -0.159769 -0.878266 0.874001 -1.223316 -0.259024 -0.308994 0.049055 0.215667 1.348772 0.218690 -0.701569 1.155491 2.026067 0.181377 2.330711 1.147331 -0.834718 0.144476 -1.815653 -0.069552 0.467461 1.015956 1.245752 -1.380278 0.814813 -1.189200 1.773134 0.393813 0.187267 1.450316 -0.232833 0.660053 1.446542 -1.033826 -0.140041 -0.436598
other -0.197007 0.646901 -0.792216 -0.120233 -1.745485 0.235448 0.280674 0.194212 -0.197690 -0.146643 0.128762 -0.733783 0.401028 -0.575556 -0.526839 -0.670327 -0.636868 -0.132844 -0.839781 1.291230 -0.094170 -0.244334 -0.616937 -0.528897 -0.290628 0.510080 1.383763 0.705157 0.592278 -0.354186 -0.815087 0.803235 0.321792 0.507824 -0.208085 -0.446444 -2.987286 -1.095760 0.599574 0.118050 0.834570 -1.044931 -1.179926 0.300264 -1.539757 -0.795529 -0.058151 -1.206725 -0.323510 -1.010898 -1.095873 -1.108313 -0.977008 -0.404803 0.986180 0.770269 -0.228536 0.776355 0.859227 1.006648 -0.912541 0.336021 0.004033 0.378823 -0.012501 -1.289554 1.714145 -0.079985 -1.093972 1.464304 0.182262 0.448503 0.838730 1.160660 1.023213 0.404879 0.255578 1.398250 0.471217 -2.003745 0.427009 -2.261085 -1.096926 -0.498884 -1.924967 -0.517634 0.033125 0.277987 1.654228 -0.075627 0.404003 0.646066 -2.888035 0.012739 0.271880 -1.157226 0.300543 -1.035662 -0.906936 0.100678 1.423250 2.061982 -1.537343 1.201343 0.103517 -0.425784 -0.672822 0.451559 0.314111 -0.358862 -0.561858 -0.445773 0.105210 1.418379 0.297401 -0.899518 -0.213555 -0.539312 -0.401467 -1.502875 -0.044493 -1.813714 1.689256 -0.204970 -0.981575 1.229483 0.341076 -0.758496
before 1.163746 -0.033797 0.441274 -0.217968 -0.206098 -3.068791 -0.025334 1.570749 -0.001868 0.143882 -1.146803 -1.146154 -1.854911 0.714563 -1.910479 -0.557668 -1.122662 -0.901683 0.066797 0.436024 0.057175 -2.662124 -0.111088 0.721550 -1.423831 3.049490 1.528965 1.508456 1.199812 -0.669111 0.947220 -1.037131 1.663302 -2.925493 1.338449 -0.682234 -0.870892 1.490609 -1.029783 0.796975 1.036389 0.534764 -0.760137 0.465738 -1.010438 0.802740 -0.267971 -0.091570 -0.275675 0.227614 1.399631 0.011329 -1.620429 0.606247 -0.849427 -1.232829 0.649253 -1.189166 0.144585 1.764811 2.559905 1.552988 -1.111770 0.719100 -0.937252 -0.088376 -1.307847 -0.884991 0.044819 -0.009744 -0.830394 -1.114708 -0.706807 -1.734381 0.488075 1.025017 -0.506074 -1.042424 0.314944 0.235155 0.173973 -0.728324 -1.258737 1.072941 1.980492 -0.875838 -0.237804 1.217661 -0.021946 0.297778 -0.937231 0.244814 -0.153326 0.107350 0.443584 -0.987861 -0.690694 -0.351485 -0.286930 0.777555 -1.333589 2.258849 -0.056630 -0.011544 -0.810092 -0.850797 -0.435067 0.071099 -1.487057 -0.229283 0.818617 0.797547 0.448407 1.631615 -0.092735 -0.485779 1.320879 -1.592843 0.989799 -0.857565 -0.321923 0.067636 -0.191057 -0.913381 1.269619 1.385832 0.642812 0.031735
about 0.115777 -1.197766 0.332437 -1.432983 0.453042 -0.524546 0.133771 -1.322292 -0.351243 0.803833 -0.291273 -0.378441 -0.958445 -0.071441 0.336940 -0.395757 0.068830 0.327067 -0.134722 -0.878218 -0.730589 1.786153 0.771104 1.301325 -1.092161 0.718231 -0.637655 -1.280028 1.751840 0.281676 0.239388 0.747209 1.834831 -1.024823 0.307266 0.061908 0.247198 1.246254 -1.536573 -0.562825 0.646207 0.131292 -0.577295 -1.252028 -0.299992 0.684614 0.253468 -0.943842 -0.141598 1.349116 0.171662 0.401291 -3.187377 0.662096 2.076887 -2.337226 0.777522 -0.413769 -2.617792 1.333665 -1.836733 0.556635 1.568958 0.426152 0.937467 -0.477900 1.271868 1.213752 -0.699041 -1.068714 -1.004097 -0.054759 -1.818880 0.071197 -0.298042 0.151362 -0.438807 -0.697743 0.440567 -0.386552 -1.225438 0.139300 1.598568 -1.376053 2.585365 0.217475 -1.069120 0.627382 0.087768 -2.519151 1.297204 0.836718 1.534888 1.100899 0.604035 -0.933924 -0.214861 -0.544310 0.861214 0.958972 -0.614835 -1.103062 -0.082577 -0.930520 0.526842 -0.133116 -1.282904 0.721547 -0.784692 -1.606962 -0.022379 -1.787000 -0.771762 -3.200135 -0.058506 0.070347 -0.769297 -0.503877 1.057104 -1.070802 -0.780705 -1.136443 -1.160217 0.691936 0.974819 0.149574 -0.273050 -0.431096
